tree
version=v4
num_class=1
num_tree_per_iteration=1
label_index=0
max_feature_idx=3
objective=regression
feature_names=Column_0 Column_1 Column_2 Column_3
feature_infos=[-1.0437819104972128:2.5181657829526647] [-3.0380079155407738:3.6492017534044781] [-3.0648813773721169:3.5317780050592837] [-0.30202610471811175:5.6343414659628861]
tree_sizes=567 537 566 476 539 481 559 562 562 561 564 565 480 566 557 567 481 561 561 563 481 563 560 480 562 564 563 564 482 558 482 565 567 480 562 482 564 482 482 546 568 564 485 482 567 563 565 568 484 482 568 564 567 569 569 567 571 566 569 567 570 569 565 568 572 571 480 547 461 485 568 550 460 484 569 568 572 481 550 547 552 571 546 483 573 568 484 463 568 480 564 479 484 483 572 480 656 573 483 481 574 485 570 572 570 571 483 571 653 488 569 572 571 486 463 655 569 485 463 571 569 463 573 547 486 484 573 486 484 569 569 483 552 484 486 658 486 486 488 485 548 571 486 547 484 636 487 573 551 552 548 572 489 486 574 571 486 567 487 466 575 551 573 485 491 485 487 465 485 487 571 485 490 484 487 575 574 618 487 486 642 488 485 641 576 573 485 488 486 641 576 488 485 552 489 487 573 484 579 486 487 486 576 487 489 550 488 487 490 488 553 485 485 571 553 486 467 575 487 486 573 487 488 485 491 490 489 571 489 552 488 485 467 465 572 489 486 492 488 553 575 576 467 491 555 555 491 492 486 485 494 489 490 574 484 490 616 469 488 486 491 493 493 491 491 551 554 489 487 489 490 488 488 490 490 494 494 493 489 491 487 488 489 491 490 551 469 494 488 493 491 484 492 486 493 489 490 493 491 576 490 491 493 493 490 574 489 491 491 576 552 471 494 491 490 471 493 469 487 490 490 492 486 576 491 494 493 491 572 490 492 577 490 572 579 491 576 493 489 494 492 573 490 576 495 489 493 491 495 469 578 470 495 491 492 491 492 488 495 491 578 492 492 572 492 578 491 578 574 491 573 574 471 490 493 493 491 495 492 495 471 491 491 492 491 573 491 492 575 490 490 492 491 493 577 572 491 491 575 492 573 492 578 575 491 491 492 494 491 491 493 575 495 489 490 489 578 579 574 491 577 578 492 575 560 489 489 493 492 492 576 494 490 487 493 490 491 493 493 492 470 468 492 493 491 488 577 490 491 575 489 491 492 469 489 493 493 492 493 578 579 576 489 577 492 578 491 491 491 493 488 489 494 578 468 490 489 491 490 491 490 576 491 558 574 473 486 492 494 493 493 575 492 490 489 576 491 492 576 577

Tree=0
num_leaves=5
num_cat=0
split_feature=1 1 0 0
split_gain=5.99327 7.6128 5.22769 3.56492
threshold=-0.039684574813076544 -0.086582322970508621 -0.78344063250354712 0.6129394166695048
decision_type=2 2 2 2
left_child=1 2 -1 -2
right_child=3 -3 -4 -5
leaf_value=0.024126572912726112 -0.057022068584744137 0.068944929811303513 -0.04085935424591132 -0.0015030444967638961
leaf_weight=30 22 21 21 26
leaf_count=30 22 21 21 26
internal_value=-1.53823e-08 0.0182467 -0.0022416 -0.0273692
internal_weight=0 72 51 48
internal_count=120 72 51 48
is_linear=0
shrinkage=1


Tree=1
num_leaves=5
num_cat=0
split_feature=0 0 2 1
split_gain=5.09497 5.50597 2.07906 1.04185
threshold=-0.91065446885501999 0.94132055932019709 0.015450474950435373 -0.018256278775562015
decision_type=2 2 2 2
left_child=-1 2 -2 -3
right_child=1 3 -4 -5
leaf_value=-0.036513781716054614 0.007199836861816117 0 0.04986030006577865 -0.031957280085373456
leaf_weight=29 20 20 31 20
leaf_count=29 20 20 31 20
internal_value=0 0.0116156 0.0335252 -0.0158198
internal_weight=0 91 51 40
internal_count=120 91 51 40
is_linear=0
shrinkage=0.1


Tree=2
num_leaves=5
num_cat=0
split_feature=1 0 1 3
split_gain=4.33731 4.57355 2.13914 0.742858
threshold=-0.024785699063787636 1.0000000180025095e-35 0.014648207857310804 -0.25379085074601521
decision_type=2 2 2 2
left_child=1 3 -2 -1
right_child=2 -3 -4 -5
leaf_value=-0.014898084823711922 -0.047464846183267198 0.046351921862203133 -0.0012074603520611231 0.0093882874558389642
leaf_weight=28 22 28 20 22
leaf_count=28 22 28 20 22
internal_value=0 0.0139408 -0.0259164 -0.00381225
internal_weight=0 78 42 50
internal_count=120 78 42 50
is_linear=0
shrinkage=0.1


Tree=3
num_leaves=4
num_cat=0
split_feature=2 0 1
split_gain=3.91347 4.79005 1.70875
threshold=0.014683499200762026 1.0000000180025095e-35 -0.11883761089345647
decision_type=2 2 2
left_child=-1 2 -2
right_child=1 -3 -4
leaf_value=-0.02556264023855841 0.010263210354790454 0.038578155034546036 -0.029624973121379568
leaf_weight=40 20 38 22
leaf_count=40 20 38 22
internal_value=0 0.012744 -0.0101555
internal_weight=0 80 42
internal_count=120 80 42
is_linear=0
shrinkage=0.1


Tree=4
num_leaves=5
num_cat=0
split_feature=1 1 0 0
split_gain=3.52552 5.35809 5.36916 2.48188
threshold=-0.039684574813076544 -0.086582322970508621 -0.78344063250354712 0.6129394166695048
decision_type=2 2 2 2
left_child=1 2 -1 -2
right_child=3 -3 -4 -5
leaf_value=0.023555049676137099 -0.045730132971046139 0.056530851596765547 -0.042283238236094291 0
leaf_weight=30 22 21 21 26
leaf_count=30 22 21 21 26
internal_value=0 0.0139718 -0.0031642 -0.0210143
internal_weight=0 72 51 48
internal_count=120 72 51 48
is_linear=0
shrinkage=0.1


Tree=5
num_leaves=4
num_cat=0
split_feature=2 1 1
split_gain=3.22792 2.67764 4.06737
threshold=1.0000000180025095e-35 -0.024785699063787636 -0.086582322970508621
decision_type=2 2 2
left_child=-1 2 -2
right_child=1 -3 -4
leaf_value=-0.035628461807707297 0.00046594467883084173 -0.018303059018886295 0.051502684774907326
leaf_weight=21 47 28 24
leaf_count=21 47 28 24
internal_value=0 0.0075314 0.0180019
internal_weight=0 99 71
internal_count=120 99 71
is_linear=0
shrinkage=0.1


Tree=6
num_leaves=5
num_cat=0
split_feature=0 0 0 1
split_gain=2.92817 4.44979 1.27977 0.361888
threshold=-0.91065446885501999 0.94132055932019709 -0.79231374870819959 -0.018256278775562015
decision_type=2 2 2 2
left_child=-1 2 -2 -3
right_child=1 3 -4 -5
leaf_value=-0.027688957569702317 0.0091511072881707706 -0.0050490283014118249 0.042522886707297369 -0.025647576634838
leaf_weight=29 22 20 29 20
leaf_count=29 22 20 29 20
internal_value=0 0.00879799 0.0285216 -0.0158502
internal_weight=0 91 51 40
internal_count=120 91 51 40
is_linear=0
shrinkage=0.1


Tree=7
num_leaves=5
num_cat=0
split_feature=2 0 1 1
split_gain=2.70276 3.74298 2.63594 0.0595926
threshold=0.014683499200762026 0.6129394166695048 -0.099426050780972428 -0.045791444653767215
decision_type=2 2 2 2
left_child=3 2 -2 -1
right_child=1 -3 -4 -5
leaf_value=-0.026750895462164848 0.012770934692599914 0.035839500066471915 -0.035223052967074391 -0.014759134651124254
leaf_weight=20 26 34 20 20
leaf_count=20 26 34 20 20
internal_value=0 0.0105768 -0.00766284 -0.0212575
internal_weight=0 80 46 40
internal_count=120 80 46 40
is_linear=0
shrinkage=0.1


Tree=8
num_leaves=5
num_cat=0
split_feature=2 0 1 1
split_gain=2.19699 3.02918 2.13797 0.0406117
threshold=0.014683499200762026 0.6129394166695048 -0.099426050780972428 -0.045791444653767215
decision_type=2 2 2 2
left_child=3 2 -2 -1
right_child=1 -3 -4 -5
leaf_value=-0.02407647557212126 0.011494085848778401 0.032256075784557449 -0.031701627834771047 -0.013283590068521573
leaf_weight=20 26 34 20 20
leaf_count=20 26 34 20 20
internal_value=0 0.00951916 -0.00685333 -0.0191823
internal_weight=0 80 46 40
internal_count=120 80 46 40
is_linear=0
shrinkage=0.1


Tree=9
num_leaves=5
num_cat=0
split_feature=0 0 1 1
split_gain=1.89543 4.3093 1.13275 0.279014
threshold=-0.91065446885501999 0.94132055932019709 -0.077151684171449603 -0.018256278775562015
decision_type=2 2 2 2
left_child=-1 2 -2 -3
right_child=1 3 -4 -5
leaf_value=-0.022320910499663504 0.010789301780021505 -0.0074186328350678305 0.041954713376897074 -0.026046745633667812
leaf_weight=29 26 20 25 20
leaf_count=29 26 20 25 20
internal_value=0 0.00703454 0.0264612 -0.0172347
internal_weight=0 91 51 40
internal_count=120 91 51 40
is_linear=0
shrinkage=0.1


Tree=10
num_leaves=5
num_cat=0
split_feature=2 0 1 1
split_gain=1.73121 2.53009 1.85583 0.0417969
threshold=0.014683499200762026 0.6129394166695048 -0.099426050780972428 -0.045791444653767215
decision_type=2 2 2 2
left_child=3 2 -2 -1
right_child=1 -3 -4 -5
leaf_value=-0.021777032733231717 0.010539400511075846 0.029214962059269059 -0.029679212591642742 -0.011330507757126823
leaf_weight=20 26 34 20 20
leaf_count=20 26 34 20 20
internal_value=0 0.00842196 -0.00651354 -0.0170558
internal_weight=0 80 46 40
internal_count=120 80 46 40
is_linear=0
shrinkage=0.1


Tree=11
num_leaves=5
num_cat=0
split_feature=0 0 1 2
split_gain=1.68397 4.5063 0.216663 0.0962763
threshold=0.94132055932019709 -0.80710949877455762 -0.018256278775562015 0.020555974315609109
decision_type=2 2 2 2
left_child=1 3 -2 -1
right_child=2 -3 -4 -5
leaf_value=-0.019994945986955913 -0.0079178881031428238 0.032787032775918025 -0.024742073992957886 -0.0077569958598159077
leaf_weight=21 20 39 20 20
leaf_count=21 20 39 20 20
internal_value=0 0.00829555 -0.016832 -0.0145146
internal_weight=0 80 40 41
internal_count=120 80 40 41
is_linear=0
shrinkage=0.1


Tree=12
num_leaves=4
num_cat=0
split_feature=0 0 1
split_gain=1.46334 3.09847 2.20185
threshold=1.0000000180025095e-35 1.2105367593978342 -0.099426050780972428
decision_type=2 2 2
left_child=2 -2 -1
right_child=1 -3 -4
leaf_value=0.0059314538717044393 0.034484638322778587 -0.013692787659277495 -0.030186569883393924
leaf_weight=37 29 24 30
leaf_count=37 29 24 30
internal_value=0 0.0122919 -0.00994336
internal_weight=0 53 67
internal_count=120 53 67
is_linear=0
shrinkage=0.1


Tree=13
num_leaves=5
num_cat=0
split_feature=0 0 1 2
split_gain=1.46924 3.27654 0.167199 0.0689882
threshold=0.94132055932019709 -0.80710949877455762 -0.018256278775562015 0.020555974315609109
decision_type=2 2 2 2
left_child=1 3 -2 -1
right_child=2 -3 -4 -5
leaf_value=-0.016353585867052049 -0.0076839754772734517 0.028612218626247528 -0.022826163996252175 -0.0057690380156502023
leaf_weight=21 20 39 20 20
leaf_count=21 20 39 20 20
internal_value=0 0.0077133 -0.0157569 -0.0116795
internal_weight=0 80 40 41
internal_count=120 80 40 41
is_linear=0
shrinkage=0.1


Tree=14
num_leaves=5
num_cat=0
split_feature=0 0 1 1
split_gain=1.293 2.66598 1.62007 0.765743
threshold=0.6129394166695048 1.2046249599864332 -0.063335123399086507 -0.14849707365363776
decision_type=2 2 2 2
left_child=2 -2 3 -1
right_child=1 -3 -4 -5
leaf_value=-0.010190515928165939 0.040568883017997874 -0.006436227521717991 -0.027028857140967689 0.016586977415425051
leaf_weight=20 20 29 29 22
leaf_count=20 20 29 29 22
internal_value=0 0.0123436 -0.00877173 0.00335996
internal_weight=0 49 71 42
internal_count=120 49 71 42
is_linear=0
shrinkage=0.1


Tree=15
num_leaves=5
num_cat=0
split_feature=0 0 1 2
split_gain=1.30219 2.40215 0.120802 0.0471332
threshold=0.94132055932019709 -0.80710949877455762 -0.018256278775562015 0.020555974315609109
decision_type=2 2 2 2
left_child=1 3 -2 -1
right_child=2 -3 -4 -5
leaf_value=-0.01324777149410652 -0.0076821082697841898 0.025120604437080016 -0.021075490272751275 -0.0042190698795514063
leaf_weight=21 20 39 20 20
leaf_count=21 20 39 20 20
internal_value=0 0.00721401 -0.0148805 -0.00933232
internal_weight=0 80 40 41
internal_count=120 80 40 41
is_linear=0
shrinkage=0.1


Tree=16
num_leaves=4
num_cat=0
split_feature=2 2 3
split_gain=1.22721 2.85533 2.14353
threshold=0.035824097460215913 0.020555974315609109 -0.23960450092682301
decision_type=2 2 2
left_child=1 2 -1
right_child=-2 -3 -4
leaf_value=-0.019739021833850706 -0.022791896372013051 0.030264630042161775 0.016551934786020243
leaf_weight=45 20 30 25
leaf_count=45 20 30 25
internal_value=0 0.00433595 -0.00649202
internal_weight=0 100 70
internal_count=120 100 70
is_linear=0
shrinkage=0.1


Tree=17
num_leaves=5
num_cat=0
split_feature=0 0 1 1
split_gain=1.23538 2.01769 1.25444 0.586173
threshold=0.6129394166695048 1.2105367593978342 -0.063335123399086507 -0.14849707365363776
decision_type=2 2 2 2
left_child=2 -2 3 -1
right_child=1 -3 -4 -5
leaf_value=-0.0098037151538321651 0.032088362426906561 -0.0080053725048443419 -0.024646962432383752 0.013665458121859901
leaf_weight=20 25 24 29 22
leaf_count=20 25 24 29 22
internal_value=0 0.0120437 -0.00859517 0.00201369
internal_weight=0 49 71 42
internal_count=120 49 71 42
is_linear=0
shrinkage=0.1


Tree=18
num_leaves=5
num_cat=0
split_feature=0 3 0 2
split_gain=1.13874 1.96411 5.21736 0.104498
threshold=0.94132055932019709 -0.19704545757408701 -0.80710949877455762 0.016928639327879951
decision_type=2 2 2 2
left_child=1 2 -1 -2
right_child=3 -3 -4 -5
leaf_value=-0.011309681499991155 -0.0071282476387867725 -0.017521918785103091 0.048881774543722667 -0.019750109898153172
leaf_weight=30 20 23 27 20
leaf_count=30 20 23 27 20
internal_value=0 0.00671975 0.016853 -0.0139408
internal_weight=0 80 57 40
internal_count=120 80 57 40
is_linear=0
shrinkage=0.1


Tree=19
num_leaves=5
num_cat=0
split_feature=0 2 1 1
split_gain=1.11597 1.54832 0.881937 0.469182
threshold=0.6129394166695048 0.019309541174264051 -0.063335123399086507 -0.14849707365363776
decision_type=2 2 2 2
left_child=2 -2 3 -1
right_child=1 -3 -4 -5
leaf_value=-0.009975745987218787 -0.0039910835163435706 0.031204541510707874 -0.021646405431016359 0.011109269794835959
leaf_weight=20 27 22 29 22
leaf_count=20 27 22 29 22
internal_value=0 0.0114045 -0.00821012 0.00059266
internal_weight=0 49 71 42
internal_count=120 49 71 42
is_linear=0
shrinkage=0.1


Tree=20
num_leaves=4
num_cat=0
split_feature=2 2 3
split_gain=1.13469 2.22197 1.89966
threshold=0.035824097460215913 0.020555974315609109 -0.23960450092682301
decision_type=2 2 2
left_child=1 2 -1
right_child=-2 -3 -4
leaf_value=-0.017862630317892158 -0.021933447430876309 0.027030888626405031 0.016314875114753088
leaf_weight=45 20 30 25
leaf_count=45 20 30 25
internal_value=0 0.00415087 -0.00537039
internal_weight=0 100 70
internal_count=120 100 70
is_linear=0
shrinkage=0.1


Tree=21
num_leaves=5
num_cat=0
split_feature=0 3 0 2
split_gain=1.01297 1.71952 4.14365 0.157934
threshold=0.94132055932019709 -0.19704545757408701 -0.80710949877455762 0.016928639327879951
decision_type=2 2 2 2
left_child=1 2 -1 -2
right_child=3 -3 -4 -5
leaf_value=-0.0092189597526782154 -0.0054266886230231355 -0.016335895044133603 0.044358000846245499 -0.019905368303305152
leaf_weight=30 20 23 27 20
leaf_count=30 20 23 27 20
internal_value=0 0.00631793 0.0158104 -0.0131675
internal_weight=0 80 57 40
internal_count=120 80 57 40
is_linear=0
shrinkage=0.1


Tree=22
num_leaves=5
num_cat=0
split_feature=0 0 0 1
split_gain=1.05121 1.29982 0.859896 0.816655
threshold=0.6129394166695048 1.2105367593978342 -0.79231374870819959 -0.099426050780972428
decision_type=2 2 2 2
left_child=2 -2 3 -1
right_child=1 -3 -4 -5
leaf_value=0.011799112555266047 0.027138269977363627 -0.0048709524482321038 -0.025589974186951386 -0.013457017682293612
leaf_weight=25 25 24 20 26
leaf_count=25 25 24 20 26
internal_value=0 0.0110533 -0.0079831 -0.0006845
internal_weight=0 49 71 51
internal_count=120 49 71 51
is_linear=0
shrinkage=0.1


Tree=23
num_leaves=4
num_cat=0
split_feature=2 2 3
split_gain=0.98436 1.8412 1.63646
threshold=0.035824097460215913 0.020555974315609109 -0.23960450092682301
decision_type=2 2 2
left_child=1 2 -1
right_child=-2 -3 -4
leaf_value=-0.016413333025022077 -0.020449751957792903 0.024680142732108362 0.015300602731651555
leaf_weight=45 20 30 25
leaf_count=45 20 30 25
internal_value=0 0.00384418 -0.00480095
internal_weight=0 100 70
internal_count=120 100 70
is_linear=0
shrinkage=0.1


Tree=24
num_leaves=5
num_cat=0
split_feature=0 3 0 2
split_gain=0.903926 1.47479 3.48165 0.136546
threshold=0.94132055932019709 -0.19704545757408701 -0.80710949877455762 0.016928639327879951
decision_type=2 2 2 2
left_child=1 2 -1 -2
right_child=3 -3 -4 -5
leaf_value=-0.0081397405149062213 -0.0051460190136353402 -0.014994715447919159 0.04092842661612698 -0.018761921944960271
leaf_weight=30 20 23 27 20
leaf_count=30 20 23 27 20
internal_value=0 0.0059507 0.0147538 -0.0124554
internal_weight=0 80 57 40
internal_count=120 80 57 40
is_linear=0
shrinkage=0.1


Tree=25
num_leaves=5
num_cat=0
split_feature=0 3 0 2
split_gain=0.986683 1.15531 0.831708 0.74114
threshold=0.6129394166695048 -0.25379085074601521 -0.79231374870819959 0.02283310428167171
decision_type=2 2 2 2
left_child=2 -2 3 -1
right_child=1 -3 -4 -5
leaf_value=0.0087060894564195447 0.024146045505777043 -0.0062887821558457683 -0.025059299330745927 -0.015931593935300758
leaf_weight=31 28 21 20 20
leaf_count=31 28 21 20 20
internal_value=0 0.0106951 -0.00774721 -0.000564243
internal_weight=0 49 71 51
internal_count=120 49 71 51
is_linear=0
shrinkage=0.1


Tree=26
num_leaves=5
num_cat=0
split_feature=0 3 1 2
split_gain=0.889238 1.14389 3.10022 0.105372
threshold=0.94132055932019709 -0.19704545757408701 -0.11883761089345647 0.016928639327879951
decision_type=2 2 2 2
left_child=1 2 -1 -2
right_child=3 -3 -4 -5
leaf_value=-0.011246716144153235 -0.0056763216946250777 -0.012500445146524137 0.035154495498207844 -0.018083110999179107
leaf_weight=26 20 23 31 20
leaf_count=26 20 23 31 20
internal_value=0 0.00587365 0.0136391 -0.0123811
internal_weight=0 80 57 40
internal_count=120 80 57 40
is_linear=0
shrinkage=0.1


Tree=27
num_leaves=5
num_cat=0
split_feature=0 2 3 2
split_gain=0.903588 1.07042 0.94946 0.0531998
threshold=0.6129394166695048 0.019309541174264051 -0.23960450092682301 0.017567655721775956
decision_type=2 2 2 2
left_child=2 -2 3 -1
right_child=1 -3 -4 -5
leaf_value=-0.010776428636596431 -0.0024711699027570172 0.026658574076463788 0.0063708320759214209 -0.021368146742641654
leaf_weight=20 27 22 28 23
leaf_count=20 27 22 28 23
internal_value=0 0.0102008 -0.00744654 -0.0169087
internal_weight=0 49 71 43
internal_count=120 49 71 43
is_linear=0
shrinkage=0.1


Tree=28
num_leaves=4
num_cat=0
split_feature=2 2 3
split_gain=0.849699 1.54681 1.48444
threshold=0.035824097460215913 0.020555974315609109 -0.23960450092682301
decision_type=2 2 2
left_child=1 2 -1
right_child=-2 -3 -4
leaf_value=-0.015447837531851364 -0.019039739812501996 0.022635628264897109 0.014755805959551484
leaf_weight=45 20 30 25
leaf_count=45 20 30 25
internal_value=0 0.00352903 -0.00437484
internal_weight=0 100 70
internal_count=120 100 70
is_linear=0
shrinkage=0.1


Tree=29
num_leaves=5
num_cat=0
split_feature=0 3 0 2
split_gain=0.798302 1.18075 2.88917 0.142504
threshold=0.94132055932019709 -0.19704545757408701 -0.80710949877455762 0.016928639327879951
decision_type=2 2 2 2
left_child=1 2 -1 -2
right_child=3 -3 -4 -5
leaf_value=-0.007357135253674864 -0.004374241488512026 -0.013132684174062791 0.037302572006341427 -0.01810305620902361
leaf_weight=30 20 23 27 20
leaf_count=30 20 23 27 20
internal_value=0 0.00555575 0.013448 -0.01174
internal_weight=0 80 57 40
internal_count=120 80 57 40
is_linear=0
shrinkage=0.1


Tree=30
num_leaves=4
num_cat=0
split_feature=0 3 0
split_gain=0.850513 0.928133 0.810808
threshold=0.6129394166695048 -0.25379085074601521 -0.87810887489592215
decision_type=2 2 2
left_child=2 -2 -1
right_child=1 -3 -4
leaf_value=0.0031274226453560216 0.021954287739443665 -0.0052427941704046108 -0.017854096938828397
leaf_weight=35 28 21 36
leaf_count=35 28 21 36
internal_value=0 0.00989093 -0.00722993
internal_weight=0 49 71
internal_count=120 49 71
is_linear=0
shrinkage=0.1


Tree=31
num_leaves=5
num_cat=0
split_feature=0 0 3 2
split_gain=0.785991 0.943876 0.723107 0.11041
threshold=0.94132055932019709 -0.95207317901877042 -0.22541815314257671 0.016928639327879951
decision_type=2 2 2 2
left_child=1 -1 -3 -2
right_child=3 2 -4 -5
leaf_value=-0.011667266444059103 -0.0049082437244780935 0.021440762002167404 -0.00057811669760801253 -0.017400471859054547
leaf_weight=22 20 35 23 20
leaf_count=22 20 35 23 20
internal_value=0 0.00550586 0.012365 -0.0116557
internal_weight=0 80 58 40
internal_count=120 80 58 40
is_linear=0
shrinkage=0.1


Tree=32
num_leaves=5
num_cat=0
split_feature=0 3 2 0
split_gain=0.789002 0.822987 0.812934 0.0500795
threshold=0.6129394166695048 -0.23960450092682301 0.019309541174264051 -0.91065446885501999
decision_type=2 2 2 2
left_child=1 3 -2 -1
right_child=2 -3 -4 -5
leaf_value=-0.0098440929804108086 -0.0014250650298394578 0.0058501813427036826 0.023842449771683479 -0.020095188522877783
leaf_weight=20 27 28 22 23
leaf_count=20 27 28 22 23
internal_value=0 -0.00697678 0.00951269 -0.015794
internal_weight=0 71 49 43
internal_count=120 71 49 43
is_linear=0
shrinkage=0.1


Tree=33
num_leaves=4
num_cat=0
split_feature=2 2 3
split_gain=0.80103 1.24167 1.29062
threshold=0.035824097460215913 0.020555974315609109 -0.23960450092682301
decision_type=2 2 2
left_child=1 2 -1
right_child=-2 -3 -4
leaf_value=-0.013983199765862073 -0.018495411827873509 0.020539634656040019 0.014186218747423308
leaf_weight=45 20 30 25
leaf_count=45 20 30 25
internal_value=0 0.00341687 -0.0036367
internal_weight=0 100 70
internal_count=120 100 70
is_linear=0
shrinkage=0.1


Tree=34
num_leaves=5
num_cat=0
split_feature=0 3 0 2
split_gain=0.710315 1.0742 2.26552 0.137482
threshold=0.94132055932019709 -0.19704545757408701 -0.80710949877455762 0.016928639327879951
decision_type=2 2 2 2
left_child=1 2 -1 -2
right_child=3 -3 -4 -5
leaf_value=-0.0055824165154727103 -0.0038627847168809684 -0.012581411230126247 0.033884272776672393 -0.017310655771032392
leaf_weight=30 20 23 27 20
leaf_count=30 20 23 27 20
internal_value=0 0.00522604 0.0127628 -0.011088
internal_weight=0 80 57 40
internal_count=120 80 57 40
is_linear=0
shrinkage=0.1


Tree=35
num_leaves=4
num_cat=0
split_feature=0 0 3
split_gain=0.745098 0.934983 0.766218
threshold=0.6129394166695048 -0.87810887489592215 -0.25379085074601521
decision_type=2 2 2
left_child=1 -1 -2
right_child=2 -3 -4
leaf_value=0.0043985778581600602 0.020205556260881798 -0.018210900556609091 -0.0044307147242063239
leaf_weight=35 28 36 21
leaf_count=35 28 36 21
internal_value=0 -0.00678419 0.00923966
internal_weight=0 71 49
internal_count=120 71 49
is_linear=0
shrinkage=0.1


Tree=36
num_leaves=5
num_cat=0
split_feature=0 3 1 2
split_gain=0.698656 0.857261 2.11823 0.10646
threshold=0.94132055932019709 -0.19704545757408701 -0.11883761089345647 0.016928639327879951
decision_type=2 2 2 2
left_child=1 2 -1 -2
right_child=3 -3 -4 -5
leaf_value=-0.0085363269448165743 -0.0043882972946526922 -0.010665359222883766 0.029720478736667978 -0.016614869270465338
leaf_weight=26 20 23 31 20
leaf_count=26 20 23 31 20
internal_value=0 0.00517642 0.0119199 -0.0110028
internal_weight=0 80 57 40
internal_count=120 80 57 40
is_linear=0
shrinkage=0.1


Tree=37
num_leaves=4
num_cat=0
split_feature=2 2 3
split_gain=0.710717 1.01466 1.21376
threshold=0.035824097460215913 0.020555974315609109 -0.23960450092682301
decision_type=2 2 2
left_child=1 2 -1
right_child=-2 -3 -4
leaf_value=-0.013202946921571493 -0.017443454167271399 0.018680007358209984 0.014126385758219182
leaf_weight=45 20 30 25
leaf_count=45 20 30 25
internal_value=0 0.00319509 -0.00315647
internal_weight=0 100 70
internal_count=120 100 70
is_linear=0
shrinkage=0.1


Tree=38
num_leaves=4
num_cat=0
split_feature=0 0 3
split_gain=0.707002 0.712625 0.666266
threshold=0.6129394166695048 -0.87810887489592215 -0.25379085074601521
decision_type=2 2 2
left_child=1 -1 -2
right_child=2 -3 -4
leaf_value=0.0030902740342704555 0.019236581609879538 -0.016565157794038578 -0.0036635973416064872
leaf_weight=35 28 36 21
leaf_count=35 28 36 21
internal_value=0 -0.00659465 0.00901473
internal_weight=0 71 49
internal_count=120 71 49
is_linear=0
shrinkage=0.1


Tree=39
num_leaves=5
num_cat=0
split_feature=0 0 0 2
split_gain=0.665243 0.787452 0.577045 0.0900515
threshold=0.94132055932019709 -0.95207317901877042 -0.78344063250354712 0.016928639327879951
decision_type=2 2 2 2
left_child=1 -1 -3 -2
right_child=3 2 -4 -5
leaf_value=-0.010579360497049299 -0.0044788267650594715 0.020334670581755795 0 -0.015966489989290952
leaf_weight=22 20 32 26 20
leaf_count=22 20 32 26 20
internal_value=0 0.00506433 0.0113433 -0.0107239
internal_weight=0 80 58 40
internal_count=120 80 58 40
is_linear=0
shrinkage=0.1


Tree=40
num_leaves=5
num_cat=0
split_feature=0 1 2 1
split_gain=0.688367 0.720129 0.610883 0.240243
threshold=0.6129394166695048 -0.063335123399086507 0.019309541174264051 -0.14849707365363776
decision_type=2 2 2 2
left_child=1 3 -2 -1
right_child=2 -3 -4 -5
leaf_value=-0.0059083770198006848 -0.0004589602453270304 -0.018670477395611701 0.021307999872126601 0.0090208177104968163
leaf_weight=20 27 29 22 22
leaf_count=20 27 29 22 22
internal_value=0 -0.00649576 0.00890702 0.00143569
internal_weight=0 71 49 42
internal_count=120 71 49 42
is_linear=0
shrinkage=0.1


Tree=41
num_leaves=5
num_cat=0
split_feature=0 3 0 2
split_gain=0.626693 0.762603 1.98251 0.100034
threshold=0.94132055932019709 -0.19704545757408701 -0.80710949877455762 0.016928639327879951
decision_type=2 2 2 2
left_child=1 2 -1 -2
right_child=3 -3 -4 -5
leaf_value=-0.005860976205629382 -0.0039851725049329925 -0.010008713111064403 0.031053470077613533 -0.015847662260341098
leaf_weight=30 20 23 27 20
leaf_count=30 20 23 27 20
internal_value=0 0.00490582 0.0112752 -0.0104176
internal_weight=0 80 57 40
internal_count=120 80 57 40
is_linear=0
shrinkage=0.1


Tree=42
num_leaves=4
num_cat=0
split_feature=2 3 3
split_gain=0.631324 0.970888 0.831231
threshold=0.035824097460215913 -0.23960450092682301 -0.28145589748028238
decision_type=2 2 2
left_child=1 2 -1
right_child=-2 -3 -4
leaf_value=0.0065738597529471955 -0.016440927989779041 0.015984085383825633 -0.016153145905291526
leaf_weight=32 20 37 31
leaf_count=32 20 37 31
internal_value=0 0.00301044 -0.00429223
internal_weight=0 100 63
internal_count=120 100 63
is_linear=0
shrinkage=0.1


Tree=43
num_leaves=4
num_cat=0
split_feature=0 0 3
split_gain=0.624697 0.870757 0.556277
threshold=0.6129394166695048 -0.87810887489592215 -0.25379085074601521
decision_type=2 2 2
left_child=1 -1 -2
right_child=2 -3 -4
leaf_value=0.0045845793040543521 0.017814083998915427 -0.017240101968955701 -0.0030325764745395833
leaf_weight=35 28 36 21
leaf_count=35 28 36 21
internal_value=0 -0.00620022 0.00847228
internal_weight=0 71 49
internal_count=120 71 49
is_linear=0
shrinkage=0.1


Tree=44
num_leaves=5
num_cat=0
split_feature=0 3 0 2
split_gain=0.627042 0.697467 1.69048 0.0662982
threshold=0.94132055932019709 -0.19704545757408701 -0.80710949877455762 0.016928639327879951
decision_type=2 2 2 2
left_child=1 2 -1 -2
right_child=3 -3 -4 -5
leaf_value=-0.0047528483861288499 -0.0047347090134648093 -0.0093117145429976837 0.029275619350215106 -0.015076240392900415
leaf_weight=30 20 23 27 20
leaf_count=30 20 23 27 20
internal_value=0 0.00492173 0.0110162 -0.0104067
internal_weight=0 80 57 40
internal_count=120 80 57 40
is_linear=0
shrinkage=0.1


Tree=45
num_leaves=5
num_cat=0
split_feature=0 1 1 1
split_gain=0.616984 4.21468 1.89174 0.884023
threshold=-0.78344063250354712 -0.086582322970508621 -0.099426050780972428 -0.02075414827181089
decision_type=2 2 2 2
left_child=2 -2 -1 -3
right_child=1 3 -4 -5
leaf_value=0.025957391844585828 -0.04387088793568656 0.02594005680179572 -0.011185258129850486 -0.0015912400266214076
leaf_weight=28 21 20 26 25
leaf_count=28 21 20 26 25
internal_value=0 -0.00670201 0.00770418 0.010202
internal_weight=0 66 54 45
internal_count=120 66 54 45
is_linear=0
shrinkage=0.1


Tree=46
num_leaves=5
num_cat=0
split_feature=0 3 1 2
split_gain=0.608961 0.810976 0.499498 0.124283
threshold=0.6129394166695048 -0.23960450092682301 -0.045791444653767215 0.017567655721775956
decision_type=2 2 2 2
left_child=1 3 -2 -1
right_child=2 -3 -4 -5
leaf_value=-0.0074372796588050103 0.019558141886226375 0.006626339138107543 -3.1328343656455481e-05 -0.020516969274888996
leaf_weight=20 22 28 27 23
leaf_count=20 22 28 27 23
internal_value=0 -0.00612922 0.00835692 -0.0149
internal_weight=0 71 49 43
internal_count=120 71 49 43
is_linear=0
shrinkage=0.1


Tree=47
num_leaves=5
num_cat=0
split_feature=0 1 1 1
split_gain=0.603943 3.49875 1.57056 0.662556
threshold=-0.78344063250354712 -0.086582322970508621 -0.099426050780972428 -0.02075414827181089
decision_type=2 2 2 2
left_child=2 -2 -1 -3
right_child=1 3 -4 -5
leaf_value=0.024267937483223097 -0.040494454854784971 0.022377645021913889 -0.0095196561907557563 -0.0013697799730958808
leaf_weight=28 21 20 26 25
leaf_count=28 21 20 26 25
internal_value=0 -0.00662333 0.00763013 0.00874155
internal_weight=0 66 54 45
internal_count=120 66 54 45
is_linear=0
shrinkage=0.1


Tree=48
num_leaves=4
num_cat=0
split_feature=2 3 3
split_gain=0.538379 0.815183 0.680232
threshold=0.035824097460215913 -0.23960450092682301 -0.28145589748028238
decision_type=2 2 2
left_child=1 2 -1
right_child=-2 -3 -4
leaf_value=0.0059066649862163385 -0.015173549258509328 0.014685889490833638 -0.014628173492355052
leaf_weight=32 20 37 31
leaf_count=32 20 37 31
internal_value=0 0.00278934 -0.0038807
internal_weight=0 100 63
internal_count=120 100 63
is_linear=0
shrinkage=0.1


Tree=49
num_leaves=4
num_cat=0
split_feature=0 0 3
split_gain=0.525073 0.826414 0.535759
threshold=0.6129394166695048 -0.87810887489592215 -0.25379085074601521
decision_type=2 2 2
left_child=1 -1 -2
right_child=2 -3 -4
leaf_value=0.0048271571290678609 0.016963162527108191 -0.016445117921502102 -0.0035260874326670071
leaf_weight=35 28 36 21
leaf_count=35 28 36 21
internal_value=0 -0.00567751 0.00777447
internal_weight=0 71 49
internal_count=120 71 49
is_linear=0
shrinkage=0.1


Tree=50
num_leaves=5
num_cat=0
split_feature=0 3 1 2
split_gain=0.571788 0.601148 1.66198 0.0589055
threshold=0.94132055932019709 -0.19704545757408701 -0.11883761089345647 0.016928639327879951
decision_type=2 2 2 2
left_child=1 2 -1 -2
right_child=3 -3 -4 -5
leaf_value=-0.0076751228571625731 -0.0044832318998878828 -0.0084602075558697452 0.026167496913883925 -0.014363717441408672
leaf_weight=26 20 23 31 20
leaf_count=26 20 23 31 20
internal_value=0 0.00471351 0.0103803 -0.00992459
internal_weight=0 80 57 40
internal_count=120 80 57 40
is_linear=0
shrinkage=0.1


Tree=51
num_leaves=5
num_cat=0
split_feature=0 3 2 2
split_gain=0.486 0.730228 0.445717 0.120919
threshold=0.6129394166695048 -0.23960450092682301 0.019309541174264051 0.017567655721775956
decision_type=2 2 2 2
left_child=1 3 -2 -1
right_child=2 -3 -4 -5
leaf_value=-0.006507245042091072 -0.00044332743463549782 0.0066065276572053466 0.018059503866905139 -0.019309098475447328
leaf_weight=20 27 28 22 23
leaf_count=20 27 28 22 23
internal_value=0 -0.00548366 0.00745694 -0.0138213
internal_weight=0 71 49 43
internal_count=120 71 49 43
is_linear=0
shrinkage=0.1


Tree=52
num_leaves=5
num_cat=0
split_feature=0 1 1 1
split_gain=0.561647 2.6319 1.52574 0.487485
threshold=-0.78344063250354712 -0.086582322970508621 -0.099426050780972428 -0.02075414827181089
decision_type=2 2 2 2
left_child=2 -2 -1 -3
right_child=1 3 -4 -5
leaf_value=0.023768720861376026 -0.035766880743789038 0.018623816895502802 -0.0095352118025832724 -0.0017001751726137546
leaf_weight=28 21 20 26 25
leaf_count=28 21 20 26 25
internal_value=0 -0.00638174 0.00736376 0.00688938
internal_weight=0 66 54 45
internal_count=120 66 54 45
is_linear=0
shrinkage=0.1


Tree=53
num_leaves=5
num_cat=0
split_feature=0 3 1 2
split_gain=0.468105 0.521613 1.39361 0.0778982
threshold=0.94132055932019709 -0.19704545757408701 -0.11883761089345647 0.016928639327879951
decision_type=2 2 2 2
left_child=1 2 -1 -2
right_child=3 -3 -4 -5
leaf_value=-0.0069693658723667994 -0.0032053569001693847 -0.0080258996913910342 0.023982384616839197 -0.013835091466934674
leaf_weight=26 20 23 31 20
leaf_count=26 20 23 31 20
internal_value=0 0.00422098 0.00951382 -0.00902123
internal_weight=0 80 57 40
internal_count=120 80 57 40
is_linear=0
shrinkage=0.1


Tree=54
num_leaves=5
num_cat=0
split_feature=0 3 1 2
split_gain=0.486314 0.739118 0.451462 0.109956
threshold=0.6129394166695048 -0.23960450092682301 -0.045791444653767215 0.017567655721775956
decision_type=2 2 2 2
left_child=1 3 -2 -1
right_child=2 -3 -4 -5
leaf_value=-0.0067941338099470382 0.018108140769478302 0.0066574270082273533 -0.00052430227859619259 -0.019200808909685035
leaf_weight=20 22 28 27 23
leaf_count=20 22 28 27 23
internal_value=0 -0.00550933 0.00743416 -0.0138968
internal_weight=0 71 49 43
internal_count=120 71 49 43
is_linear=0
shrinkage=0.1


Tree=55
num_leaves=5
num_cat=0
split_feature=0 1 1 1
split_gain=0.488895 2.12405 1.40801 0.322859
threshold=-0.78344063250354712 -0.086582322970508621 -0.099426050780972428 -0.02075414827181089
decision_type=2 2 2 2
left_child=2 -2 -1 -3
right_child=1 3 -4 -5
leaf_value=0.022606762311986849 -0.03239591285263576 0.015439991517771307 -0.009383945154458416 -0.00094644662452397223
leaf_weight=28 21 20 26 25
leaf_count=28 21 20 26 25
internal_value=0 -0.00598841 0.00683405 0.00589293
internal_weight=0 66 54 45
internal_count=120 66 54 45
is_linear=0
shrinkage=0.1


Tree=56
num_leaves=5
num_cat=0
split_feature=2 1 2 1
split_gain=0.473051 0.794228 1.20139 0.641899
threshold=0.035824097460215913 -0.039684574813076544 0.014683499200762026 1.0000000180025095e-35
decision_type=2 2 2 2
left_child=1 2 -1 -3
right_child=-2 3 -4 -5
leaf_value=-0.0071512425732704714 -0.014242806045212348 -0.020064538200641923 0.022134608255081765 0.0037877226222566363
leaf_weight=22 20 21 35 22
leaf_count=22 20 21 35 22
internal_value=0 0.00259339 0.0104808 -0.00739697
internal_weight=0 100 57 43
internal_count=120 100 57 43
is_linear=0
shrinkage=0.1


Tree=57
num_leaves=5
num_cat=0
split_feature=0 3 3 2
split_gain=0.420971 0.671896 0.446758 0.104236
threshold=0.6129394166695048 -0.23960450092682301 -0.25379085074601521 0.017567655721775956
decision_type=2 2 2 2
left_child=1 3 -2 -1
right_child=2 -3 -4 -5
leaf_value=-0.0062097517945295102 0.015324862008434473 0.0064564967383988914 -0.003343595401555747 -0.018280986430100375
leaf_weight=20 28 28 21 23
leaf_count=20 28 28 21 23
internal_value=0 -0.00512592 0.00691645 -0.0131329
internal_weight=0 71 49 43
internal_count=120 71 49 43
is_linear=0
shrinkage=0.1


Tree=58
num_leaves=5
num_cat=0
split_feature=0 3 1 2
split_gain=0.495071 0.517034 1.22735 0.0597146
threshold=0.94132055932019709 -0.19704545757408701 -0.11883761089345647 0.016928639327879951
decision_type=2 2 2 2
left_child=1 2 -1 -2
right_child=3 -3 -4 -5
leaf_value=-0.0058115186587683731 -0.0038863995192319686 -0.0078491795448229294 0.023174771908691692 -0.013677250833190761
leaf_weight=26 20 23 31 20
leaf_count=26 20 23 31 20
internal_value=0 0.00433517 0.00960276 -0.00928286
internal_weight=0 80 57 40
internal_count=120 80 57 40
is_linear=0
shrinkage=0.1


Tree=59
num_leaves=5
num_cat=0
split_feature=0 1 1 1
split_gain=0.432826 1.77357 1.14748 0.24065
threshold=-0.78344063250354712 -0.086582322970508621 -0.099426050780972428 -0.02075414827181089
decision_type=2 2 2 2
left_child=2 -2 -1 -3
right_child=1 3 -4 -5
leaf_value=0.020654173583521247 -0.02980047465434843 0.013404463252792416 -0.0081811925101580463 -0.00063758923444383699
leaf_weight=28 21 20 26 25
leaf_count=28 21 20 26 25
internal_value=0 -0.00566238 0.00640067 0.00515972
internal_weight=0 66 54 45
internal_count=120 66 54 45
is_linear=0
shrinkage=0.1


Tree=60
num_leaves=5
num_cat=0
split_feature=0 3 1 2
split_gain=0.427688 0.678019 0.378358 0.0925011
threshold=0.6129394166695048 -0.23960450092682301 -0.045791444653767215 0.017567655721775956
decision_type=2 2 2 2
left_child=1 3 -2 -1
right_child=2 -3 -4 -5
leaf_value=-0.0065417885854821669 0.016719519888012551 0.0064526863104848861 -0.00026451001711806372 -0.018164785039202075
leaf_weight=20 22 28 27 23
leaf_count=20 22 28 27 23
internal_value=0 -0.00518332 0.00695378 -0.0132252
internal_weight=0 71 49 43
internal_count=120 71 49 43
is_linear=0
shrinkage=0.1


Tree=61
num_leaves=5
num_cat=0
split_feature=0 1 1 1
split_gain=0.424688 1.48712 0.957482 0.170948
threshold=-0.78344063250354712 -0.086582322970508621 -0.099426050780972428 -0.02075414827181089
decision_type=2 2 2 2
left_child=2 -2 -1 -3
right_child=1 3 -4 -5
leaf_value=0.019374918818495099 -0.027701120320827274 0.011235133435421662 -0.0069065499231376884 -0.00049718888318197793
leaf_weight=28 21 20 26 25
leaf_count=28 21 20 26 25
internal_value=0 -0.0055986 0.00635107 0.00427345
internal_weight=0 66 54 45
internal_count=120 66 54 45
is_linear=0
shrinkage=0.1


Tree=62
num_leaves=5
num_cat=0
split_feature=0 3 3 2
split_gain=0.376205 0.603952 0.386294 0.0739461
threshold=0.6129394166695048 -0.23960450092682301 -0.25379085074601521 0.017567655721775956
decision_type=2 2 2 2
left_child=1 3 -2 -1
right_child=2 -3 -4 -5
leaf_value=-0.0062632732199478444 0.014343019093339774 0.006092323915136008 -0.002961818190010864 -0.016982190100643346
leaf_weight=20 28 28 21 23
leaf_count=20 28 28 21 23
internal_value=0 -0.00486383 0.00651899 -0.012463
internal_weight=0 71 49 43
internal_count=120 71 49 43
is_linear=0
shrinkage=0.1


Tree=63
num_leaves=5
num_cat=0
split_feature=0 3 1 2
split_gain=0.444634 0.47776 1.07691 0.0544892
threshold=0.94132055932019709 -0.19704545757408701 -0.11883761089345647 0.016928639327879951
decision_type=2 2 2 2
left_child=1 2 -1 -2
right_child=3 -3 -4 -5
leaf_value=-0.0052328686649078283 -0.0036022507252022199 -0.0076070146299566672 0.021879313043544724 -0.013023332992260887
leaf_weight=26 20 23 31 20
leaf_count=26 20 23 31 20
internal_value=0 0.00409084 0.00916213 -0.00881377
internal_weight=0 80 57 40
internal_count=120 80 57 40
is_linear=0
shrinkage=0.1


Tree=64
num_leaves=5
num_cat=0
split_feature=2 1 2 1
split_gain=0.368587 0.660905 1.06736 0.543791
threshold=0.035824097460215913 -0.039684574813076544 0.014683499200762026 1.0000000180025095e-35
decision_type=2 2 2 2
left_child=1 2 -1 -3
right_child=-2 3 -4 -5
leaf_value=-0.0071468683197955562 -0.012620180083629163 -0.018525547440851255 0.020448766585980598 0.0033753071648170946
leaf_weight=22 20 21 35 22
leaf_count=22 20 21 35 22
internal_value=0 0.00223676 0.00944728 -0.00685631
internal_weight=0 100 57 43
internal_count=120 100 57 43
is_linear=0
shrinkage=0.1


Tree=65
num_leaves=5
num_cat=0
split_feature=0 0 0 2
split_gain=0.377229 0.421024 0.401119 0.0394327
threshold=0.94132055932019709 -0.95207317901877042 -0.78344063250354712 0.016928639327879951
decision_type=2 2 2 2
left_child=1 -1 -3 -2
right_child=3 2 -4 -5
leaf_value=-0.0075814234754343623 -0.0034390027757936117 0.015877887009285243 -0.00011599545202858513 -0.011868936112357717
leaf_weight=22 20 32 26 20
leaf_count=22 20 32 26 20
internal_value=0 0.00372884 0.00836403 -0.00815486
internal_weight=0 80 58 40
internal_count=120 80 58 40
is_linear=0
shrinkage=0.1


Tree=66
num_leaves=4
num_cat=0
split_feature=0 0 3
split_gain=0.422979 0.673191 0.314802
threshold=0.6129394166695048 -0.87810887489592215 -0.25379085074601521
decision_type=2 2 2
left_child=1 -1 -2
right_child=2 -3 -4
leaf_value=0.004248738196558602 0.013909776333418198 -0.014915942467015546 -0.001539811499503731
leaf_weight=35 28 36 21
leaf_count=35 28 36 21
internal_value=0 -0.00518726 0.00688092
internal_weight=0 71 49
internal_count=120 71 49
is_linear=0
shrinkage=0.1


Tree=67
num_leaves=5
num_cat=0
split_feature=0 0 2 2
split_gain=0.37421 0.396771 0.374187 0.0272328
threshold=0.94132055932019709 -0.95207317901877042 0.020555974315609109 0.016928639327879951
decision_type=2 2 2 2
left_child=1 -1 -3 -2
right_child=3 2 -4 -5
leaf_value=-0.0072482304342414445 -0.0037907609263082595 0 0.01653413764415437 -0.011455140246734325
leaf_weight=22 20 30 28 20
leaf_count=22 20 30 28 20
internal_value=0 0.00371209 0.00821451 -0.00812384
internal_weight=0 80 58 40
internal_count=120 80 58 40
is_linear=0
shrinkage=0.1


Tree=68
num_leaves=4
num_cat=0
split_feature=0 0 2
split_gain=0.376482 0.599209 0.265237
threshold=0.6129394166695048 -0.87810887489592215 0.019309541174264051
decision_type=2 2 2
left_child=1 -1 -2
right_child=2 -3 -4
leaf_value=0.0039960613654900614 0 -0.014067460291750843 0.014654486254349619
leaf_weight=35 27 36 22
leaf_count=35 27 36 22
internal_value=0 -0.00488158 0.00650444
internal_weight=0 71 49
internal_count=120 71 49
is_linear=0
shrinkage=0.1


Tree=69
num_leaves=4
num_cat=0
split_feature=2 3 3
split_gain=0.363704 0.633178 0.575574
threshold=0.035824097460215913 -0.23960450092682301 -0.28145589748028238
decision_type=2 2 2
left_child=1 2 -1
right_child=-2 -3 -4
leaf_value=0.0053796432673735572 -0.012496357146344225 0.012769732342164927 -0.013487485977401273
leaf_weight=32 20 37 31
leaf_count=32 20 37 31
internal_value=0 0.00226529 -0.00358708
internal_weight=0 100 63
internal_count=120 100 63
is_linear=0
shrinkage=0.1


Tree=70
num_leaves=5
num_cat=0
split_feature=0 3 0 2
split_gain=0.361558 0.458777 1.09608 0.0267331
threshold=0.94132055932019709 -0.19704545757408701 -0.80710949877455762 0.016928639327879951
decision_type=2 2 2 2
left_child=1 2 -1 -2
right_child=3 -3 -4 -5
leaf_value=-0.003907564622107158 -0.0036423256163308684 -0.0077662415553201736 0.023410563357691705 -0.011224061534087105
leaf_weight=30 20 23 27 20
leaf_count=30 20 23 27 20
internal_value=0 0.00370344 0.00868267 -0.00793406
internal_weight=0 80 57 40
internal_count=120 80 57 40
is_linear=0
shrinkage=0.1


Tree=71
num_leaves=5
num_cat=0
split_feature=0 1 1 1
split_gain=0.345836 1.19656 0.816631 0.0910617
threshold=-0.78344063250354712 -0.086582322970508621 -0.099426050780972428 -0.02075414827181089
decision_type=2 2 2 2
left_child=2 -2 -1 -3
right_child=1 3 -4 -5
leaf_value=0.017768441257977396 -0.024898286120089513 0.0087880834404512279 -0.0064827507618550415 0
leaf_weight=28 21 20 26 25
leaf_count=28 21 20 26 25
internal_value=0 -0.00506054 0.00572209 0.00375442
internal_weight=0 66 54 45
internal_count=120 66 54 45
is_linear=0
shrinkage=0.1


Tree=72
num_leaves=4
num_cat=0
split_feature=0 0 1
split_gain=0.372478 0.587444 0.279022
threshold=0.6129394166695048 -0.87810887489592215 -0.045791444653767215
decision_type=2 2 2
left_child=1 -1 -2
right_child=2 -3 -4
leaf_value=0.0039674164904256225 0.0148710215181092 -0.013915642932494005 0
leaf_weight=35 22 36 27
leaf_count=35 22 36 27
internal_value=0 -0.00481872 0.00650888
internal_weight=0 71 49
internal_count=120 71 49
is_linear=0
shrinkage=0.1


Tree=73
num_leaves=4
num_cat=0
split_feature=2 3 3
split_gain=0.316428 0.568577 0.489157
threshold=0.035824097460215913 -0.23960450092682301 -0.26797803285862831
decision_type=2 2 2
left_child=1 2 -1
right_child=-2 -3 -4
leaf_value=0.0028646554103673601 -0.011638978432414234 0.01209225374769881 -0.015167491910082443
leaf_weight=40 20 37 23
leaf_count=40 20 37 23
internal_value=0 0.00213136 -0.00340176
internal_weight=0 100 63
internal_count=120 100 63
is_linear=0
shrinkage=0.1


Tree=74
num_leaves=5
num_cat=0
split_feature=0 1 0 2
split_gain=0.316727 0.395349 0.276486 0.0168883
threshold=0.94132055932019709 -0.14849707365363776 -0.87810887489592215 0.016928639327879951
decision_type=2 2 2 2
left_child=1 -1 -3 -2
right_child=3 2 -4 -5
leaf_value=-0.0082168221563078472 -0.0035347565840971652 0.015286930337019914 0.00091656788319028736 -0.010283069872948877
leaf_weight=20 20 27 33 20
leaf_count=20 20 27 33 20
internal_value=0 0.0034835 0.00771727 -0.00740971
internal_weight=0 80 60 40
internal_count=120 80 60 40
is_linear=0
shrinkage=0.1


Tree=75
num_leaves=5
num_cat=0
split_feature=0 3 3 2
split_gain=0.356255 0.502845 0.301407 0.0963985
threshold=0.6129394166695048 -0.23960450092682301 -0.25379085074601521 0.017567655721775956
decision_type=2 2 2 2
left_child=1 3 -2 -1
right_child=2 -3 -4 -5
leaf_value=-0.0049872050372340394 0.013300900934658142 0.0052708227255901597 -0.0018354266592858094 -0.016506727967047739
leaf_weight=20 28 28 21 23
leaf_count=20 28 28 21 23
internal_value=0 -0.00467428 0.00640626 -0.0116151
internal_weight=0 71 49 43
internal_count=120 71 49 43
is_linear=0
shrinkage=0.1


Tree=76
num_leaves=5
num_cat=0
split_feature=0 3 0 2
split_gain=0.316067 0.454772 0.987693 0.00917707
threshold=0.94132055932019709 -0.19704545757408701 -0.80119047639628682 0.016928639327879951
decision_type=2 2 2 2
left_child=1 2 -1 -2
right_child=3 -3 -4 -5
leaf_value=-0.0014637028286306709 -0.0038301625797165189 -0.0079526915187629454 0.025098181968113427 -0.0099794761378060176
leaf_weight=35 20 23 22 20
leaf_count=35 20 23 22 20
internal_value=0 0.00347599 0.00843871 -0.00740562
internal_weight=0 80 57 40
internal_count=120 80 57 40
is_linear=0
shrinkage=0.1


Tree=77
num_leaves=4
num_cat=0
split_feature=0 0 3
split_gain=0.320456 0.535392 0.234512
threshold=0.6129394166695048 -0.87810887489592215 -0.25379085074601521
decision_type=2 2 2
left_child=1 -1 -2
right_child=2 -3 -4
leaf_value=0.0038954524833902156 0.012101005720913443 -0.01317051629559263 -0.0011136400473668333
leaf_weight=35 28 36 21
leaf_count=35 28 36 21
internal_value=0 -0.00447636 0.00602993
internal_weight=0 71 49
internal_count=120 71 49
is_linear=0
shrinkage=0.1


Tree=78
num_leaves=5
num_cat=0
split_feature=0 1 1 1
split_gain=0.340989 0.948615 0.77057 0.0497556
threshold=-0.78344063250354712 -0.086582322970508621 -0.099426050780972428 -0.02075414827181089
decision_type=2 2 2 2
left_child=2 -2 -1 -3
right_child=1 3 -4 -5
leaf_value=0.017424624618771374 -0.022645646210966496 0.0065307466425439239 -0.0061117212634216348 0
leaf_weight=28 21 20 26 25
leaf_count=28 21 20 26 25
internal_value=0 -0.00498679 0.00572246 0.00281121
internal_weight=0 66 54 45
internal_count=120 66 54 45
is_linear=0
shrinkage=0.1


Tree=79
num_leaves=5
num_cat=0
split_feature=0 3 1 2
split_gain=0.283636 0.511202 0.240101 0.0728139
threshold=0.6129394166695048 -0.23960450092682301 -0.045791444653767215 0.017567655721775956
decision_type=2 2 2 2
left_child=1 3 -2 -1
right_child=2 -3 -4 -5
leaf_value=-0.0051488894517646381 0.013465942645230043 0.005862257871201499 0 -0.015594503112174564
leaf_weight=20 22 28 27 23
leaf_count=20 22 28 27 23
internal_value=0 -0.00419101 0.00569465 -0.0112023
internal_weight=0 71 49 43
internal_count=120 71 49 43
is_linear=0
shrinkage=0.1


Tree=80
num_leaves=5
num_cat=0
split_feature=0 1 1 1
split_gain=0.328416 0.801036 0.644491 0.041568
threshold=-0.78344063250354712 -0.086582322970508621 -0.099426050780972428 -0.0031509258737685481
decision_type=2 2 2 2
left_child=2 -2 -1 -3
right_child=1 3 -4 -5
leaf_value=0.016332331565294369 -0.021106484645152485 0 -0.0051324766396421868 0.0056671773359808922
leaf_weight=28 21 25 26 20
leaf_count=28 21 25 26 20
internal_value=0 -0.00488307 0.00562757 0.00224496
internal_weight=0 66 54 45
internal_count=120 66 54 45
is_linear=0
shrinkage=0.1


Tree=81
num_leaves=5
num_cat=0
split_feature=0 1 0 2
split_gain=0.297161 0.416956 0.238414 0.00682471
threshold=0.94132055932019709 -0.14849707365363776 -0.87810887489592215 0.016928639327879951
decision_type=2 2 2 2
left_child=1 -1 -3 -2
right_child=3 2 -4 -5
leaf_value=-0.0086725825698516935 -0.0037416517585553222 0.014779340200849709 0.0013304676472860799 -0.0096210174111687127
leaf_weight=20 20 27 33 20
leaf_count=20 20 27 33 20
internal_value=0 0.00336895 0.00771649 -0.00718211
internal_weight=0 80 60 40
internal_count=120 80 60 40
is_linear=0
shrinkage=0.1


Tree=82
num_leaves=5
num_cat=0
split_feature=0 3 1 2
split_gain=0.301109 0.46657 0.237618 0.059587
threshold=0.6129394166695048 -0.23960450092682301 -0.045791444653767215 0.017567655721775956
decision_type=2 2 2 2
left_child=1 3 -2 -1
right_child=2 -3 -4 -5
leaf_value=-0.0052987645936292344 0.013597547814971182 0.0052605457331235663 0 -0.015097446353866001
leaf_weight=20 22 28 27 23
leaf_count=20 22 28 27 23
internal_value=0 -0.00430951 0.00587666 -0.0110061
internal_weight=0 71 49 43
internal_count=120 71 49 43
is_linear=0
shrinkage=0.1


Tree=83
num_leaves=4
num_cat=0
split_feature=2 2 3
split_gain=0.299129 0.503344 1.24715
threshold=0.011016372010600045 0.025948992038786509 -0.23960450092682301
decision_type=2 2 2
left_child=-1 2 -2
right_child=1 -3 -4
leaf_value=-0.0094056828273399919 -0.0018644904150465641 -0.0072893206728476814 0.027829102850817296
leaf_weight=27 40 32 21
leaf_count=27 40 32 21
internal_value=0 0.00254467 0.0080315
internal_weight=0 93 61
internal_count=120 93 61
is_linear=0
shrinkage=0.1


Tree=84
num_leaves=5
num_cat=0
split_feature=0 3 0 2
split_gain=0.280451 0.485115 0.846366 0.00235998
threshold=0.94132055932019709 -0.19704545757408701 -0.80119047639628682 0.016928639327879951
decision_type=2 2 2 2
left_child=1 2 -1 -2
right_child=3 -3 -4 -5
leaf_value=-0.00073318332226178311 -0.0037858476864639093 -0.0085825947180335309 0.023784330909129195 -0.0092040200537814119
leaf_weight=35 20 23 22 20
leaf_count=35 20 23 22 20
internal_value=0 0.00325313 0.00838013 -0.00699568
internal_weight=0 80 57 40
internal_count=120 80 57 40
is_linear=0
shrinkage=0.1


Tree=85
num_leaves=5
num_cat=0
split_feature=0 0 1 1
split_gain=0.285925 0.856589 0.565587 0.497033
threshold=-0.78344063250354712 0.62181433875347614 -0.099426050780972428 -0.045791444653767215
decision_type=2 2 2 2
left_child=2 -2 -1 -3
right_child=1 3 -4 -5
leaf_value=0.015236560456817906 -0.021993134505031885 0.014670312203517173 -0.004850811347396896 -0.0060641017204003372
leaf_weight=28 20 20 26 26
leaf_count=28 20 20 26 26
internal_value=0 -0.00460859 0.00519497 0.00251674
internal_weight=0 66 54 46
internal_count=120 66 54 46
is_linear=0
shrinkage=0.1


Tree=86
num_leaves=4
num_cat=0
split_feature=1 0 0
split_gain=0.297536 0.526304 1.29038
threshold=-0.14849707365363776 -0.87810887489592215 1.0000000180025095e-35
decision_type=2 2 2
left_child=-1 -2 -3
right_child=1 2 -4
leaf_value=-0.010144170886574872 0.014229166437505329 -0.023704580949622675 0.0063297400077518525
leaf_weight=24 27 20 49
leaf_count=24 27 20 49
internal_value=0 0.00229402 -0.00208711
internal_weight=0 96 69
internal_count=120 96 69
is_linear=0
shrinkage=0.1


Tree=87
num_leaves=4
num_cat=0
split_feature=0 0 2
split_gain=0.282994 0.371756 0.356817
threshold=0.94132055932019709 -0.95207317901877042 0.020555974315609109
decision_type=2 2 2
left_child=1 -1 -3
right_child=-2 2 -4
leaf_value=-0.0073570533302396547 -0.0070373862705926426 0 0.015745917174528164
leaf_weight=22 40 30 28
leaf_count=22 40 30 28
internal_value=0 0.00325702 0.00762813
internal_weight=0 80 58
internal_count=120 80 58
is_linear=0
shrinkage=0.1


Tree=88
num_leaves=5
num_cat=0
split_feature=0 3 3 2
split_gain=0.251703 0.387841 0.223551 0.0662937
threshold=0.6129394166695048 -0.23960450092682301 -0.25379085074601521 0.017567655721775956
decision_type=2 2 2 2
left_child=1 3 -2 -1
right_child=2 -3 -4 -5
leaf_value=-0.0043075650490930284 0.011295577406436285 0.0047059990791545733 -0.0016582920806829601 -0.014250168218013747
leaf_weight=20 28 28 21 23
leaf_count=20 28 28 21 23
internal_value=0 -0.00397446 0.00533619 -0.0100918
internal_weight=0 71 49 43
internal_count=120 71 49 43
is_linear=0
shrinkage=0.1


Tree=89
num_leaves=4
num_cat=0
split_feature=0 3 0
split_gain=0.273018 0.413556 0.747013
threshold=0.94132055932019709 -0.19704545757408701 -0.80710949877455762
decision_type=2 2 2
left_child=1 2 -1
right_child=-2 -3 -4
leaf_value=-0.002329524844845143 -0.0069126814264846492 -0.007685556076669456 0.02009286095402546
leaf_weight=30 40 23 27
leaf_count=30 40 23 27
internal_value=0 0.0031986 0.00794159
internal_weight=0 80 57
internal_count=120 80 57
is_linear=0
shrinkage=0.1


Tree=90
num_leaves=5
num_cat=0
split_feature=0 0 0 1
split_gain=0.266277 0.705077 0.514915 0.398518
threshold=-0.78344063250354712 0.62181433875347614 -0.91065446885501999 -0.045791444653767215
decision_type=2 2 2 2
left_child=2 -2 -1 -3
right_child=1 3 -4 -5
leaf_value=-0.003495799775391566 -0.020215352679216633 0.0129056749634968 0.015686778283505363 -0.005660237083696811
leaf_weight=29 20 20 25 26
leaf_count=29 20 20 25 26
internal_value=0 -0.00444549 0.00501532 0.00197769
internal_weight=0 66 54 46
internal_count=120 66 54 46
is_linear=0
shrinkage=0.1


Tree=91
num_leaves=4
num_cat=0
split_feature=1 0 0
split_gain=0.277868 0.491249 1.12818
threshold=-0.14849707365363776 -0.87810887489592215 0.6129394166695048
decision_type=2 2 2
left_child=-1 -2 -3
right_child=1 2 -4
leaf_value=-0.0098017486348869268 0.013752302031090161 -0.0197355804704572 0.0070069356908494659
leaf_weight=24 27 24 45
leaf_count=24 27 24 45
internal_value=0 0.00221838 -0.00200573
internal_weight=0 96 69
internal_count=120 96 69
is_linear=0
shrinkage=0.1


Tree=92
num_leaves=4
num_cat=0
split_feature=0 0 2
split_gain=0.274825 0.329882 0.277261
threshold=0.94132055932019709 -0.80119047639628682 0.017567655721775956
decision_type=2 2 2
left_child=1 2 -1
right_child=-2 -3 -4
leaf_value=0.0064111350370684968 -0.0069306304208294565 0.011167392001973709 -0.0086986393566193167
leaf_weight=21 40 32 27
leaf_count=21 40 32 27
internal_value=0 0.00321444 -0.00167151
internal_weight=0 80 48
internal_count=120 80 48
is_linear=0
shrinkage=0.1


Tree=93
num_leaves=4
num_cat=0
split_feature=2 2 3
split_gain=0.258892 0.432378 1.07526
threshold=0.011016372010600045 0.025948992038786509 -0.23960450092682301
decision_type=2 2 2
left_child=-1 2 -2
right_child=1 -3 -4
leaf_value=-0.0087655982752019353 -0.0017077143652903084 -0.0067399463676983545 0.025835063316458268
leaf_weight=27 40 32 21
leaf_count=27 40 32 21
internal_value=0 0.0023508 0.00744772
internal_weight=0 93 61
internal_count=120 93 61
is_linear=0
shrinkage=0.1


Tree=94
num_leaves=5
num_cat=0
split_feature=0 1 1 1
split_gain=0.224095 0.643376 0.507904 0.108442
threshold=-0.78344063250354712 -0.086582322970508621 -0.099426050780972428 -0.0031509258737685481
decision_type=2 2 2 2
left_child=2 -2 -1 -3
right_child=1 3 -4 -5
leaf_value=0.014141467895237087 -0.01863725181563472 -0.0014608051807397462 -0.0048972392192232553 0.0079508838494012912
leaf_weight=28 21 25 26 20
leaf_count=28 21 25 26 20
internal_value=0 -0.00407462 0.00460474 0.00227819
internal_weight=0 66 54 45
internal_count=120 66 54 45
is_linear=0
shrinkage=0.1


Tree=95
num_leaves=4
num_cat=0
split_feature=1 0 0
split_gain=0.247961 0.411793 1.00429
threshold=-0.14849707365363776 -0.87810887489592215 0.6129394166695048
decision_type=2 2 2
left_child=-1 -2 -3
right_child=1 2 -4
leaf_value=-0.0092527160878430742 0.01266698845364036 -0.018487272052014031 0.0067455882700674374
leaf_weight=24 27 24 45
leaf_count=24 27 24 45
internal_value=0 0.00210271 -0.00174193
internal_weight=0 96 69
internal_count=120 96 69
is_linear=0
shrinkage=0.1


Tree=96
num_leaves=6
num_cat=0
split_feature=0 2 3 0 2
split_gain=0.241783 0.356918 0.303211 0.282757 0.00379939
threshold=0.94132055932019709 0.020555974315609109 -0.25379085074601521 -0.80710949877455762 0.016928639327879951
decision_type=2 2 2 2 2
left_child=1 2 -1 -3 -2
right_child=4 3 -4 -5 -6
leaf_value=-0.012289432935850587 -0.0033120884318198008 0.00037046830092808865 0.0047101361197073805 0.018288107700152444 -0.0086780234792364509
leaf_weight=20 20 20 20 20 20
leaf_count=20 20 20 20 20 20
internal_value=0 0.00302032 -0.00329018 0.00983039 -0.00649574
internal_weight=0 80 40 40 40
internal_count=120 80 40 40 40
is_linear=0
shrinkage=0.1


Tree=97
num_leaves=5
num_cat=0
split_feature=2 1 2 1
split_gain=0.236703 0.402996 0.692492 0.503509
threshold=0.035824097460215913 -0.039684574813076544 0.014683499200762026 1.0000000180025095e-35
decision_type=2 2 2 2
left_child=1 2 -1 -3
right_child=-2 3 -4 -5
leaf_value=-0.0057302493888988903 -0.010061611531042094 -0.016486659231029276 0.016401156024317489 0.0046878840201452863
leaf_weight=22 20 21 35 22
leaf_count=22 20 21 35 22
internal_value=0 0.00184874 0.00750861 -0.00518882
internal_weight=0 100 57 43
internal_count=120 100 57 43
is_linear=0
shrinkage=0.1


Tree=98
num_leaves=4
num_cat=0
split_feature=1 0 0
split_gain=0.217798 0.356182 0.868368
threshold=-0.14849707365363776 -0.87810887489592215 1.0000000180025095e-35
decision_type=2 2 2
left_child=-1 -2 -3
right_child=1 2 -4
leaf_value=-0.0086546201639884565 0.0118188098199918 -0.01934487175804411 0.0052814236004466164
leaf_weight=24 27 20 49
leaf_count=24 27 20 49
internal_value=0 0.00198936 -0.00156768
internal_weight=0 96 69
internal_count=120 96 69
is_linear=0
shrinkage=0.1


Tree=99
num_leaves=4
num_cat=0
split_feature=0 3 0
split_gain=0.241304 0.359443 0.7273
threshold=0.94132055932019709 -0.19704545757408701 -0.80710949877455762
decision_type=2 2 2
left_child=1 2 -1
right_child=-2 -3 -4
leaf_value=-0.0026617672004474839 -0.0064645243894530888 -0.0070696692801226592 0.019478734743372202
leaf_weight=30 40 23 27
leaf_count=30 40 23 27
internal_value=0 0.0030438 0.00747578
internal_weight=0 80 57
internal_count=120 80 57
is_linear=0
shrinkage=0.1


Tree=100
num_leaves=5
num_cat=0
split_feature=2 1 2 1
split_gain=0.208554 0.344746 0.527869 0.424047
threshold=0.035824097460215913 -0.039684574813076544 0.014683499200762026 1.0000000180025095e-35
decision_type=2 2 2 2
left_child=1 2 -1 -3
right_child=-2 3 -4 -5
leaf_value=-0.0044915659864824811 -0.009461327651699495 -0.015156196914054587 0.014732718569877196 0.0042338011298778113
leaf_weight=22 20 21 35 22
leaf_count=22 20 21 35 22
internal_value=0 0.00171682 0.00696223 -0.00477133
internal_weight=0 100 57 43
internal_count=120 100 57 43
is_linear=0
shrinkage=0.1


Tree=101
num_leaves=4
num_cat=0
split_feature=0 1 0
split_gain=0.204267 0.320165 0.105205
threshold=0.94132055932019709 -0.14849707365363776 -0.80414818170610347
decision_type=2 2 2
left_child=1 -1 -3
right_child=-2 2 -4
leaf_value=-0.0077393413915898745 -0.0059791278506577603 0.010354149990783967 0.00092666088056390136
leaf_weight=20 40 34 26
leaf_count=20 40 34 26
internal_value=0 0.00276689 0.00660263
internal_weight=0 80 60
internal_count=120 80 60
is_linear=0
shrinkage=0.1


Tree=102
num_leaves=5
num_cat=0
split_feature=0 3 3 2
split_gain=0.219683 0.358554 0.212609 0.0876163
threshold=0.6129394166695048 -0.23960450092682301 -0.25379085074601521 0.017567655721775956
decision_type=2 2 2 2
left_child=1 3 -2 -1
right_child=2 -3 -4 -5
leaf_value=-0.0033301255965763202 0.010838564326349826 0.0046479004533178919 -0.0018010491061218792 -0.014140244349076216
leaf_weight=20 28 28 21 23
leaf_count=20 28 28 21 23
internal_value=0 -0.00368637 0.00501383 -0.00957832
internal_weight=0 71 49 43
internal_count=120 71 49 43
is_linear=0
shrinkage=0.1


Tree=103
num_leaves=5
num_cat=0
split_feature=0 3 1 2
split_gain=0.201459 0.329908 0.579547 0.000402685
threshold=0.94132055932019709 -0.19704545757408701 -0.11883761089345647 0.016928639327879951
decision_type=2 2 2 2
left_child=1 2 -1 -2
right_child=3 -3 -4 -5
leaf_value=-0.0033668906808793381 -0.003022941733949991 -0.0069215286703660063 0.016367875693200425 -0.0078316146541145704
leaf_weight=26 20 23 31 20
leaf_count=26 20 23 31 20
internal_value=0 0.00275858 0.0070157 -0.00592789
internal_weight=0 80 57 40
internal_count=120 80 57 40
is_linear=0
shrinkage=0.1


Tree=104
num_leaves=5
num_cat=0
split_feature=0 3 3 2
split_gain=0.201672 0.337199 0.167427 0.0719034
threshold=0.6129394166695048 -0.23960450092682301 -0.25379085074601521 0.017567655721775956
decision_type=2 2 2 2
left_child=1 3 -2 -1
right_child=2 -3 -4 -5
leaf_value=-0.0034497841183348497 0.0099169881380874979 0.0044918050632011125 -0.0011722550250126958 -0.013505111893987532
leaf_weight=20 28 28 21 23
leaf_count=20 28 28 21 23
internal_value=0 -0.00357588 0.0047567 -0.00929422
internal_weight=0 71 49 43
internal_count=120 71 49 43
is_linear=0
shrinkage=0.1


Tree=105
num_leaves=5
num_cat=0
split_feature=0 1 0 1
split_gain=0.214406 0.493274 0.469143 0.0723275
threshold=-0.78344063250354712 -0.086582322970508621 -0.889946919377261 -0.0031509258737685481
decision_type=2 2 2 2
left_child=2 -2 -1 -3
right_child=1 3 -4 -5
leaf_value=-0.0027061695053444824 -0.016734589209615604 -0.0014551407878243003 0.015879617329755444 0.0062160080895144422
leaf_weight=32 21 25 22 20
leaf_count=32 21 25 22 20
internal_value=0 -0.0039928 0.00449625 0.00151018
internal_weight=0 66 54 45
internal_count=120 66 54 45
is_linear=0
shrinkage=0.1


Tree=106
num_leaves=4
num_cat=0
split_feature=2 3 0
split_gain=0.194508 0.311707 0.702417
threshold=0.011016372010600045 -0.23960450092682301 0.6129394166695048
decision_type=2 2 2
left_child=-1 2 -2
right_child=1 -3 -4
leaf_value=-0.0076364714626779469 -0.012077383470163256 0.0093955097748738767 0.010243702953779507
leaf_weight=27 33 36 24
leaf_count=27 33 36 24
internal_value=0 0.00199528 -0.00232811
internal_weight=0 93 57
internal_count=120 93 57
is_linear=0
shrinkage=0.1


Tree=107
num_leaves=5
num_cat=0
split_feature=0 3 1 1
split_gain=0.216475 0.502791 0.672321 0.457406
threshold=-0.78344063250354712 -0.22541815314257671 -0.045791444653767215 -0.099426050780972428
decision_type=2 2 2 2
left_child=3 2 -2 -1
right_child=1 -3 -4 -5
leaf_value=0.013590266879191038 0.015157572761926445 -0.016031048960386218 -0.0096894336068252367 -0.0044436214853080282
leaf_weight=28 21 23 22 26
leaf_count=28 21 23 22 26
internal_value=0 -0.00399402 0.00198044 0.00453734
internal_weight=0 66 43 54
internal_count=120 66 43 54
is_linear=0
shrinkage=0.1


Tree=108
num_leaves=6
num_cat=0
split_feature=0 2 3 0 2
split_gain=0.183265 0.305811 0.200187 0.159096 0.010851
threshold=0.94132055932019709 0.020555974315609109 -0.25379085074601521 -0.80710949877455762 0.016928639327879951
decision_type=2 2 2 2 2
left_child=1 2 -1 -3 -2
right_child=4 3 -4 -5 -6
leaf_value=-0.010539902385786991 -0.002323921279173081 0.0014645143862933824 0.0031086368883395015 0.015385251779968637 -0.0080307703674718529
leaf_weight=20 20 20 20 20 20
leaf_count=20 20 20 20 20 20
internal_value=0 0.00260505 -0.00321616 0.00892587 -0.00567793
internal_weight=0 80 40 40 40
internal_count=120 80 40 40 40
is_linear=0
shrinkage=0.1


Tree=109
num_leaves=4
num_cat=0
split_feature=2 2 3
split_gain=0.185947 0.280016 0.218356
threshold=0.035824097460215913 0.020555974315609109 -0.23960450092682301
decision_type=2 2 2
left_child=1 2 -1
right_child=-2 -3 -4
leaf_value=-0.0059838336221430914 -0.0089357680678591091 0.009801383612752259 0.0054835371898069698
leaf_weight=45 20 30 25
leaf_count=45 20 30 25
internal_value=0 0.00161896 -0.00160255
internal_weight=0 100 70
internal_count=120 100 70
is_linear=0
shrinkage=0.1


Tree=110
num_leaves=5
num_cat=0
split_feature=0 0 0 3
split_gain=0.180625 0.295212 0.189123 0.124216
threshold=0.6129394166695048 -0.80414818170610347 -0.95207317901877042 -0.25379085074601521
decision_type=2 2 2 2
left_child=1 2 -1 -2
right_child=3 -3 -4 -5
leaf_value=-0.0046930878633289173 0.0089619584239246462 -0.011662990831485658 0.0082040233497347684 -0.0004022385378808698
leaf_weight=22 28 27 22 21
leaf_count=22 28 27 22 21
internal_value=0 -0.00334766 0.00130117 0.00454098
internal_weight=0 71 44 49
internal_count=120 71 44 49
is_linear=0
shrinkage=0.1


Tree=111
num_leaves=5
num_cat=0
split_feature=0 3 0 2
split_gain=0.177905 0.350342 0.523178 0.00791516
threshold=0.94132055932019709 -0.19704545757408701 -0.80119047639628682 0.016928639327879951
decision_type=2 2 2 2
left_child=1 2 -1 -2
right_child=3 -3 -4 -5
leaf_value=-5.6235013544823371e-05 -0.0023692995607778452 -0.0074133381516330796 0.01907628109660427 -0.0077738798651969965
leaf_weight=35 20 23 22 20
leaf_count=35 20 23 22 20
internal_value=0 0.0025906 0.00697842 -0.00557216
internal_weight=0 80 57 40
internal_count=120 80 57 40
is_linear=0
shrinkage=0.1


Tree=112
num_leaves=5
num_cat=0
split_feature=0 0 1 1
split_gain=0.173754 0.434988 0.381723 0.240907
threshold=-0.78344063250354712 0.62181433875347614 -0.099426050780972428 -0.045791444653767215
decision_type=2 2 2 2
left_child=2 -2 -1 -3
right_child=1 3 -4 -5
leaf_value=0.012325185417086073 -0.016004407280714804 0.0099277258314093616 -0.0041241642045438398 -0.0044776375722974529
leaf_weight=28 20 20 26 26
leaf_count=28 20 20 26 26
internal_value=0 -0.00360586 0.00403514 0.00135123
internal_weight=0 66 54 46
internal_count=120 66 54 46
is_linear=0
shrinkage=0.1


Tree=113
num_leaves=4
num_cat=0
split_feature=1 2 1
split_gain=0.200339 0.363715 1.29175
threshold=-0.14849707365363776 0.023783826509029254 -0.039684574813076544
decision_type=2 2 2
left_child=-1 2 -2
right_child=1 -3 -4
leaf_value=-0.0083313730778706071 0.021208156497992542 -0.0067324130391136442 -0.0067315190743478031
leaf_weight=24 31 31 34
leaf_count=24 31 31 34
internal_value=0 0.00187402 0.00628649
internal_weight=0 96 65
internal_count=120 96 65
is_linear=0
shrinkage=0.1


Tree=114
num_leaves=4
num_cat=0
split_feature=0 0 2
split_gain=0.164069 0.276843 0.11341
threshold=0.6129394166695048 -0.87810887489592215 0.017567655721775956
decision_type=2 2 2
left_child=1 -1 -2
right_child=2 -3 -4
leaf_value=0.0026421144438665131 0 -0.0095371561461961071 0.0089968178056998391
leaf_weight=35 24 36 25
leaf_count=35 24 36 25
internal_value=0 -0.00325186 0.00426133
internal_weight=0 71 49
internal_count=120 71 49
is_linear=0
shrinkage=0.1


Tree=115
num_leaves=6
num_cat=0
split_feature=0 2 0 3 2
split_gain=0.176785 0.263636 0.159953 0.141401 0.00591632
threshold=0.94132055932019709 0.020555974315609109 -0.80710949877455762 -0.25379085074601521 0.016928639327879951
decision_type=2 2 2 2 2
left_child=1 3 -3 -1 -2
right_child=4 2 -4 -5 -6
leaf_value=-0.0090037310266459 -0.0024738616345674211 0.00098136153423139614 0.014860231469375318 0.0023576373025361551 -0.0076952708349231486
leaf_weight=20 20 20 20 20 20
leaf_count=20 20 20 20 20 20
internal_value=0 0.00254929 0.00842172 -0.00282352 -0.00558514
internal_weight=0 80 40 40 40
internal_count=120 80 40 40 40
is_linear=0
shrinkage=0.1


Tree=116
num_leaves=5
num_cat=0
split_feature=1 0 0 0
split_gain=0.159763 0.540017 0.454203 0.396434
threshold=0.014648207857310804 -0.78344063250354712 -0.889946919377261 1.2046249599864332
decision_type=2 2 2 2
left_child=1 2 -1 -3
right_child=-2 3 -4 -5
leaf_value=-0.0018704008274407335 0.0080051408078306418 -0.016586695896289961 0.017104242137598116 0.00069791126239302761
leaf_weight=30 20 30 20 20
leaf_count=30 20 30 20 20
internal_value=0 -0.00177664 0.00532045 -0.00927351
internal_weight=0 100 50 50
internal_count=120 100 50 50
is_linear=0
shrinkage=0.1


Tree=117
num_leaves=4
num_cat=0
split_feature=1 2 1
split_gain=0.165798 0.328978 1.12097
threshold=-0.14849707365363776 0.023783826509029254 -0.039684574813076544
decision_type=2 2 2
left_child=-1 2 -2
right_child=1 -3 -4
leaf_value=-0.0075444423051780288 0.019856815534413891 -0.006428983031867147 -0.0061461307829249476
leaf_weight=24 31 31 34
leaf_count=24 31 31 34
internal_value=0 0.00174294 0.00594818
internal_weight=0 96 65
internal_count=120 96 65
is_linear=0
shrinkage=0.1


Tree=118
num_leaves=4
num_cat=0
split_feature=0 0 2
split_gain=0.161164 0.258541 0.107353
threshold=0.6129394166695048 -0.87810887489592215 0.017567655721775956
decision_type=2 2 2
left_child=1 -1 -2
right_child=2 -3 -4
leaf_value=0.002500090967832404 0 -0.0092552135742599625 0.0088707199247568466
leaf_weight=35 24 36 25
leaf_count=35 24 36 25
internal_value=0 -0.00317891 0.00427144
internal_weight=0 71 49
internal_count=120 71 49
is_linear=0
shrinkage=0.1


Tree=119
num_leaves=5
num_cat=0
split_feature=0 0 1 2
split_gain=0.168483 0.265312 0.229843 0.00312764
threshold=0.94132055932019709 -0.79231374870819959 -0.12180797834743749 0.016928639327879951
decision_type=2 2 2 2
left_child=1 2 -1 -2
right_child=3 -3 -4 -5
leaf_value=-0.009770619403859088 -0.002473787650171741 0.010263106814131123 0.0036689424960240982 -0.0073508017698069644
leaf_weight=21 20 29 30 20
leaf_count=21 20 29 30 20
internal_value=0 0.00253154 -0.00147329 -0.00541285
internal_weight=0 80 51 40
internal_count=120 80 51 40
is_linear=0
shrinkage=0.1


Tree=120
num_leaves=5
num_cat=0
split_feature=1 0 0 0
split_gain=0.149825 0.497539 0.397078 0.349388
threshold=0.014648207857310804 -0.78344063250354712 -0.889946919377261 1.2046249599864332
decision_type=2 2 2 2
left_child=1 2 -1 -3
right_child=-2 3 -4 -5
leaf_value=-0.0015785463857036931 0.0077735559623320688 -0.015762016979222932 0.016118138410305568 0.00038706473922377909
leaf_weight=30 20 30 20 20
leaf_count=30 20 30 20 20
internal_value=0 -0.00170109 0.00510107 -0.00890303
internal_weight=0 100 50 50
internal_count=120 100 50 50
is_linear=0
shrinkage=0.1


Tree=121
num_leaves=4
num_cat=0
split_feature=0 0 2
split_gain=0.15819 0.239233 0.097243
threshold=0.6129394166695048 -0.87810887489592215 0.017567655721775956
decision_type=2 2 2
left_child=1 -1 -2
right_child=2 -3 -4
leaf_value=0.0023351233059330473 0 -0.0089550706131261947 0.0086442014767489084
leaf_weight=35 24 36 25
leaf_count=35 24 36 25
internal_value=0 -0.00310804 0.00427596
internal_weight=0 71 49
internal_count=120 71 49
is_linear=0
shrinkage=0.1


Tree=122
num_leaves=5
num_cat=0
split_feature=0 0 1 2
split_gain=0.159465 0.286135 0.184956 0.00327208
threshold=0.94132055932019709 -0.79231374870819959 -0.12180797834743749 0.016928639327879951
decision_type=2 2 2 2
left_child=1 2 -1 -2
right_child=3 -3 -4 -5
leaf_value=-0.0091134282349972645 -0.0023183773097858462 0.010537659090832378 0.0028720001685899454 -0.0071332428610882031
leaf_weight=21 20 29 30 20
leaf_count=21 20 29 30 20
internal_value=0 0.00250474 -0.00167147 -0.00522634
internal_weight=0 80 51 40
internal_count=120 80 51 40
is_linear=0
shrinkage=0.1


Tree=123
num_leaves=5
num_cat=0
split_feature=0 1 0 3
split_gain=0.139925 0.27122 1.30229 0.0816836
threshold=0.6129394166695048 -0.14333423005147303 -0.87810887489592215 -0.25379085074601521
decision_type=2 2 2 2
left_child=1 -1 -3 -2
right_child=3 2 -4 -5
leaf_value=0.0055247860009502887 0.0075859902275287553 0.0071771377036833261 -0.025490264835966583 0
leaf_weight=23 28 26 22 21
leaf_count=23 28 26 22 21
internal_value=0 -0.00291774 -0.00737989 0.00402719
internal_weight=0 71 48 49
internal_count=120 71 48 49
is_linear=0
shrinkage=0.1


Tree=124
num_leaves=4
num_cat=0
split_feature=0 0 2
split_gain=0.158391 0.282915 0.240101
threshold=0.94132055932019709 -0.80119047639628682 0.017567655721775956
decision_type=2 2 2
left_child=1 2 -1
right_child=-2 -3 -4
leaf_value=0.0054550643241482108 -0.0051899562346430185 0.0099110224436566412 -0.0085359484128346378
leaf_weight=21 40 32 27
leaf_count=21 40 32 27
internal_value=0 0.00251575 -0.00199833
internal_weight=0 80 48
internal_count=120 80 48
is_linear=0
shrinkage=0.1


Tree=125
num_leaves=4
num_cat=0
split_feature=2 3 0
split_gain=0.153347 0.312767 0.481043
threshold=0.011016372010600045 -0.23960450092682301 0.6129394166695048
decision_type=2 2 2
left_child=-1 2 -2
right_child=1 -3 -4
leaf_value=-0.0066808002775542233 -0.010554743359854971 0.0092966851758023213 0.0078455132099209523
leaf_weight=27 33 36 24
leaf_count=27 33 36 24
internal_value=0 0.00187839 -0.00245641
internal_weight=0 93 57
internal_count=120 93 57
is_linear=0
shrinkage=0.1


Tree=126
num_leaves=5
num_cat=0
split_feature=0 3 0 2
split_gain=0.150616 0.301524 0.463782 0.00850228
threshold=0.94132055932019709 -0.19704545757408701 -0.80119047639628682 0.016928639327879951
decision_type=2 2 2 2
left_child=1 2 -1 -2
right_child=3 -3 -4 -5
leaf_value=-4.6603331615577101e-05 -0.0019196134700279956 -0.0067844047585380422 0.017936077812833424 -0.0071841558384257726
leaf_weight=35 20 23 22 20
leaf_count=35 20 23 22 20
internal_value=0 0.00246206 0.0065442 -0.00505239
internal_weight=0 80 57 40
internal_count=120 80 57 40
is_linear=0
shrinkage=0.1


Tree=127
num_leaves=4
num_cat=0
split_feature=0 1 1
split_gain=0.144487 0.443522 0.324287
threshold=-0.78344063250354712 -0.05812330196366295 -0.099426050780972428
decision_type=2 2 2
left_child=2 -2 -1
right_child=1 -3 -4
leaf_value=0.011399800839476917 -0.011848441182105098 0.0043013786203877713 -0.0037277099507929071
leaf_weight=28 32 34 26
leaf_count=28 32 34 26
internal_value=0 -0.00322613 0.00374618
internal_weight=0 66 54
internal_count=120 66 54
is_linear=0
shrinkage=0.1


Tree=128
num_leaves=4
num_cat=0
split_feature=1 2 1
split_gain=0.14326 0.302112 1.01694
threshold=-0.14849707365363776 0.023783826509029254 -0.039684574813076544
decision_type=2 2 2
left_child=-1 2 -2
right_child=1 -3 -4
leaf_value=-0.0069874289308431582 0.018938901271431358 -0.0061719397674970256 -0.005813032406215334
leaf_weight=24 31 31 34
leaf_count=24 31 31 34
internal_value=0 0.00164749 0.00568462
internal_weight=0 96 65
internal_count=120 96 65
is_linear=0
shrinkage=0.1


Tree=129
num_leaves=5
num_cat=0
split_feature=1 0 0 0
split_gain=0.144109 0.440716 0.329328 0.318108
threshold=0.014648207857310804 -0.78344063250354712 -0.889946919377261 1.2046249599864332
decision_type=2 2 2 2
left_child=1 2 -1 -3
right_child=-2 3 -4 -5
leaf_value=-0.0012941559457894148 0.0076391578607039592 -0.014987244735239267 0.014766914520940611 0.00038394122739466565
leaf_weight=30 20 30 20 20
leaf_count=30 20 30 20 20
internal_value=0 -0.00165422 0.00473115 -0.00843939
internal_weight=0 100 50 50
internal_count=120 100 50 50
is_linear=0
shrinkage=0.1


Tree=130
num_leaves=5
num_cat=0
split_feature=0 3 0 1
split_gain=0.139749 0.227439 0.100334 0.070784
threshold=0.6129394166695048 -0.23960450092682301 -0.91065446885501999 -0.012306908254115399
decision_type=2 2 2 2
left_child=1 2 -1 -2
right_child=3 -3 -4 -5
leaf_value=-0.0012753354113151419 0.00013950838964420272 0.003628881716689368 -0.01229664699535374 0.0086667907816027154
leaf_weight=20 29 28 23 20
leaf_count=20 29 28 23 20
internal_value=0 -0.00291206 -0.00763626 0.00402868
internal_weight=0 71 43 49
internal_count=120 71 43 49
is_linear=0
shrinkage=0.1


Tree=131
num_leaves=4
num_cat=0
split_feature=2 3 0
split_gain=0.140792 0.266353 0.427542
threshold=0.011016372010600045 -0.23960450092682301 0.6129394166695048
decision_type=2 2 2
left_child=-1 2 -2
right_child=1 -3 -4
leaf_value=-0.0064090440197027178 -0.0098389762063908429 0.0086436928055250318 0.0075061198244819154
leaf_weight=27 33 36 24
leaf_count=27 33 36 24
internal_value=0 0.001792 -0.00218491
internal_weight=0 93 57
internal_count=120 93 57
is_linear=0
shrinkage=0.1


Tree=132
num_leaves=5
num_cat=0
split_feature=0 3 0 2
split_gain=0.155943 0.281726 0.433992 0.00832855
threshold=0.94132055932019709 -0.19704545757408701 -0.80119047639628682 0.016928639327879951
decision_type=2 2 2 2
left_child=1 2 -1 -2
right_child=3 -3 -4 -5
leaf_value=0 -0.0020031455130793442 -0.0064146302391869491 0.017463435783518413 -0.0072865016484701534
leaf_weight=35 20 23 22 20
leaf_count=35 20 23 22 20
internal_value=0 0.00250071 0.00644922 -0.00514534
internal_weight=0 80 57 40
internal_count=120 80 57 40
is_linear=0
shrinkage=0.1


Tree=133
num_leaves=4
num_cat=0
split_feature=0 1 1
split_gain=0.13059 0.353858 0.251972
threshold=-0.78344063250354712 -0.05812330196366295 -0.099426050780972428
decision_type=2 2 2
left_child=2 -2 -1
right_child=1 -3 -4
leaf_value=0.010308580371635852 -0.010784129541291052 0.003596560372382845 -0.0029495639178219318
leaf_weight=28 32 34 26
leaf_count=28 32 34 26
internal_value=0 -0.00307318 0.00355501
internal_weight=0 66 54
internal_count=120 66 54
is_linear=0
shrinkage=0.1


Tree=134
num_leaves=4
num_cat=0
split_feature=1 0 0
split_gain=0.137855 0.289329 0.60892
threshold=-0.14849707365363776 -0.87810887489592215 1.0000000180025095e-35
decision_type=2 2 2
left_child=-1 -2 -3
right_child=1 2 -4
leaf_value=-0.0068574226243117656 0.010491499877670169 -0.016480609696377997 0.0041059727307115237
leaf_weight=24 27 20 49
leaf_count=24 27 20 49
internal_value=0 0.00161285 -0.00157208
internal_weight=0 96 69
internal_count=120 96 69
is_linear=0
shrinkage=0.1


Tree=135
num_leaves=6
num_cat=0
split_feature=0 2 0 3 2
split_gain=0.134261 0.251259 0.0975512 0.0882305 0.00759872
threshold=0.94132055932019709 0.020555974315609109 -0.80710949877455762 -0.25379085074601521 0.016928639327879951
decision_type=2 2 2 2 2
left_child=1 3 -3 -1 -2
right_child=4 2 -4 -5 -6
leaf_value=-0.0077951649551658564 -0.0017615619816874839 0.0018631907827524625 0.013207454594693403 0.00088826262840656183 -0.0068419776080370382
leaf_weight=20 20 20 20 20 20
leaf_count=20 20 20 20 20 20
internal_value=0 0.0022913 0.0080362 -0.00295395 -0.00480224
internal_weight=0 80 40 40 40
internal_count=120 80 40 40 40
is_linear=0
shrinkage=0.1


Tree=136
num_leaves=4
num_cat=0
split_feature=2 3 3
split_gain=0.121641 0.2157 0.332456
threshold=0.035824097460215913 -0.23960450092682301 -0.28145589748028238
decision_type=2 2 2
left_child=1 2 -1
right_child=-2 -3 -4
leaf_value=0.0047875837357579457 -0.0071826999305457193 0.0075349451166409889 -0.009556070634267097
leaf_weight=32 20 37 31
leaf_count=32 20 37 31
internal_value=0 0.00135765 -0.00195317
internal_weight=0 100 63
internal_count=120 100 63
is_linear=0
shrinkage=0.1


Tree=137
num_leaves=4
num_cat=0
split_feature=3 2 1
split_gain=0.118031 0.258162 0.45302
threshold=-0.19704545757408701 0.025948992038786509 -0.039684574813076544
decision_type=2 2 2
left_child=1 2 -1
right_child=-2 -3 -4
leaf_value=0.011746042290739483 -0.0051502987055042776 -0.0074045086043189184 -0.0049293367860705067
leaf_weight=41 33 21 25
leaf_count=41 33 21 25
internal_value=0 0.00187181 0.00512671
internal_weight=0 87 66
internal_count=120 87 66
is_linear=0
shrinkage=0.1


Tree=138
num_leaves=4
num_cat=0
split_feature=1 0 0
split_gain=0.126324 0.240177 0.542281
threshold=-0.14849707365363776 -0.87810887489592215 1.0000000180025095e-35
decision_type=2 2 2
left_child=-1 -2 -3
right_child=1 2 -4
leaf_value=-0.0065727794224385103 0.0096284337983244418 -0.015430304384982399 0.0040001644886047205
leaf_weight=24 27 20 49
leaf_count=24 27 20 49
internal_value=0 0.00153493 -0.00134273
internal_weight=0 96 69
internal_count=120 96 69
is_linear=0
shrinkage=0.1


Tree=139
num_leaves=4
num_cat=0
split_feature=2 3 0
split_gain=0.126868 0.238095 0.376026
threshold=0.011016372010600045 -0.23960450092682301 0.6129394166695048
decision_type=2 2 2
left_child=-1 2 -2
right_child=1 -3 -4
leaf_value=-0.0061103333362996018 -0.0092657034554421546 0.0081586217909426408 0.0069856991189466231
leaf_weight=27 33 36 24
leaf_count=27 33 36 24
internal_value=0 0.00167333 -0.00207215
internal_weight=0 93 57
internal_count=120 93 57
is_linear=0
shrinkage=0.1


Tree=140
num_leaves=5
num_cat=0
split_feature=0 3 0 2
split_gain=0.144042 0.2542 0.381463 0.00745273
threshold=0.94132055932019709 -0.19704545757408701 -0.80119047639628682 0.016928639327879951
decision_type=2 2 2 2
left_child=1 2 -1 -2
right_child=3 -3 -4 -5
leaf_value=0 -0.0019025005562190442 -0.0060675262923497557 0.016460885607608475 -0.00703387310268938
leaf_weight=35 20 23 22 20
leaf_count=35 20 23 22 20
internal_value=0 0.00237896 0.00613827 -0.00496868
internal_weight=0 80 57 40
internal_count=120 80 57 40
is_linear=0
shrinkage=0.1


Tree=141
num_leaves=5
num_cat=0
split_feature=0 3 1 1
split_gain=0.11729 0.331651 0.460305 0.220241
threshold=-0.78344063250354712 -0.22541815314257671 -0.045791444653767215 -0.099426050780972428
decision_type=2 2 2 2
left_child=3 2 -2 -1
right_child=1 -3 -4 -5
leaf_value=0.0096701665651242746 0.012808234889084204 -0.012745258428109417 -0.0076995589485753003 -0.0026935456949881559
leaf_weight=28 21 23 22 26
leaf_count=28 21 23 22 26
internal_value=0 -0.00293306 0.00185114 0.00334723
internal_weight=0 66 43 54
internal_count=120 66 43 54
is_linear=0
shrinkage=0.1


Tree=142
num_leaves=4
num_cat=0
split_feature=1 2 1
split_gain=0.13231 0.251547 0.772086
threshold=-0.14849707365363776 0.023783826509029254 -0.039684574813076544
decision_type=2 2 2
left_child=-1 2 -2
right_child=1 -3 -4
leaf_value=-0.0067492688116996746 0.016802686052882005 -0.0055589430506355134 -0.0047093830964917071
leaf_weight=24 31 31 34
leaf_count=24 31 31 34
internal_value=0 0.00154648 0.00524305
internal_weight=0 96 65
internal_count=120 96 65
is_linear=0
shrinkage=0.1


Tree=143
num_leaves=5
num_cat=0
split_feature=1 0 0 0
split_gain=0.150205 0.385475 0.271442 0.271402
threshold=0.014648207857310804 -0.78344063250354712 1.2046249599864332 -0.889946919377261
decision_type=2 2 2 2
left_child=1 3 -3 -1
right_child=-2 2 -4 -5
leaf_value=-0.0011823746746499387 0.0077692982376411368 -0.01410250795444567 0 0.013355614892603963
leaf_weight=30 20 30 20 20
leaf_count=30 20 30 20 20
internal_value=0 -0.00171608 -0.00806557 0.00423362
internal_weight=0 100 50 50
internal_count=120 100 50 50
is_linear=0
shrinkage=0.1


Tree=144
num_leaves=4
num_cat=0
split_feature=1 0 0
split_gain=0.133761 0.353079 0.255816
threshold=-0.05812330196366295 0.6129394166695048 -0.78344063250354712
decision_type=2 2 2
left_child=2 -2 -1
right_child=1 -3 -4
leaf_value=0.0027013293337848879 -0.0043718143985492066 0.011066872089569857 -0.0096966882737246074
leaf_weight=31 27 30 32
leaf_count=31 27 30 32
internal_value=0 0.00340322 -0.00327891
internal_weight=0 57 63
internal_count=120 57 63
is_linear=0
shrinkage=0.1


Tree=145
num_leaves=6
num_cat=0
split_feature=0 2 0 3 2
split_gain=0.115163 0.278823 0.082047 0.0749064 0.00387744
threshold=0.94132055932019709 0.020555974315609109 -0.80710949877455762 -0.25379085074601521 0.016928639327879951
decision_type=2 2 2 2 2
left_child=1 3 -3 -1 -2
right_child=4 2 -4 -5 -6
leaf_value=-0.007837970468051075 -0.0016938289182837443 0.0023219590632804067 0.012983189586161735 0 -0.0062515412091136259
leaf_weight=20 20 20 20 20 20
leaf_count=20 20 20 20 20 20
internal_value=0 0.0020951 0.00815347 -0.00346359 -0.00447312
internal_weight=0 80 40 40 40
internal_count=120 80 40 40 40
is_linear=0
shrinkage=0.1


Tree=146
num_leaves=4
num_cat=0
split_feature=1 0 0
split_gain=0.116184 0.217384 0.466688
threshold=-0.14849707365363776 -0.87810887489592215 1.0000000180025095e-35
decision_type=2 2 2
left_child=-1 -2 -3
right_child=1 2 -4
leaf_value=-0.0063064649136233804 0.009172510027394342 -0.014339367245710125 0.0036765617514104214
leaf_weight=24 27 20 49
leaf_count=24 27 20 49
internal_value=0 0.00146882 -0.00125627
internal_weight=0 96 69
internal_count=120 96 69
is_linear=0
shrinkage=0.1


Tree=147
num_leaves=5
num_cat=0
split_feature=0 0 1 2
split_gain=0.109275 0.232363 0.242392 0.00127777
threshold=0.94132055932019709 -0.79231374870819959 -0.12180797834743749 0.016928639327879951
decision_type=2 2 2 2
left_child=1 2 -1 -2
right_child=3 -3 -4 -5
leaf_value=-0.010183970516840637 -0.0017423443812797799 0.0093160473636112792 0.0036038289238012667 -0.0059442052110690721
leaf_weight=21 20 29 30 20
leaf_count=21 20 29 30 20
internal_value=0 0.00205525 -0.00168182 -0.00434369
internal_weight=0 80 51 40
internal_count=120 80 51 40
is_linear=0
shrinkage=0.1


Tree=148
num_leaves=5
num_cat=0
split_feature=2 0 3 0
split_gain=0.100404 0.298915 0.240623 0.189149
threshold=1.0000000180025095e-35 -0.78344063250354712 -0.22541815314257671 -0.91065446885501999
decision_type=2 2 2 2
left_child=-1 3 -3 -2
right_child=1 2 -4 -5
leaf_value=-0.0063635144831417183 0 0.0010601959562834692 -0.012214634516289222 0.014164865815999751
leaf_weight=21 21 36 20 22
leaf_count=21 21 36 20 22
internal_value=0 0.00124497 -0.00332437 0.00766049
internal_weight=0 99 56 43
internal_count=120 99 56 43
is_linear=0
shrinkage=0.1


Tree=149
num_leaves=5
num_cat=0
split_feature=0 3 0 1
split_gain=0.112398 0.174001 0.090657 0.0619785
threshold=0.6129394166695048 -0.23960450092682301 -0.91065446885501999 -0.012306908254115399
decision_type=2 2 2 2
left_child=1 2 -1 -2
right_child=3 -3 -4 -5
leaf_value=-0.00070003861870073848 0 0.0030508836746030257 -0.011146036684966507 0.0079421460650855695
leaf_weight=20 29 28 23 20
leaf_count=20 29 28 23 20
internal_value=0 -0.00260515 -0.00675314 0.00361973
internal_weight=0 71 43 49
internal_count=120 71 43 49
is_linear=0
shrinkage=0.1


Tree=150
num_leaves=5
num_cat=0
split_feature=0 1 0 2
split_gain=0.0922597 0.171786 0.853248 0.0590684
threshold=0.6129394166695048 -0.14333423005147303 -0.87810887489592215 0.017567655721775956
decision_type=2 2 2 2
left_child=1 -1 -3 -2
right_child=3 2 -4 -5
leaf_value=0.0042702542290810504 0 0.0057385253199440456 -0.020629535824690209 0.0067013390131340916
leaf_weight=23 24 26 22 25
leaf_count=23 24 26 22 25
internal_value=0 -0.0023447 -0.0059311 0.00329559
internal_weight=0 71 48 49
internal_count=120 71 48 49
is_linear=0
shrinkage=0.1


Tree=151
num_leaves=5
num_cat=0
split_feature=0 0 1 2
split_gain=0.106573 0.244529 0.216941 0.00578327
threshold=0.94132055932019709 -0.79231374870819959 -0.12180797834743749 0.016928639327879951
decision_type=2 2 2 2
left_child=1 2 -1 -2
right_child=3 -3 -4 -5
leaf_value=-0.009790059913528857 -0.001394930339640184 0.0095444549083561377 0.0032215412148057058 -0.0060509174365724408
leaf_weight=21 20 29 30 20
leaf_count=21 20 29 30 20
internal_value=0 0.00209811 -0.00174449 -0.00422333
internal_weight=0 80 51 40
internal_count=120 80 51 40
is_linear=0
shrinkage=0.1


Tree=152
num_leaves=4
num_cat=0
split_feature=2 3 3
split_gain=0.0928074 0.201631 0.259961
threshold=0.035824097460215913 -0.23960450092682301 -0.26797803285862831
decision_type=2 2 2
left_child=1 2 -1
right_child=-2 -3 -4
leaf_value=0.0024958340232986284 -0.0062422665304852805 0.0072004825512012455 -0.010624257838355539
leaf_weight=40 20 37 23
leaf_count=40 20 37 23
internal_value=0 0.00121883 -0.00197707
internal_weight=0 100 63
internal_count=120 100 63
is_linear=0
shrinkage=0.1


Tree=153
num_leaves=4
num_cat=0
split_feature=2 3 0
split_gain=0.0949146 0.208423 0.294513
threshold=0.011016372010600045 -0.23960450092682301 0.6129394166695048
decision_type=2 2 2
left_child=-1 2 -2
right_child=1 -3 -4
leaf_value=-0.0052412894265262367 -0.0083853241268964703 0.0075720802628237438 0.0059559768226041922
leaf_weight=27 33 36 24
leaf_count=27 33 36 24
internal_value=0 0.00149291 -0.00199604
internal_weight=0 93 57
internal_count=120 93 57
is_linear=0
shrinkage=0.1


Tree=154
num_leaves=5
num_cat=0
split_feature=0 3 0 2
split_gain=0.103698 0.232892 0.299349 0.00708084
threshold=0.94132055932019709 -0.19704545757408701 -0.80710949877455762 0.016928639327879951
decision_type=2 2 2 2
left_child=1 2 -1 -2
right_child=3 -3 -4 -5
leaf_value=-0.00057967791016887301 -0.0012897108512739933 -0.0060238720202635126 0.013355028461385572 -0.0060636294537573738
leaf_weight=30 20 23 27 20
leaf_count=30 20 23 27 20
internal_value=0 0.00205837 0.00567072 -0.00417707
internal_weight=0 80 57 40
internal_count=120 80 57 40
is_linear=0
shrinkage=0.1


Tree=155
num_leaves=5
num_cat=0
split_feature=1 0 0 0
split_gain=0.0892593 0.315724 0.251968 0.200704
threshold=0.014648207857310804 -0.78344063250354712 1.2046249599864332 -0.889946919377261
decision_type=2 2 2 2
left_child=1 3 -3 -1
right_child=-2 2 -4 -5
leaf_value=-0.00046617149781523259 0.0060275302717117223 -0.012907892726318296 0.00072178965626702079 0.011901387592400052
leaf_weight=30 20 30 20 20
leaf_count=30 20 30 20 20
internal_value=0 -0.00128756 -0.00705653 0.00408159
internal_weight=0 100 50 50
internal_count=120 100 50 50
is_linear=0
shrinkage=0.1


Tree=156
num_leaves=4
num_cat=0
split_feature=1 2 1
split_gain=0.095489 0.237154 0.796942
threshold=-0.14849707365363776 0.023783826509029254 -0.039684574813076544
decision_type=2 2 2
left_child=-1 2 -2
right_child=1 -3 -4
leaf_value=-0.0056850652815066049 0.016716202755242833 -0.0055327566568552731 -0.0051649281398500439
leaf_weight=24 31 31 34
leaf_count=24 31 31 34
internal_value=0 0.00136565 0.0049635
internal_weight=0 96 65
internal_count=120 96 65
is_linear=0
shrinkage=0.1


Tree=157
num_leaves=5
num_cat=0
split_feature=1 0 0 0
split_gain=0.0870763 0.268619 0.210859 0.158509
threshold=0.014648207857310804 -0.78344063250354712 1.2046249599864332 -0.889946919377261
decision_type=2 2 2 2
left_child=1 3 -3 -1
right_child=-2 2 -4 -5
leaf_value=-0.00031702996280812221 0.0059468077281077973 -0.011954366397239867 0.00041549879255905 0.010602395159397921
leaf_weight=30 20 30 20 20
leaf_count=30 20 30 20 20
internal_value=0 -0.00127784 -0.00660691 0.0036514
internal_weight=0 100 50 50
internal_count=120 100 50 50
is_linear=0
shrinkage=0.1


Tree=158
num_leaves=4
num_cat=0
split_feature=2 3 2
split_gain=0.0936406 0.195782 0.323203
threshold=0.011016372010600045 -0.23960450092682301 0.020555974315609109
decision_type=2 2 2
left_child=-1 2 -2
right_child=1 -3 -4
leaf_value=-0.0052325516757071632 -0.010101030305665282 0.0073504481308326198 0.0047822319066756934
leaf_weight=27 27 36 30
leaf_count=27 27 36 30
internal_value=0 0.00145546 -0.00191716
internal_weight=0 93 57
internal_count=120 93 57
is_linear=0
shrinkage=0.1


Tree=159
num_leaves=4
num_cat=0
split_feature=0 0 2
split_gain=0.0981974 0.171562 0.0503935
threshold=0.6129394166695048 -0.87810887489592215 0.017567655721775956
decision_type=2 2 2
left_child=1 -1 -2
right_child=2 -3 -4
leaf_value=0.0021317944804879873 0 -0.0074018054578281027 0.0065410574855291476
leaf_weight=35 24 36 25
leaf_count=35 24 36 25
internal_value=0 -0.00242065 0.00339825
internal_weight=0 71 49
internal_count=120 71 49
is_linear=0
shrinkage=0.1


Tree=160
num_leaves=5
num_cat=0
split_feature=0 0 1 2
split_gain=0.0846257 0.227253 0.170461 0.00672228
threshold=0.94132055932019709 -0.79231374870819959 -0.12180797834743749 0.016928639327879951
decision_type=2 2 2 2
left_child=1 2 -1 -2
right_child=3 -3 -4 -5
leaf_value=-0.008975467770773864 -0.00099394841585657479 0.0090495710551913421 0.0024861303614997221 -0.0055576189016326022
leaf_weight=21 20 29 30 20
leaf_count=21 20 29 30 20
internal_value=0 0.00185675 -0.00184165 -0.00377613
internal_weight=0 80 51 40
internal_count=120 80 51 40
is_linear=0
shrinkage=0.1


Tree=161
num_leaves=5
num_cat=0
split_feature=0 1 0 1
split_gain=0.0848974 0.177196 0.757785 0.0529704
threshold=0.6129394166695048 -0.14333423005147303 -0.87810887489592215 -0.012306908254115399
decision_type=2 2 2 2
left_child=1 -1 -3 -2
right_child=3 2 -4 -5
leaf_value=0.0044926727379671627 0 0.0050633562689099505 -0.019742279940870466 0.0071434350507378107
leaf_weight=23 29 26 22 20
leaf_count=23 29 26 22 20
internal_value=0 -0.00224495 -0.00589014 0.00316574
internal_weight=0 71 48 49
internal_count=120 71 48 49
is_linear=0
shrinkage=0.1


Tree=162
num_leaves=5
num_cat=0
split_feature=0 0 1 2
split_gain=0.085814 0.218696 0.155276 0.0027896
threshold=0.94132055932019709 -0.79231374870819959 -0.12180797834743749 0.016928639327879951
decision_type=2 2 2 2
left_child=1 2 -1 -2
right_child=3 -3 -4 -5
leaf_value=-0.0085381629037249804 -0.0012159522169382982 0.0089554889289762737 0.0023926806888656211 -0.0053233701034624331
leaf_weight=21 20 29 30 20
leaf_count=21 20 29 30 20
internal_value=0 0.00190241 -0.00171653 -0.00377001
internal_weight=0 80 51 40
internal_count=120 80 51 40
is_linear=0
shrinkage=0.1


Tree=163
num_leaves=4
num_cat=0
split_feature=2 1 2
split_gain=0.0875345 0.312007 0.39109
threshold=0.025948992038786509 -0.039684574813076544 0.014683499200762026
decision_type=2 2 2
left_child=1 2 -1
right_child=-2 -3 -4
leaf_value=-0.002823124808347976 -0.004484725974347699 -0.0053952225913498388 0.013989974913280294
leaf_weight=22 32 35 31
leaf_count=22 32 35 31
internal_value=0 0.00162237 0.00663402
internal_weight=0 88 53
internal_count=120 88 53
is_linear=0
shrinkage=0.1


Tree=164
num_leaves=4
num_cat=0
split_feature=1 2 1
split_gain=0.0822619 0.250954 0.235119
threshold=0.014648207857310804 0.025948992038786509 -0.052812564332677094
decision_type=2 2 2
left_child=1 2 -1
right_child=-2 -3 -4
leaf_value=0.0058505599456452036 0.0058140697991682644 -0.0089809303829181675 -0.0065805810190856075
leaf_weight=49 20 30 21
leaf_count=49 20 30 21
internal_value=0 -0.00120985 0.00183532
internal_weight=0 100 70
internal_count=120 100 70
is_linear=0
shrinkage=0.1


Tree=165
num_leaves=4
num_cat=0
split_feature=1 0 1
split_gain=0.0966275 0.271268 0.256728
threshold=-0.05812330196366295 0.6129394166695048 -0.13964648462135607
decision_type=2 2 2
left_child=2 -2 -1
right_child=1 -3 -4
leaf_value=0.0034909101773889597 -0.0038033975076176597 0.009690027912264516 -0.0089985734514057975
leaf_weight=30 27 30 33
leaf_count=30 27 30 33
internal_value=0 0.00294779 -0.00273396
internal_weight=0 57 63
internal_count=120 57 63
is_linear=0
shrinkage=0.1


Tree=166
num_leaves=4
num_cat=0
split_feature=0 0 1
split_gain=0.0962211 0.182634 0.170775
threshold=0.94132055932019709 -0.79231374870819959 -0.12180797834743749
decision_type=2 2 2
left_child=1 2 -1
right_child=-2 -3 -4
leaf_value=-0.0084841180662829623 -0.0040356675697190963 0.0084089514094783293 0.0030648611322072646
leaf_weight=21 40 29 30
leaf_count=21 40 29 30
internal_value=0 0.00197055 -0.00129885
internal_weight=0 80 51
internal_count=120 80 51
is_linear=0
shrinkage=0.1


Tree=167
num_leaves=4
num_cat=0
split_feature=0 3 0
split_gain=0.0779411 0.177801 0.250754
threshold=0.94132055932019709 -0.19704545757408701 -0.80119047639628682
decision_type=2 2 2
left_child=1 2 -1
right_child=-2 -3 -4
leaf_value=0 -0.0036321510993239433 -0.0052370900554200728 0.013323503220739542
leaf_weight=35 40 23 22
leaf_count=35 40 23 22
internal_value=0 0.00177351 0.00495341
internal_weight=0 80 57
internal_count=120 80 57
is_linear=0
shrinkage=0.1


Tree=168
num_leaves=4
num_cat=0
split_feature=1 0 1
split_gain=0.0784004 0.244927 0.233503
threshold=-0.05812330196366295 0.6129394166695048 -0.13964648462135607
decision_type=2 2 2
left_child=2 -2 -1
right_child=1 -3 -4
leaf_value=0.0034394097430490295 -0.0037627957955794615 0.0090597760325852993 -0.008470709243620856
leaf_weight=30 27 30 33
leaf_count=30 27 30 33
internal_value=0 0.00263528 -0.00248197
internal_weight=0 57 63
internal_count=120 57 63
is_linear=0
shrinkage=0.1


Tree=169
num_leaves=4
num_cat=0
split_feature=1 2 1
split_gain=0.0869255 0.202814 0.704336
threshold=-0.14849707365363776 0.023783826509029254 -0.039684574813076544
decision_type=2 2 2
left_child=-1 2 -2
right_child=1 -3 -4
leaf_value=-0.0054275569950409473 0.01569640832606068 -0.0050545905654689159 -0.0048580416589821991
leaf_weight=24 31 31 34
leaf_count=24 31 31 34
internal_value=0 0.00129943 0.00463763
internal_weight=0 96 65
internal_count=120 96 65
is_linear=0
shrinkage=0.1


Tree=170
num_leaves=5
num_cat=0
split_feature=0 3 1 1
split_gain=0.081799 0.251591 0.409426 0.160044
threshold=-0.78344063250354712 -0.22541815314257671 -0.045791444653767215 -0.099426050780972428
decision_type=2 2 2 2
left_child=3 2 -2 -1
right_child=1 -3 -4 -5
leaf_value=0.0082257582079915143 0.01204055598614415 -0.011003815481336811 -0.0072946351548875635 -0.0022532518985674973
leaf_weight=28 21 23 22 26
leaf_count=28 21 23 22 26
internal_value=0 -0.00243541 0.00168337 0.00281023
internal_weight=0 66 43 54
internal_count=120 66 43 54
is_linear=0
shrinkage=0.1


Tree=171
num_leaves=4
num_cat=0
split_feature=1 0 1
split_gain=0.109806 0.218743 0.204282
threshold=-0.05812330196366295 0.6129394166695048 -0.13964648462135607
decision_type=2 2 2
left_child=2 -2 -1
right_child=1 -3 -4
leaf_value=0.0025093240008177788 -0.0028858109852556027 0.0091434781655478012 -0.0085379696548337214
leaf_weight=30 27 30 33
leaf_count=30 27 30 33
internal_value=0 0.00309479 -0.00296014
internal_weight=0 57 63
internal_count=120 57 63
is_linear=0
shrinkage=0.1


Tree=172
num_leaves=4
num_cat=0
split_feature=1 0 1
split_gain=0.0977611 0.200663 0.172439
threshold=-0.14849707365363776 -0.80414818170610347 -0.0031509258737685481
decision_type=2 2 2
left_child=-1 -2 -3
right_child=1 2 -4
leaf_value=-0.0057814460254738522 0.0076424193991258584 -0.0056556976605293199 0.0053683891101006841
leaf_weight=24 34 42 20
leaf_count=24 34 42 20
internal_value=0 0.00135105 -0.00177684
internal_weight=0 96 62
internal_count=120 96 62
is_linear=0
shrinkage=0.1


Tree=173
num_leaves=4
num_cat=0
split_feature=1 0 2
split_gain=0.0791904 0.162342 0.066167
threshold=-0.14849707365363776 0.94132055932019709 0.016928639327879951
decision_type=2 2 2
left_child=-1 2 -2
right_child=1 -3 -4
leaf_value=-0.0052034215715695761 0.0086434001370838381 -0.00379720104527447 0.0010664318863144431
leaf_weight=24 25 36 35
leaf_count=24 25 36 35
internal_value=0 0.00121598 0.00455726
internal_weight=0 96 60
internal_count=120 96 60
is_linear=0
shrinkage=0.1


Tree=174
num_leaves=4
num_cat=0
split_feature=2 3 2
split_gain=0.0794087 0.201943 0.299177
threshold=0.011016372010600045 -0.23960450092682301 0.020555974315609109
decision_type=2 2 2
left_child=-1 2 -2
right_child=1 -3 -4
leaf_value=-0.0048336100238127932 -0.0099798772078668919 0.007318743049721803 0.0043051597342414084
leaf_weight=27 27 36 30
leaf_count=27 27 36 30
internal_value=0 0.00132446 -0.00211087
internal_weight=0 93 57
internal_count=120 93 57
is_linear=0
shrinkage=0.1


Tree=175
num_leaves=5
num_cat=0
split_feature=0 2 0 0
split_gain=0.0791202 0.21129 0.191227 0.0705364
threshold=1.0000000180025095e-35 0.016712903011253111 -0.80414818170610347 -0.95207317901877042
decision_type=2 2 2 2
left_child=2 -2 3 -1
right_child=1 -3 -4 -5
leaf_value=-0.0022686203584918055 -0.0046660465408759969 0.0079807911907393107 -0.0098301940543953168 0.0054253928432733307
leaf_weight=22 20 33 23 22
leaf_count=22 20 33 23 22
internal_value=0 0.00283109 -0.00233832 0.00112407
internal_weight=0 53 67 44
internal_count=120 53 67 44
is_linear=0
shrinkage=0.1


Tree=176
num_leaves=5
num_cat=0
split_feature=0 2 1 1
split_gain=0.063078 0.172163 0.166102 0.275675
threshold=1.0000000180025095e-35 0.016712903011253111 -0.14333423005147303 -0.045791444653767215
decision_type=2 2 2 2
left_child=2 -2 -1 -4
right_child=1 -3 3 -5
leaf_value=0.0042935928114858106 -0.0041995592093175731 0.0071828326222654259 -0.013911945971989803 0.0011971821520503775
leaf_weight=23 20 33 22 22
leaf_count=23 20 33 22 22
internal_value=0 0.00251028 -0.00210453 -0.00590361
internal_weight=0 53 67 44
internal_count=120 53 67 44
is_linear=0
shrinkage=0.1


Tree=177
num_leaves=6
num_cat=0
split_feature=0 2 2 2 0
split_gain=0.0716493 0.170792 0.0349359 0.0295454 0.0295256
threshold=0.94132055932019709 0.020555974315609109 0.013237324662261447 0.016928639327879951 -0.80710949877455762
decision_type=2 2 2 2 2
left_child=1 2 -1 -2 -3
right_child=3 4 -4 -5 -6
leaf_value=0 0 0.0022687665546455853 -0.0055539243535916829 -0.0062639076412617945 0.0096411805146487187
leaf_weight=20 20 20 20 20 20
leaf_count=20 20 20 20 20 20
internal_value=0 0.00168451 -0.00258691 -0.0034979 0.00645566
internal_weight=0 80 40 40 40
internal_count=120 80 40 40 40
is_linear=0
shrinkage=0.1


Tree=178
num_leaves=4
num_cat=0
split_feature=2 1 2
split_gain=0.0787314 0.26672 0.305747
threshold=0.025948992038786509 -0.039684574813076544 0.014683499200762026
decision_type=2 2 2
left_child=1 2 -1
right_child=-2 -3 -4
leaf_value=-0.0021105560117947787 -0.0042911932964172983 -0.0049647442745945417 0.012650377991948854
leaf_weight=22 32 35 31
leaf_count=22 32 35 31
internal_value=0 0.00149982 0.00614625
internal_weight=0 88 53
internal_count=120 88 53
is_linear=0
shrinkage=0.1


Tree=179
num_leaves=4
num_cat=0
split_feature=1 2 0
split_gain=0.0675271 0.236573 0.203509
threshold=-0.05812330196366295 0.016928639327879951 0.6129394166695048
decision_type=2 2 2
left_child=1 -1 -2
right_child=2 -3 -4
leaf_value=0.0042789596867680536 -0.0033654306075985604 -0.0078397680820483095 0.0082915561077217727
leaf_weight=27 27 36 30
leaf_count=27 27 36 30
internal_value=0 -0.00232867 0.00241917
internal_weight=0 63 57
internal_count=120 63 57
is_linear=0
shrinkage=0.1


Tree=180
num_leaves=6
num_cat=0
split_feature=0 2 2 1 2
split_gain=0.0781207 0.161396 0.0362552 0.0330396 0.0191608
threshold=0.94132055932019709 0.020555974315609109 0.013237324662261447 -0.077151684171449603 0.016928639327879951
decision_type=2 2 2 2 2
left_child=1 2 -1 -3 -2
right_child=4 3 -4 -5 -6
leaf_value=0 -0.00030689090080661673 0.0020804322084704806 -0.0054436594106292355 0.0096657980076076695 -0.0060383423169391879
leaf_weight=20 20 20 20 20 20
leaf_count=20 20 20 20 20 20
internal_value=0 0.00173746 -0.00239915 0.00637379 -0.00367295
internal_weight=0 80 40 40 40
internal_count=120 80 40 40 40
is_linear=0
shrinkage=0.1


Tree=181
num_leaves=4
num_cat=0
split_feature=2 1 2
split_gain=0.0681592 0.236108 0.277562
threshold=0.025948992038786509 -0.039684574813076544 0.014683499200762026
decision_type=2 2 2
left_child=1 2 -1
right_child=-2 -3 -4
leaf_value=-0.0020824632683793839 -0.0040157185022094586 -0.0046944775169945685 0.011960403717077465
leaf_weight=22 32 35 31
leaf_count=22 32 35 31
internal_value=0 0.00137126 0.00575432
internal_weight=0 88 53
internal_count=120 88 53
is_linear=0
shrinkage=0.1


Tree=182
num_leaves=4
num_cat=0
split_feature=1 2 0
split_gain=0.0720809 0.210095 0.17861
threshold=-0.05812330196366295 0.016928639327879951 0.6129394166695048
decision_type=2 2 2
left_child=1 -1 -2
right_child=2 -3 -4
leaf_value=0.0037628326346379397 -0.0028886429926180839 -0.0076153943595282311 0.0079828145234182753
leaf_weight=27 27 36 30
leaf_count=27 27 36 30
