tree
version=v4
num_class=1
num_tree_per_iteration=1
label_index=0
max_feature_idx=4
objective=regression
feature_names=Column_0 Column_1 Column_2 Column_3 Column_4
feature_infos=[-1.0437819104972128:2.5181657829526647] [-3.0380079155407738:3.6492017534044781] [-3.0648813773721169:3.5317780050592837] [-0.30202610471811175:5.6343414659628861] [-1.4564493506254039:6.0255426690111831]
tree_sizes=567 540 541 477 567 473 478 562 563 475 561 563 552 562 563 477 558 481 555 564 560 563 478 479 560 562 562 482 479 479 562 564 562 484 479 478 482 482 483 480 565 564 563 486 478 480 482 543 481 565 482 485 566 547 481 564 568 484 482 461 566 565 483 483 565 462 485 479 568 573 481 564 483 480 546 566 480 571 568 480 548 568 484 546 568 482 570 565 565 484 567 566 571 481 548 569 481 482 550 568 568 569 486 480 574 485 481 484 484 570 564 485 568 573 569 575 486 566 572 567 486 570 571 482 572 574 482 574 568 487 481 487 570 485 482 485 484 486 484 572 572 568 572 487 570 486 569 483 488 488 485 573 489 487 568 573 488 569 487 567 486 569 574 489 573 551 579 485 485 484 487 487 484 487 569 484 487 487 570 490 575 486 491 486 487 574 571 486 575 578 485 576 486 575 577 484 577 489 490 577 485 490 578 567 489 575 485 490 489 489 491 487 492 488 484 491 489 482 549 577 492 489 490 486 486 493 487 486 577 491 488 550 485 571 493 486 488 486 471 486 470 489 486 494 552 575 486 573 492 491 489 577 491 489 551 532 576 490 489 471 574 492 571 536 535 487 491 488 536 465 489 489 491 488 490 491 535 489 489 490 536 488 555 577 491 492 491 489 486 557 488 553 574 488 536 490 557 489 488 490 490 538 487 490 489 489 574 492 494 486 575 553 488 470 553 489 487 494 577 490 572 574 490 487 493 573 467 579 569 491 491 491 491 490 490 492 534 492 492 490 487 493 492 492 490 574 491 553 558 489 494 488 492 490 557 570 584 490 539 466 492 492 489 537 490 488 471 496 489 490 495 560 578 492 493 494 560 491 576 573 553 535 490 558 577 580 491 486 557 490 491 469 492 490 486 558 488 493 492 491 492 492 488 469 495 491 577 492 488 491 576 574 492 493 491 494 491 494 553 491 490 577 491 491 493 488 494 491 491 493 494 577 579 494 491 491 468 496 489 579 491 493 492 582 491 493 489 555 577 493 470 492 492 578 583 496 579 494 580 490 490 493 492 471 491 579 494 579 494 556 579 582 494 493 488 558 490 492 494 471 493 493 559 472 579 578 580 580 578 578 574 560 495 537 490 492 582 580 471 560

Tree=0
num_leaves=5
num_cat=0
split_feature=1 1 0 0
split_gain=5.99327 7.6128 5.22769 3.56492
threshold=-0.039684574813076544 -0.086582322970508621 -0.78344063250354712 0.6129394166695048
decision_type=2 2 2 2
left_child=1 2 -1 -2
right_child=3 -3 -4 -5
leaf_value=0.024126572912726112 -0.057022068584744137 0.068944929811303513 -0.04085935424591132 -0.0015030444967638961
leaf_weight=30 22 21 21 26
leaf_count=30 22 21 21 26
internal_value=-1.53823e-08 0.0182467 -0.0022416 -0.0273692
internal_weight=0 72 51 48
internal_count=120 72 51 48
is_linear=0
shrinkage=1


Tree=1
num_leaves=5
num_cat=0
split_feature=0 0 4 1
split_gain=5.09497 5.50597 8.15005 1.04185
threshold=-0.91065446885501999 0.94132055932019709 0.058183467815176672 -0.018256278775562015
decision_type=2 2 2 2
left_child=-1 2 -2 -3
right_child=1 3 -4 -5
leaf_value=-0.036513781716054614 0.069842326600643975 0 -0.0098232130619837557 -0.031957280085373456
leaf_weight=29 28 20 23 20
leaf_count=29 28 20 23 20
internal_value=0 0.0116156 0.0335252 -0.0158198
internal_weight=0 91 51 40
internal_count=120 91 51 40
is_linear=0
shrinkage=0.1


Tree=2
num_leaves=5
num_cat=0
split_feature=1 1 4 0
split_gain=4.37852 5.69761 5.17669 2.99119
threshold=-0.039684574813076544 -0.086582322970508621 -0.065339985339199977 0.6129394166695048
decision_type=2 2 2 2
left_child=1 2 -1 -2
right_child=3 -3 -4 -5
leaf_value=-0.042137553377677078 -0.050572401581772675 0.059420460203280769 0.023052199436251031 0
leaf_weight=20 22 21 31 26
leaf_count=20 22 21 31 26
internal_value=0 0.0155531 -0.00212192 -0.0234364
internal_weight=0 72 51 48
internal_count=120 72 51 48
is_linear=0
shrinkage=0.1


Tree=3
num_leaves=4
num_cat=0
split_feature=2 0 4
split_gain=4.25799 4.51968 2.3316
threshold=0.014683499200762026 1.0000000180025095e-35 -0.044752743146804705
decision_type=2 2 2
left_child=-1 2 -2
right_child=1 -3 -4
leaf_value=-0.026686455688950662 -0.03394141634593336 0.038358355506346926 0.012856457726951624
leaf_weight=40 20 38 22
leaf_count=40 20 38 22
internal_value=0 0.0132706 -0.0089535
internal_weight=0 80 42
internal_count=120 80 42
is_linear=0
shrinkage=0.1


Tree=4
num_leaves=5
num_cat=0
split_feature=1 0 1 4
split_gain=3.68538 3.54337 1.93747 0.712719
threshold=-0.024785699063787636 1.0000000180025095e-35 0.014648207857310804 -0.044752743146804705
decision_type=2 2 2 2
left_child=1 3 -2 -1
right_child=2 -3 -4 -5
leaf_value=-0.016516607502757678 -0.044417910780643402 0.041341216993627757 -0.00037654494911886632 0.007332428207016059
leaf_weight=22 22 28 20 28
leaf_count=22 22 28 20 28
internal_value=0 0.0128153 -0.0239245 -0.00276179
internal_weight=0 78 42 50
internal_count=120 78 42 50
is_linear=0
shrinkage=0.1


Tree=5
num_leaves=4
num_cat=0
split_feature=2 0 1
split_gain=3.33644 3.38998 2.84912
threshold=0.014683499200762026 0.6129394166695048 -0.099426050780972428
decision_type=2 2 2
left_child=-1 2 -2
right_child=1 -3 -4
leaf_value=-0.023635750443233117 0.015713135363207117 0.035757228692670617 -0.03427968842182956
leaf_weight=40 26 34 20
leaf_count=40 26 34 20
internal_value=0 0.011734 -0.0055895
internal_weight=0 80 46
internal_count=120 80 46
is_linear=0
shrinkage=0.1


Tree=6
num_leaves=4
num_cat=0
split_feature=4 4 0
split_gain=2.94172 4.04977 8.03874
threshold=0.19935312856303786 -0.11533757352073529 1.0000000180025095e-35
decision_type=2 2 2
left_child=1 2 -1
right_child=-2 -3 -4
leaf_value=-0.044940385679871131 -0.024949663552448622 0.04282569974070672 0.028548741138373301
leaf_weight=27 34 26 33
leaf_count=27 34 26 33
internal_value=0 0.00979383 -0.00418905
internal_weight=0 86 60
internal_count=120 86 60
is_linear=0
shrinkage=0.1


Tree=7
num_leaves=5
num_cat=0
split_feature=1 1 0 1
split_gain=2.74881 2.99617 5.49186 1.4702
threshold=-0.024785699063787636 -0.086582322970508621 -0.78344063250354712 0.014648207857310804
decision_type=2 2 2 2
left_child=1 2 -1 -2
right_child=3 -3 -4 -5
leaf_value=0.024193693828312601 -0.038518360123745946 0.038047663890924795 -0.042402445432884989 -3.1679274662826282e-05
leaf_weight=30 22 27 21 20
leaf_count=30 22 27 21 20
internal_value=0 0.0110601 -0.0028376 -0.0206697
internal_weight=0 78 51 42
internal_count=120 78 51 42
is_linear=0
shrinkage=0.1


Tree=8
num_leaves=5
num_cat=0
split_feature=2 1 1 1
split_gain=2.49906 2.83361 3.14457 0.0127944
threshold=0.014683499200762026 -0.045791444653767215 -0.11883761089345647 -0.045791444653767215
decision_type=2 2 2 2
left_child=3 2 -2 -1
right_child=1 -3 -4 -5
leaf_value=-0.024805663913763994 0.0016172988931021631 -0.013091824123348425 0.053350876431875797 -0.015119096608280808
leaf_weight=20 27 31 22 20
leaf_count=20 27 31 22 20
internal_value=0 0.0101462 0.0252558 -0.0204648
internal_weight=0 80 49 40
internal_count=120 80 49 40
is_linear=0
shrinkage=0.1


Tree=9
num_leaves=4
num_cat=0
split_feature=2 4 0
split_gain=2.17542 2.7387 4.20124
threshold=1.0000000180025095e-35 0.19935312856303786 0.94132055932019709
decision_type=2 2 2
left_child=-1 2 -2
right_child=1 -3 -4
leaf_value=-0.029298451625145897 0.032631827680936587 -0.02140501444671182 -0.018602620917956381
leaf_weight=21 50 26 23
leaf_count=21 50 26 23
internal_value=0 0.00613266 0.0162153
internal_weight=0 99 73
internal_count=120 99 73
is_linear=0
shrinkage=0.1


Tree=10
num_leaves=5
num_cat=0
split_feature=0 0 4 1
split_gain=2.1497 4.06085 5.09765 0.342396
threshold=-0.91065446885501999 0.94132055932019709 0.058183467815176672 -0.018256278775562015
decision_type=2 2 2 2
left_child=-1 2 -2 -3
right_child=1 3 -4 -5
leaf_value=-0.02380173755214042 0.055059933487889262 -0.0055092113170287704 -0.007808728675120967 -0.025652381877576194
leaf_weight=29 28 20 23 20
leaf_count=29 28 20 23 20
internal_value=0 0.00746031 0.0263173 -0.0160827
internal_weight=0 91 51 40
internal_count=120 91 51 40
is_linear=0
shrinkage=0.1


Tree=11
num_leaves=5
num_cat=0
split_feature=0 0 4 1
split_gain=1.7333 3.29378 4.13873 0.271558
threshold=-0.91065446885501999 0.94132055932019709 0.058183467815176672 -0.018256278775562015
decision_type=2 2 2 2
left_child=-1 2 -2 -3
right_child=1 3 -4 -5
leaf_value=-0.021421974665172101 0.049554924798041584 -0.0049584253680196545 -0.0070280263642077088 -0.023087785221492907
leaf_weight=29 28 20 23 20
leaf_count=29 28 20 23 20
internal_value=0 0.00664844 0.0236468 -0.0145248
internal_weight=0 91 51 40
internal_count=120 91 51 40
is_linear=0
shrinkage=0.1


Tree=12
num_leaves=5
num_cat=0
split_feature=0 4 4 0
split_gain=1.62525 3.69308 3.4535 3.22299
threshold=0.6129394166695048 -0.11533757352073529 0.26993795893696598 1.2105367593978342
decision_type=2 2 2 2
left_child=1 -1 -3 -2
right_child=3 2 -4 -5
leaf_value=-0.036635433365118313 0.039147447178636025 0.039340322537888175 -0.01839445195462527 -0.011703374062545895
leaf_weight=30 25 20 21 24
leaf_count=30 25 20 21 24
internal_value=0 -0.009839 0.00928247 0.0138341
internal_weight=0 71 41 49
internal_count=120 71 41 49
is_linear=0
shrinkage=0.1


Tree=13
num_leaves=5
num_cat=0
split_feature=2 0 1 1
split_gain=1.39562 2.35104 1.96739 0.0842809
threshold=0.014683499200762026 0.6129394166695048 -0.099426050780972428 -0.045791444653767215
decision_type=2 2 2 2
left_child=3 2 -2 -1
right_child=1 -3 -4 -5
leaf_value=-0.020939713767158245 0.010630575791388104 0.027511988143555613 -0.03077830324706898 -0.0088966251037860336
leaf_weight=20 26 34 20 20
leaf_count=20 26 34 20 20
internal_value=0 0.00745295 -0.00693994 -0.01542
internal_weight=0 80 46 40
internal_count=120 80 46 40
is_linear=0
shrinkage=0.1


Tree=14
num_leaves=5
num_cat=0
split_feature=0 0 4 1
split_gain=1.35959 3.46968 1.79239 0.210212
threshold=0.94132055932019709 -0.80710949877455762 -0.20650964608705866 -0.018256278775562015
decision_type=2 2 2 2
left_child=1 2 -1 -2
right_child=3 -3 -4 -5
leaf_value=-0.033212753452167315 -0.006501712990653304 0.028863250911274015 0.0080081255279222576 -0.022937593937396885
leaf_weight=21 20 39 20 20
leaf_count=21 20 39 20 20
internal_value=0 0.00735429 -0.0126187 -0.0152214
internal_weight=0 80 41 40
internal_count=120 80 41 40
is_linear=0
shrinkage=0.1


Tree=15
num_leaves=4
num_cat=0
split_feature=4 0 0
split_gain=1.17665 2.41239 4.58158
threshold=0.19935312856303786 0.94132055932019709 -0.80119047639628682
decision_type=2 2 2
left_child=1 2 -1
right_child=-2 -3 -4
leaf_value=-0.0046091356756073325 -0.015915824913519335 -0.017071590826770722 0.052710353978378213
leaf_weight=34 34 29 23
leaf_count=34 34 29 23
internal_value=0 0.00605438 0.0181715
internal_weight=0 86 57
internal_count=120 86 57
is_linear=0
shrinkage=0.1


Tree=16
num_leaves=5
num_cat=0
split_feature=0 4 4 4
split_gain=1.22403 2.88691 2.56332 2.41318
threshold=0.6129394166695048 -0.40355896421428156 -0.11533757352073529 0.26993795893696598
decision_type=2 2 2 2
left_child=2 -2 -1 -4
right_child=1 -3 3 -5
leaf_value=-0.030916093678086867 0.039033573612628325 -0.0093489659205561893 0.032472931006883747 -0.015753440393972497
leaf_weight=30 22 27 20 21
leaf_count=30 22 27 20 21
internal_value=0 0.0119675 -0.0085757 0.00728496
internal_weight=0 49 71 41
internal_count=120 49 71 41
is_linear=0
shrinkage=0.1


Tree=17
num_leaves=4
num_cat=0
split_feature=2 2 3
split_gain=1.06788 2.48853 1.95884
threshold=0.035824097460215913 0.020555974315609109 -0.23960450092682301
decision_type=2 2 2
left_child=1 2 -1
right_child=-2 -3 -4
leaf_value=-0.018734101271870373 -0.021271794952472667 0.028247344423842188 0.015953188690929931
leaf_weight=45 20 30 25
leaf_count=45 20 30 25
internal_value=0 0.00403323 -0.00605983
internal_weight=0 100 70
internal_count=120 100 70
is_linear=0
shrinkage=0.1


Tree=18
num_leaves=5
num_cat=0
split_feature=0 4 4 4
split_gain=1.02909 2.29575 1.9982 1.881
threshold=0.6129394166695048 -0.40355896421428156 -0.11533757352073529 0.26993795893696598
decision_type=2 2 2 2
left_child=2 -2 -1 -4
right_child=1 -3 3 -5
leaf_value=-0.02759197461757908 0.035127131275577025 -0.0079607721711282189 0.028379007805231005 -0.014177297168162802
leaf_weight=30 22 27 20 21
leaf_count=30 22 27 20 21
internal_value=0 0.0109783 -0.00785817 0.00609506
internal_weight=0 49 71 41
internal_count=120 49 71 41
is_linear=0
shrinkage=0.1


Tree=19
num_leaves=5
num_cat=0
split_feature=0 0 4 1
split_gain=1.13893 2.00046 0.99519 0.123483
threshold=0.94132055932019709 -0.80710949877455762 -0.20650964608705866 -0.018256278775562015
decision_type=2 2 2 2
left_child=1 2 -1 -2
right_child=3 -3 -4 -5
leaf_value=-0.023769929866738562 -0.0067630373472215184 0.023072120242050988 0.0068530325955434082 -0.020115662402464315
leaf_weight=21 20 39 20 20
leaf_count=21 20 39 20 20
internal_value=0 0.00672127 -0.00834514 -0.013941
internal_weight=0 80 41 40
internal_count=120 80 41 40
is_linear=0
shrinkage=0.1


Tree=20
num_leaves=5
num_cat=0
split_feature=0 4 4 4
split_gain=0.945022 1.82383 1.35909 1.51633
threshold=0.6129394166695048 -0.40355896421428156 -0.11533757352073529 0.26993795893696598
decision_type=2 2 2 2
left_child=2 -2 -1 -4
right_child=1 -3 3 -5
leaf_value=-0.023807613126166294 0.032038208575471919 -0.0062877994359720434 0.023964856601124913 -0.014294413976961873
leaf_weight=30 22 27 20 21
leaf_count=30 22 27 20 21
internal_value=0 0.0105132 -0.00753728 0.00388155
internal_weight=0 49 71 41
internal_count=120 49 71 41
is_linear=0
shrinkage=0.1


Tree=21
num_leaves=5
num_cat=0
split_feature=0 4 0 1
split_gain=1.08278 2.00778 2.69399 0.0774994
threshold=0.94132055932019709 0.19935312856303786 -0.80119047639628682 -0.018256278775562015
decision_type=2 2 2 2
left_child=1 2 -1 -2
right_child=3 -3 -4 -5
leaf_value=-0.00050918573978945983 -0.007374099815407268 -0.017971257038614467 0.043239127732027982 -0.018817051287979759
leaf_weight=34 20 23 23 20
leaf_count=34 20 23 23 20
internal_value=0 0.00654925 0.016795 -0.0135971
internal_weight=0 80 57 40
internal_count=120 80 57 40
is_linear=0
shrinkage=0.1


Tree=22
num_leaves=4
num_cat=0
split_feature=2 2 3
split_gain=1.00644 2.47344 1.56485
threshold=0.029776068423670508 0.020555974315609109 -0.23960450092682301
decision_type=2 2 2
left_child=1 2 -1
right_child=-2 -3 -4
leaf_value=-0.015995084613631163 -0.01760716409556936 0.032422072263626582 0.015015284658384143
leaf_weight=45 26 24 25
leaf_count=45 26 24 25
internal_value=0 0.00461561 -0.00463398
internal_weight=0 94 70
internal_count=120 94 70
is_linear=0
shrinkage=0.1


Tree=23
num_leaves=4
num_cat=0
split_feature=3 0 0
split_gain=0.938889 1.78584 4.16774
threshold=-0.19704545757408701 0.94132055932019709 -0.80710949877455762
decision_type=2 2 2
left_child=1 2 -1
right_child=-2 -3 -4
leaf_value=-0.0092765430751750311 -0.014537720010531089 -0.014131124834412884 0.044457906882998201
leaf_weight=30 33 30 27
leaf_count=30 33 30 27
internal_value=0 0.00526681 0.0158274
internal_weight=0 87 57
internal_count=120 87 57
is_linear=0
shrinkage=0.1


Tree=24
num_leaves=5
num_cat=0
split_feature=0 4 4 4
split_gain=0.986097 1.33597 1.10662 0.997328
threshold=0.6129394166695048 -0.40355896421428156 -0.11533757352073529 0.26993795893696598
decision_type=2 2 2 2
left_child=2 -2 -1 -4
right_child=1 -3 3 -5
leaf_value=-0.02238991192295723 0.029109806086469365 -0.0035377883236290377 0.018899052925510307 -0.012126024192612786
leaf_weight=30 22 27 20 21
leaf_count=30 22 27 20 21
internal_value=0 0.0107137 -0.00772398 0.00252087
internal_weight=0 49 71 41
internal_count=120 49 71 41
is_linear=0
shrinkage=0.1


Tree=25
num_leaves=5
num_cat=0
split_feature=1 1 0 0
split_gain=0.83502 1.34999 1.02989 0.621696
threshold=-0.14849707365363776 -0.039684574813076544 1.0000000180025095e-35 0.6129394166695048
decision_type=2 2 2 2
left_child=-1 2 -2 -3
right_child=1 3 -4 -5
leaf_value=-0.016869419739907347 0.0022460619355656225 -0.02007214727133709 0.032662282087098586 0.0021857718130048253
leaf_weight=24 27 22 21 26
leaf_count=24 27 22 21 26
internal_value=0 0.0039777 0.0159718 -0.00760018
internal_weight=0 96 48 48
internal_count=120 96 48 48
is_linear=0
shrinkage=0.1


Tree=26
num_leaves=5
num_cat=0
split_feature=0 3 0 2
split_gain=0.929493 1.63001 3.08265 0.0196345
threshold=0.94132055932019709 -0.19704545757408701 -0.80710949877455762 0.016928639327879951
decision_type=2 2 2 2
left_child=1 2 -1 -2
right_child=3 -3 -4 -5
leaf_value=-0.0061748485749631189 -0.0079425006147713344 -0.015981555701604071 0.039927076640073472 -0.016254567945042243
leaf_weight=30 20 23 27 20
leaf_count=30 20 23 27 20
internal_value=0 0.00606585 0.0153136 -0.0126
internal_weight=0 80 57 40
internal_count=120 80 57 40
is_linear=0
shrinkage=0.1


Tree=27
num_leaves=4
num_cat=0
split_feature=2 2 3
split_gain=0.887564 1.46346 1.39886
threshold=0.035824097460215913 0.020555974315609109 -0.23960450092682301
decision_type=2 2 2
left_child=1 2 -1
right_child=-2 -3 -4
leaf_value=-0.014783163559415608 -0.019414024928925008 0.022236666943982849 0.014540775102445695
leaf_weight=45 20 30 25
leaf_count=45 20 30 25
internal_value=0 0.00365469 -0.00402434
internal_weight=0 100 70
internal_count=120 100 70
is_linear=0
shrinkage=0.1


Tree=28
num_leaves=4
num_cat=0
split_feature=2 2 3
split_gain=0.751794 1.6827 1.13456
threshold=0.029776068423670508 0.020555974315609109 -0.23960450092682301
decision_type=2 2 2
left_child=1 2 -1
right_child=-2 -3 -4
leaf_value=-0.013305010969155949 -0.015216426528135049 0.026938340657888617 0.013086988495123124
leaf_weight=45 26 24 25
leaf_count=45 26 24 25
internal_value=0 0.00399025 -0.00359334
internal_weight=0 94 70
internal_count=120 94 70
is_linear=0
shrinkage=0.1


Tree=29
num_leaves=4
num_cat=0
split_feature=3 0 0
split_gain=0.819043 1.34373 2.63237
threshold=-0.19704545757408701 0.94132055932019709 -0.80710949877455762
decision_type=2 2 2
left_child=1 2 -1
right_child=-2 -3 -4
leaf_value=-0.0057034940876152362 -0.013565127840673374 -0.011837457612571548 0.036863501966716943
leaf_weight=30 33 30 27
leaf_count=30 33 30 27
internal_value=0 0.00493285 0.0141104
internal_weight=0 87 57
internal_count=120 87 57
is_linear=0
shrinkage=0.1


Tree=30
num_leaves=5
num_cat=0
split_feature=0 0 4 4
split_gain=0.865283 0.999403 0.965897 0.91368
threshold=0.6129394166695048 -0.80414818170610347 -0.40355896421428156 -0.20650964608705866
decision_type=2 2 2 2
left_child=1 3 -2 -1
right_child=2 -3 -4 -5
leaf_value=-0.012913136709533797 0.025672387227609034 -0.022425446570349988 -0.0019472760376478212 0.015815120398467119
leaf_weight=21 22 27 27 23
leaf_count=21 22 27 27 23
internal_value=0 -0.00722502 0.0100466 0.0016495
internal_weight=0 71 49 44
internal_count=120 71 49 44
is_linear=0
shrinkage=0.1


Tree=31
num_leaves=5
num_cat=0
split_feature=0 2 0 4
split_gain=0.697304 0.949617 0.808965 0.740703
threshold=0.6129394166695048 0.019309541174264051 -0.80414818170610347 -0.20650964608705866
decision_type=2 2 2 2
left_child=2 -2 3 -1
right_child=1 -3 -4 -5
leaf_value=-0.011622130463129919 -0.0029109606732816264 0.024527313979585939 -0.02018331792747019 0.014233952565080211
leaf_weight=21 27 22 27 23
leaf_count=21 27 22 27 23
internal_value=0 0.00900139 -0.00650266 0.00143914
internal_weight=0 49 71 44
internal_count=120 49 71 44
is_linear=0
shrinkage=0.1


Tree=32
num_leaves=5
num_cat=0
split_feature=0 4 0 2
split_gain=0.750088 1.62995 1.27788 0.0515273
threshold=0.94132055932019709 0.19935312856303786 -0.79231374870819959 0.016928639327879951
decision_type=2 2 2 2
left_child=1 2 -1 -2
right_child=3 -3 -4 -5
leaf_value=0.003065317499727804 -0.0059495729624003488 -0.016647037702445182 0.035140949319345124 -0.015745354708776686
leaf_weight=37 20 23 20 20
leaf_count=37 20 23 20 20
internal_value=0 0.00541793 0.0146729 -0.0113488
internal_weight=0 80 57 40
internal_count=120 80 57 40
is_linear=0
shrinkage=0.1


Tree=33
num_leaves=4
num_cat=0
split_feature=2 2 4
split_gain=0.754628 0.837132 1.03893
threshold=0.035824097460215913 0.020555974315609109 -0.11533757352073529
decision_type=2 2 2
left_child=1 2 -1
right_child=-2 -3 -4
leaf_value=-0.015486945859933238 -0.017896248212503629 0.017433140832242362 0.0087985078348789391
leaf_weight=33 20 30 37
leaf_count=33 20 30 37
internal_value=0 0.00337507 -0.00236494
internal_weight=0 100 70
internal_count=120 100 70
is_linear=0
shrinkage=0.1


Tree=34
num_leaves=4
num_cat=0
split_feature=2 2 3
split_gain=0.661673 1.02334 1.02635
threshold=0.029776068423670508 0.020555974315609109 -0.23960450092682301
decision_type=2 2 2
left_child=1 2 -1
right_child=-2 -3 -4
leaf_value=-0.011370994571963491 -0.01426824429848691 0.021645728240697069 0.013787091241684278
leaf_weight=45 26 24 25
leaf_count=45 26 24 25
internal_value=0 0.00375087 -0.00209993
internal_weight=0 94 70
internal_count=120 94 70
is_linear=0
shrinkage=0.1


Tree=35
num_leaves=4
num_cat=0
split_feature=3 0 0
split_gain=0.726627 1.08293 2.26439
threshold=-0.19704545757408701 0.94132055932019709 -0.80710949877455762
decision_type=2 2 2
left_child=1 2 -1
right_child=-2 -3 -4
leaf_value=-0.0054326877308336829 -0.01276995232287857 -0.010358128413915575 0.034018877744012542
leaf_weight=30 33 30 27
leaf_count=30 33 30 27
internal_value=0 0.00465348 0.0129054
internal_weight=0 87 57
internal_count=120 87 57
is_linear=0
shrinkage=0.1


Tree=36
num_leaves=4
num_cat=0
split_feature=0 0 3
split_gain=0.732866 0.911149 0.869887
threshold=0.6129394166695048 -0.87810887489592215 -0.25379085074601521
decision_type=2 2 2
left_child=1 -1 -2
right_child=2 -3 -4
leaf_value=0.0043861992937634783 0.020938825118642285 -0.017931185750692455 -0.0053916667512458613
leaf_weight=35 28 36 21
leaf_count=35 28 36 21
internal_value=0 -0.00664845 0.00924681
internal_weight=0 71 49
internal_count=120 71 49
is_linear=0
shrinkage=0.1


Tree=37
num_leaves=4
num_cat=0
split_feature=1 4 1
split_gain=0.591184 0.920057 1.77306
threshold=-0.14849707365363776 0.28464313193153723 -0.039684574813076544
decision_type=2 2 2
left_child=-1 2 -2
right_child=1 -3 -4
leaf_value=-0.014175283138490275 0.025371124077449445 -0.013731657699239536 -0.0054987766899422356
leaf_weight=24 35 23 38
leaf_count=24 35 23 38
internal_value=0 0.00336689 0.00902863
internal_weight=0 96 73
internal_count=120 96 73
is_linear=0
shrinkage=0.1


Tree=38
num_leaves=4
num_cat=0
split_feature=2 3 4
split_gain=0.590902 0.651703 0.850339
threshold=0.035824097460215913 -0.23960450092682301 -0.065339985339199977
decision_type=2 2 2
left_child=1 2 -1
right_child=-2 -3 -4
leaf_value=-0.014618858263124094 -0.015845845415499233 0.013609570846713574 0.00844738543765171
leaf_weight=32 20 37 31
leaf_count=32 20 37 31
internal_value=0 0.00297642 -0.0029516
internal_weight=0 100 63
internal_count=120 100 63
is_linear=0
shrinkage=0.1


Tree=39
num_leaves=4
num_cat=0
split_feature=3 0 0
split_gain=0.618808 0.997411 1.92049
threshold=-0.19704545757408701 0.94132055932019709 -0.80710949877455762
decision_type=2 2 2
left_child=1 2 -1
right_child=-2 -3 -4
leaf_value=-0.0046315595484032199 -0.011801421656976629 -0.010120685047963087 0.031651079974733362
leaf_weight=30 33 30 27
leaf_count=30 33 30 27
internal_value=0 0.00427672 0.0122054
internal_weight=0 87 57
internal_count=120 87 57
is_linear=0
shrinkage=0.1


Tree=40
num_leaves=5
num_cat=0
split_feature=0 0 3 4
split_gain=0.679036 0.962338 0.747451 0.479869
threshold=0.6129394166695048 -0.80414818170610347 -0.25379085074601521 -0.20650964608705866
decision_type=2 2 2 2
left_child=1 3 -2 -1
right_child=2 -3 -4 -5
leaf_value=-0.0080558928655284461 0.019727757753639049 -0.021349534064040235 -0.004613108238193343 0.012628323298333858
leaf_weight=21 28 27 21 23
leaf_count=21 28 27 21 23
internal_value=0 -0.00641143 0.00888843 0.00230202
internal_weight=0 71 49 44
internal_count=120 71 49 44
is_linear=0
shrinkage=0.1


Tree=41
num_leaves=5
num_cat=0
split_feature=0 0 4 4
split_gain=0.546849 0.778707 0.7365 0.389532
threshold=0.6129394166695048 -0.80414818170610347 -0.40355896421428156 -0.20650964608705866
decision_type=2 2 2 2
left_child=1 3 -2 -1
right_child=2 -3 -4 -5
leaf_value=-0.0072504955440780951 0.021642255907680631 -0.019214975747813168 -0.0024517875071546013 0.011365765917433317
leaf_weight=21 22 27 27 23
leaf_count=21 22 27 27 23
internal_value=0 -0.00577041 0.00795893 0.00202642
internal_weight=0 71 49 44
internal_count=120 71 49 44
is_linear=0
shrinkage=0.1


Tree=42
num_leaves=5
num_cat=0
split_feature=0 4 0 2
split_gain=0.611784 1.4133 0.824192 0.0485062
threshold=0.94132055932019709 0.19935312856303786 -0.79231374870819959 0.016928639327879951
decision_type=2 2 2 2
left_child=1 2 -1 -2
right_child=3 -3 -4 -5
leaf_value=0.0040411313558056487 -0.0050520532911373841 -0.015639952325841651 0.030038796940674579 -0.014463035927601745
leaf_weight=37 20 23 20 20
leaf_count=37 20 23 20 20
internal_value=0 0.00488308 0.0135158 -0.0102587
internal_weight=0 80 57 40
internal_count=120 80 57 40
is_linear=0
shrinkage=0.1


Tree=43
num_leaves=4
num_cat=0
split_feature=2 3 4
split_gain=0.555596 0.663019 0.734771
threshold=0.035824097460215913 -0.23960450092682301 -0.065339985339199977
decision_type=2 2 2
left_child=1 2 -1
right_child=-2 -3 -4
leaf_value=-0.013957172723007172 -0.015373079140196443 0.013605950919438368 0.0074502034096290293
leaf_weight=32 20 37 31
leaf_count=32 20 37 31
internal_value=0 0.00287768 -0.00310619
internal_weight=0 100 63
internal_count=120 100 63
is_linear=0
shrinkage=0.1


Tree=44
num_leaves=4
num_cat=0
split_feature=3 0 0
split_gain=0.52257 0.898733 1.65397
threshold=-0.19704545757408701 0.94132055932019709 -0.80710949877455762
decision_type=2 2 2
left_child=1 2 -1
right_child=-2 -3 -4
leaf_value=-0.0041289579106497587 -0.0108593460750876 -0.0097376564990960656 0.029501795415590483
leaf_weight=30 33 30 27
leaf_count=30 33 30 27
internal_value=0 0.00391504 0.0114517
internal_weight=0 87 57
internal_count=120 87 57
is_linear=0
shrinkage=0.1


Tree=45
num_leaves=4
num_cat=0
split_feature=0 0 3
split_gain=0.570232 0.873247 0.639146
threshold=0.6129394166695048 -0.87810887489592215 -0.25379085074601521
decision_type=2 2 2
left_child=1 -1 -2
right_child=2 -3 -4
leaf_value=0.004917562342068073 0.018164610244444154 -0.01695512534181139 -0.0043024776134993805
leaf_weight=35 28 36 21
leaf_count=35 28 36 21
internal_value=0 -0.00589156 0.00812828
internal_weight=0 71 49
internal_count=120 71 49
is_linear=0
shrinkage=0.1


Tree=46
num_leaves=4
num_cat=0
split_feature=2 3 3
split_gain=0.485549 0.67392 0.681026
threshold=0.035824097460215913 -0.23960450092682301 -0.28145589748028238
decision_type=2 2 2
left_child=1 2 -1
right_child=-2 -3 -4
leaf_value=0.0064648609946545456 -0.014367683083228664 0.01351602592690118 -0.014115313305631412
leaf_weight=32 20 37 31
leaf_count=32 20 37 31
internal_value=0 0.0026941 -0.00334477
internal_weight=0 100 63
internal_count=120 100 63
is_linear=0
shrinkage=0.1


Tree=47
num_leaves=5
num_cat=0
split_feature=0 4 1 2
split_gain=0.48569 1.1999 0.653125 0.0254081
threshold=0.94132055932019709 0.19935312856303786 -0.10408662917299033 0.016928639327879951
decision_type=2 2 2 2
left_child=1 2 -1 -2
right_child=3 -3 -4 -5
leaf_value=0 -0.0047250034404423685 -0.014520456391400656 0.021143843230189266 -0.012531934780182989
leaf_weight=23 20 23 34 20
leaf_count=23 20 23 34 20
internal_value=0 0.00436246 0.0123333 -0.00912949
internal_weight=0 80 57 40
internal_count=120 80 57 40
is_linear=0
shrinkage=0.1


Tree=48
num_leaves=4
num_cat=0
split_feature=0 0 4
split_gain=0.498474 0.719667 0.57667
threshold=0.6129394166695048 -0.87810887489592215 -0.40355896421428156
decision_type=2 2 2
left_child=1 -1 -2
right_child=2 -3 -4
leaf_value=0.0042463759748684717 0.019682007306165466 -0.015570804404311835 -0.0015295208058458106
leaf_weight=35 22 36 27
leaf_count=35 22 36 27
internal_value=0 -0.00552049 0.00758694
internal_weight=0 71 49
internal_count=120 71 49
is_linear=0
shrinkage=0.1


Tree=49
num_leaves=5
num_cat=0
split_feature=0 4 4 2
split_gain=0.47175 0.930871 0.67582 0.00991593
threshold=0.94132055932019709 0.19935312856303786 -0.25944826886750966 0.016928639327879951
decision_type=2 2 2 2
left_child=1 2 -1 -2
right_child=3 -3 -4 -5
leaf_value=0.0020528209481243064 -0.0051600189869760197 -0.012287270923045324 0.025144272536154474 -0.011868358345530504
leaf_weight=35 20 23 22 20
leaf_count=35 20 23 22 20
internal_value=0 0.00428086 0.0113176 -0.00901519
internal_weight=0 80 57 40
internal_count=120 80 57 40
is_linear=0
shrinkage=0.1


Tree=50
num_leaves=4
num_cat=0
split_feature=3 1 1
split_gain=0.486839 0.831249 2.98764
threshold=-0.19704545757408701 -0.039684574813076544 -0.11883761089345647
decision_type=2 2 2
left_child=1 2 -1
right_child=-2 -3 -4
leaf_value=-0.005960156691107674 -0.010490991973451205 -0.0083870227595938228 0.042359236623161711
leaf_weight=34 33 33 20
leaf_count=34 33 33 20
internal_value=0 0.00376884 0.0115678
internal_weight=0 87 54
internal_count=120 87 54
is_linear=0
shrinkage=0.1


Tree=51
num_leaves=4
num_cat=0
split_feature=2 3 4
split_gain=0.512914 0.526185 0.702242
threshold=0.035824097460215913 -0.23960450092682301 -0.065339985339199977
decision_type=2 2 2
left_child=1 2 -1
right_child=-2 -3 -4
leaf_value=-0.013173992157336268 -0.014782751858014668 0.012313488851480186 0.0077793258807771042
leaf_weight=32 20 37 31
leaf_count=32 20 37 31
internal_value=0 0.00275211 -0.0025464
internal_weight=0 100 63
internal_count=120 100 63
is_linear=0
shrinkage=0.1


Tree=52
num_leaves=5
num_cat=0
split_feature=0 1 3 1
split_gain=0.485999 0.64622 0.585378 0.303496
threshold=0.6129394166695048 -0.063335123399086507 -0.25379085074601521 -0.14849707365363776
decision_type=2 2 2 2
left_child=1 3 -2 -1
right_child=2 -3 -4 -5
leaf_value=-0.0062331151467685383 0.017123957265807271 -0.017000446785443653 -0.0043713779172509159 0.010524803184699102
leaf_weight=20 28 29 21 22
leaf_count=20 28 29 21 22
internal_value=0 -0.00543896 0.00750404 0.00206892
internal_weight=0 71 49 42
internal_count=120 71 49 42
is_linear=0
shrinkage=0.1


Tree=53
num_leaves=5
num_cat=0
split_feature=0 4 2 2
split_gain=0.434438 0.814831 0.578766 0.00883413
threshold=0.94132055932019709 0.19935312856303786 0.021842199659386316 0.016928639327879951
decision_type=2 2 2 2
left_child=1 2 -1 -2
right_child=3 -3 -4 -5
leaf_value=0 -0.0049002647224857462 -0.011372526481316883 0.020250262424084092 -0.011419486953702101
leaf_weight=27 20 23 30 20
leaf_count=27 20 23 30 20
internal_value=0 0.00409806 0.0106919 -0.00866083
internal_weight=0 80 57 40
internal_count=120 80 57 40
is_linear=0
shrinkage=0.1


Tree=54
num_leaves=4
num_cat=0
split_feature=2 2 4
split_gain=0.488273 0.68094 0.70504
threshold=0.029776068423670508 0.020555974315609109 -0.11533757352073529
decision_type=2 2 2
left_child=1 2 -1
right_child=-2 -3 -4
leaf_value=-0.012401159643580033 -0.012294446620098147 0.017787715778999392 0.0076059198774344021
leaf_weight=33 26 24 37
leaf_count=33 26 24 37
internal_value=0 0.00318229 -0.00154051
internal_weight=0 94 70
internal_count=120 94 70
is_linear=0
shrinkage=0.1


Tree=55
num_leaves=5
num_cat=0
split_feature=0 0 4 0
split_gain=0.453429 0.652935 0.536795 0.351579
threshold=0.6129394166695048 -0.80414818170610347 -0.40355896421428156 -0.95207317901877042
decision_type=2 2 2 2
left_child=1 3 -2 -1
right_child=2 -3 -4 -5
leaf_value=-0.0065313954861956113 0.018917534465655444 -0.017577001373539632 -0.001531832960276135 0.011132371415301795
leaf_weight=22 22 27 27 22
leaf_count=22 22 27 27 22
internal_value=0 -0.0052591 0.00724239 0.00184626
internal_weight=0 71 49 44
internal_count=120 71 49 44
is_linear=0
shrinkage=0.1


Tree=56
num_leaves=5
num_cat=0
split_feature=0 3 0 2
split_gain=0.408147 0.782877 1.38636 0.00240118
threshold=0.94132055932019709 -0.19704545757408701 -0.80710949877455762 0.016928639327879951
decision_type=2 2 2 2
left_child=1 2 -1 -2
right_child=3 -3 -4 -5
leaf_value=-0.0037817687883791857 -0.0049397161798875244 -0.011190972308948284 0.026968745230922127 -0.010857673931258882
leaf_weight=30 20 23 27 20
leaf_count=30 20 23 27 20
internal_value=0 0.00396689 0.0104345 -0.00839962
internal_weight=0 80 57 40
internal_count=120 80 57 40
is_linear=0
shrinkage=0.1


Tree=57
num_leaves=4
num_cat=0
split_feature=2 3 4
split_gain=0.41542 0.550379 0.608837
threshold=0.035824097460215913 -0.23960450092682301 0.099357952199969721
decision_type=2 2 2
left_child=1 2 -1
right_child=-2 -3 -4
leaf_value=-0.011200105178640039 -0.013337729029940296 0.012230092981988037 0.0086828339774175731
leaf_weight=38 20 37 25
leaf_count=38 20 37 25
internal_value=0 0.00244017 -0.00299255
internal_weight=0 100 63
internal_count=120 100 63
is_linear=0
shrinkage=0.1


Tree=58
num_leaves=4
num_cat=0
split_feature=0 0 3
split_gain=0.428809 0.671604 0.473826
threshold=0.6129394166695048 -0.87810887489592215 -0.25379085074601521
decision_type=2 2 2
left_child=1 -1 -2
right_child=2 -3 -4
leaf_value=0.0042908995685926798 0.015680726692732308 -0.014853528350148824 -0.0035732140309241416
leaf_weight=35 28 36 21
leaf_count=35 28 36 21
internal_value=0 -0.00513483 0.00702139
internal_weight=0 71 49
internal_count=120 71 49
is_linear=0
shrinkage=0.1


Tree=59
num_leaves=4
num_cat=0
split_feature=0 4 1
split_gain=0.400857 0.756174 0.515396
threshold=0.94132055932019709 0.19935312856303786 -0.077151684171449603
decision_type=2 2 2
left_child=1 2 -1
right_child=-2 -3 -4
leaf_value=0 -0.0083240615635823481 -0.010957028231810446 0.019311969980927754
leaf_weight=27 40 23 30
leaf_count=27 40 23 30
internal_value=0 0.00393152 0.0102905
internal_weight=0 80 57
internal_count=120 80 57
is_linear=0
shrinkage=0.1


Tree=60
num_leaves=5
num_cat=0
split_feature=0 1 4 1
split_gain=0.382346 0.59436 0.429972 0.243665
threshold=0.6129394166695048 -0.063335123399086507 -0.40355896421428156 -0.14849707365363776
decision_type=2 2 2 2
left_child=1 3 -2 -1
right_child=2 -3 -4 -5
leaf_value=-0.004983780563428861 0.017090785506096138 -0.015941934297566084 -0.0011314549817020992 0.0099371684272027624
leaf_weight=20 22 29 27 22
leaf_count=20 22 29 27 22
internal_value=0 -0.00483669 0.00664275 0.00235607
internal_weight=0 71 49 42
internal_count=120 71 49 42
is_linear=0
shrinkage=0.1


Tree=61
num_leaves=5
num_cat=0
split_feature=0 1 4 1
split_gain=0.410655 2.7778 2.1473 0.941335
threshold=-0.78344063250354712 -0.086582322970508621 -0.38003068742297058 -0.099426050780972428
decision_type=2 2 2 2
left_child=3 -2 -3 -1
right_child=1 2 -4 -5
leaf_value=0.019228623389474113 -0.035649105385070018 0.032885463714182488 -0.010724128700511214 -0.0068261326505367273
leaf_weight=28 21 20 25 26
leaf_count=28 21 20 25 26
internal_value=0 -0.00544038 0.00821502 0.00631393
internal_weight=0 66 45 54
internal_count=120 66 45 54
is_linear=0
shrinkage=0.1


Tree=62
num_leaves=4
num_cat=0
split_feature=0 3 0
split_gain=0.348104 0.607904 1.11031
threshold=0.94132055932019709 -0.19704545757408701 -0.80710949877455762
decision_type=2 2 2
left_child=1 2 -1
right_child=-2 -3 -4
leaf_value=-0.0032878532816997836 -0.0077657756844828566 -0.0096454037253402222 0.024177601857883715
leaf_weight=30 40 23 27
leaf_count=30 40 23 27
internal_value=0 0.00365442 0.00937223
internal_weight=0 80 57
internal_count=120 80 57
is_linear=0
shrinkage=0.1


Tree=63
num_leaves=4
num_cat=0
split_feature=2 3 4
split_gain=0.365316 0.554053 0.639496
threshold=0.035824097460215913 -0.23960450092682301 0.099357952199969721
decision_type=2 2 2
left_child=1 2 -1
right_child=-2 -3 -4
leaf_value=-0.01156246700368105 -0.01250044108777903 0.012123517563231587 0.0088144524205067097
leaf_weight=38 20 37 25
leaf_count=38 20 37 25
internal_value=0 0.00229593 -0.00315889
internal_weight=0 100 63
internal_count=120 100 63
is_linear=0
shrinkage=0.1


Tree=64
num_leaves=5
num_cat=0
split_feature=0 0 3 0
split_gain=0.379821 0.633182 0.432177 0.275158
threshold=0.6129394166695048 -0.80414818170610347 -0.25379085074601521 -0.95207317901877042
decision_type=2 2 2 2
left_child=1 3 -2 -1
right_child=2 -3 -4 -5
leaf_value=-0.0051399806581676304 0.014895239223371423 -0.016970321439500429 -0.0034722254634385907 0.010395824695901149
leaf_weight=22 28 27 21 22
leaf_count=22 28 27 21 22
internal_value=0 -0.00482542 0.0066158 0.00217373
internal_weight=0 71 49 44
internal_count=120 71 49 44
is_linear=0
shrinkage=0.1


Tree=65
num_leaves=4
num_cat=0
split_feature=0 4 2
split_gain=0.337669 0.600111 0.484882
threshold=0.94132055932019709 0.19935312856303786 0.021842199659386316
decision_type=2 2 2
left_child=1 2 -1
right_child=-2 -3 -4
leaf_value=0 -0.0076529551770013349 -0.0096187297480698642 0.018031067635949066
leaf_weight=27 40 23 30
leaf_count=27 40 23 30
internal_value=0 0.00359449 0.00927736
internal_weight=0 80 57
internal_count=120 80 57
is_linear=0
shrinkage=0.1


Tree=66
num_leaves=4
num_cat=0
split_feature=2 3 4
split_gain=0.350829 0.477081 0.577692
threshold=0.035824097460215913 -0.23960450092682301 0.099357952199969721
decision_type=2 2 2
left_child=1 2 -1
right_child=-2 -3 -4
leaf_value=-0.010794182099600933 -0.012249147585111093 0.011373801521555246 0.0085763536308722781
leaf_weight=38 20 37 25
leaf_count=38 20 37 25
internal_value=0 0.00225095 -0.00278996
internal_weight=0 100 63
internal_count=120 100 63
is_linear=0
shrinkage=0.1


Tree=67
num_leaves=4
num_cat=0
split_feature=3 3 0
split_gain=0.356169 0.616747 1.18704
threshold=-0.19704545757408701 -0.25379085074601521 0.6129394166695048
decision_type=2 2 2
left_child=1 2 -1
right_child=-2 -3 -4
leaf_value=-0.012668314839369088 -0.0089912764071163088 0.018675781380486652 0.014259240756480105
leaf_weight=39 33 20 28
leaf_count=39 33 20 28
internal_value=0 0.00320454 -0.0011163
internal_weight=0 87 67
internal_count=120 87 67
is_linear=0
shrinkage=0.1


Tree=68
num_leaves=5
num_cat=0
split_feature=0 1 4 1
split_gain=0.368053 2.16895 1.69632 0.748682
threshold=-0.78344063250354712 -0.086582322970508621 -0.38003068742297058 -0.099426050780972428
decision_type=2 2 2 2
left_child=3 -2 -3 -1
right_child=1 2 -4 -5
leaf_value=0.017512767421541588 -0.031848332493738231 0.028843676913934659 -0.0098965484902212037 -0.0056593278686178812
leaf_weight=28 21 20 25 26
leaf_count=28 21 20 25 26
internal_value=0 -0.00514233 0.00687823 0.00598601
internal_weight=0 66 45 54
internal_count=120 66 45 54
is_linear=0
shrinkage=0.1


Tree=69
num_leaves=5
num_cat=0
split_feature=0 3 0 2
split_gain=0.316325 0.518864 0.887638 0.000895065
threshold=0.94132055932019709 -0.19704545757408701 -0.80710949877455762 0.016928639327879951
decision_type=2 2 2 2
left_child=1 2 -1 -2
right_child=3 -3 -4 -5
leaf_value=-0.0024614070058415244 -0.0041793166792219926 -0.0087575400667173967 0.022019923732051628 -0.0096101237908359539
leaf_weight=30 20 23 27 20
leaf_count=30 20 23 27 20
internal_value=0 0.00349136 0.00878508 -0.00739552
internal_weight=0 80 57 40
internal_count=120 80 57 40
is_linear=0
shrinkage=0.1


Tree=70
num_leaves=4
num_cat=0
split_feature=0 0 2
split_gain=0.316229 0.613625 0.34319
threshold=0.6129394166695048 -0.87810887489592215 0.019309541174264051
decision_type=2 2 2
left_child=1 -1 -2
right_child=2 -3 -4
leaf_value=0.004568759495105902 -0.00086678902176635572 -0.013745594175304576 0.015337812598524679
leaf_weight=35 27 36 22
leaf_count=35 27 36 22
internal_value=0 -0.00443604 0.00600145
internal_weight=0 71 49
internal_count=120 71 49
is_linear=0
shrinkage=0.1


Tree=71
num_leaves=5
num_cat=0
split_feature=0 1 4 4
split_gain=0.313809 1.70463 1.31715 0.59802
threshold=-0.78344063250354712 -0.086582322970508621 -0.38003068742297058 -0.20650964608705866
decision_type=2 2 2 2
left_child=3 -2 -3 -1
right_child=1 2 -4 -5
leaf_value=-0.0065832397062733517 -0.028468341082228107 0.025224795305700612 -0.0088837117201040986 0.014421738532861123
leaf_weight=22 21 20 25 32
leaf_count=22 21 20 25 32
internal_value=0 -0.00477983 0.00583235 0.005494
internal_weight=0 66 45 54
internal_count=120 66 45 54
is_linear=0
shrinkage=0.1


Tree=72
num_leaves=4
num_cat=0
split_feature=2 1 2
split_gain=0.29299 0.788646 1.03364
threshold=0.029776068423670508 -0.039684574813076544 0.014683499200762026
decision_type=2 2 2
left_child=1 2 -1
right_child=-2 -3 -4
leaf_value=-0.0057657003678657399 -0.0095471219159483662 -0.0081537169341173183 0.021641281997050468
leaf_weight=22 26 39 33
leaf_count=22 26 39 33
internal_value=0 0.00243988 0.0103154
internal_weight=0 94 55
internal_count=120 94 55
is_linear=0
shrinkage=0.1


Tree=73
num_leaves=4
num_cat=0
split_feature=0 3 3
split_gain=0.276414 0.553931 0.350768
threshold=0.6129394166695048 -0.25379085074601521 -0.25379085074601521
decision_type=2 2 2
left_child=1 -1 -2
right_child=2 -3 -4
leaf_value=-0.01231624849819706 0.013085819495576814 0.0051569555704364771 -0.0034345883793616347
leaf_weight=39 28 32 21
leaf_count=39 28 32 21
internal_value=0 -0.00415952 0.0055979
internal_weight=0 71 49
internal_count=120 71 49
is_linear=0
shrinkage=0.1


Tree=74
num_leaves=5
num_cat=0
split_feature=0 3 0 2
split_gain=0.319825 0.428789 0.768745 0.0200794
threshold=0.94132055932019709 -0.1828591097898436 -0.79231374870819959 0.016928639327879951
decision_type=2 2 2 2
left_child=1 2 -1 -2
right_child=3 -3 -4 -5
leaf_value=0 -0.0034570814229285419 -0.0087222474026876651 0.02390150020273309 -0.010450662274571903
leaf_weight=40 20 20 20 20
leaf_count=40 20 20 20 20
internal_value=0 0.0034911 0.00789591 -0.00745468
internal_weight=0 80 60 40
internal_count=120 80 60 40
is_linear=0
shrinkage=0.1


Tree=75
num_leaves=5
num_cat=0
split_feature=0 1 4 1
split_gain=0.309671 1.49149 1.01327 0.47999
threshold=-0.78344063250354712 -0.086582322970508621 -0.38003068742297058 -0.099426050780972428
decision_type=2 2 2 2
left_child=3 -2 -3 -1
right_child=1 2 -4 -5
leaf_value=0.014672515190535199 -0.026930454769919981 0.022168212860517282 -0.0077064484894168415 -0.003747991860841151
leaf_weight=28 21 20 25 26
leaf_count=28 21 20 25 26
internal_value=0 -0.00477083 0.00512777 0.00543352
internal_weight=0 66 45 54
internal_count=120 66 45 54
is_linear=0
shrinkage=0.1


Tree=76
num_leaves=4
num_cat=0
split_feature=4 0 0
split_gain=0.291459 0.840455 0.508316
threshold=-0.70648552790239916 0.6129394166695048 -0.80414818170610347
decision_type=2 2 2
left_child=-1 2 -2
right_child=1 -3 -4
leaf_value=-0.010869794390196461 0.0016753971979370345 0.01366049684789483 -0.016858159352504436
leaf_weight=21 37 39 23
leaf_count=21 37 39 23
internal_value=0 0.00209084 -0.00509664
internal_weight=0 99 60
internal_count=120 99 60
is_linear=0
shrinkage=0.1


Tree=77
num_leaves=5
num_cat=0
split_feature=0 4 1 2
split_gain=0.299287 0.350067 0.749303 0.0232835
threshold=0.94132055932019709 0.099357952199969721 -0.077151684171449603 0.016928639327879951
decision_type=2 2 2 2
left_child=1 2 -1 -2
right_child=3 -3 -4 -5
leaf_value=-0.0036739195925882882 -0.0031410950093798511 -0.0054608700345440192 0.019600777429377391 -0.010294218573479973
leaf_weight=25 20 27 28 20
leaf_count=25 20 27 28 20
internal_value=0 0.00336957 0.00824551 -0.00721843
internal_weight=0 80 53 40
internal_count=120 80 53 40
is_linear=0
shrinkage=0.1


Tree=78
num_leaves=5
num_cat=0
split_feature=0 1 4 4
split_gain=0.262816 1.08114 0.835593 0.499825
threshold=-0.78344063250354712 -0.086582322970508621 -0.38003068742297058 -0.20650964608705866
decision_type=2 2 2 2
left_child=3 -2 -3 -1
right_child=1 2 -4 -5
leaf_value=-0.0060146290692950459 -0.023299812614364417 0.019467325020331022 -0.0076782183982007299 0.013155483518658884
leaf_weight=22 21 20 25 32
leaf_count=22 21 20 25 32
internal_value=0 -0.00442334 0.00394289 0.00497527
internal_weight=0 66 45 54
internal_count=120 66 45 54
is_linear=0
shrinkage=0.1


Tree=79
num_leaves=4
num_cat=0
split_feature=4 0 1
split_gain=0.271303 0.746189 0.376487
threshold=-0.70648552790239916 0.6129394166695048 -0.099426050780972428
decision_type=2 2 2
left_child=-1 2 -2
right_child=1 -3 -4
leaf_value=-0.01050553499935809 0.0014232337206640409 0.01290586031997239 -0.014216863826420803
leaf_weight=21 35 39 25
leaf_count=21 35 39 25
internal_value=0 0.00199708 -0.00476081
internal_weight=0 99 60
internal_count=120 99 60
is_linear=0
shrinkage=0.1


Tree=80
num_leaves=5
num_cat=0
split_feature=0 3 0 2
split_gain=0.277378 0.301134 0.649362 0.0252057
threshold=0.94132055932019709 -0.1828591097898436 -0.79231374870819959 0.016928639327879951
decision_type=2 2 2 2
left_child=1 2 -1 -2
right_child=3 -3 -4 -5
leaf_value=0 -0.0028574697857676554 -0.0069110371252501862 0.021655674339443171 -0.010074107587184796
leaf_weight=40 20 20 20 20
leaf_count=40 20 20 20 20
internal_value=0 0.00322527 0.00693764 -0.00696653
internal_weight=0 80 60 40
internal_count=120 80 60 40
is_linear=0
shrinkage=0.1


Tree=81
num_leaves=5
num_cat=0
split_feature=0 1 4 0
split_gain=0.280158 0.871085 0.694939 0.413182
threshold=-0.78344063250354712 -0.086582322970508621 -0.38003068742297058 -0.91065446885501999
decision_type=2 2 2 2
left_child=3 -2 -3 -1
right_child=1 2 -4 -5
leaf_value=-0.0024048439391603392 -0.021503455995435065 0.017101805438342259 -0.0076793075763203107 0.014678962861679953
leaf_weight=29 21 20 25 25
leaf_count=29 21 20 25 25
internal_value=0 -0.00456904 0.0028908 0.00513462
internal_weight=0 66 45 54
internal_count=120 66 45 54
is_linear=0
shrinkage=0.1


Tree=82
num_leaves=4
num_cat=0
split_feature=2 3 4
split_gain=0.249194 0.460929 0.639285
threshold=0.035824097460215913 -0.23960450092682301 0.099357952199969721
decision_type=2 2 2
left_child=1 2 -1
right_child=-2 -3 -4
leaf_value=-0.011524792264624028 -0.01037764131009832 0.010820870026352115 0.0088511142232398504
leaf_weight=38 20 37 25
leaf_count=38 20 37 25
internal_value=0 0.00183739 -0.00312162
internal_weight=0 100 63
internal_count=120 100 63
is_linear=0
shrinkage=0.1


Tree=83
num_leaves=5
num_cat=0
split_feature=1 2 2 0
split_gain=0.220147 0.800648 0.90363 0.232437
threshold=-0.030489219889893785 0.027786456815610896 0.014683499200762026 0.6129394166695048
decision_type=2 2 2 2
left_child=1 2 -1 -2
right_child=3 -3 -4 -5
leaf_value=-0.0048428471441044878 -0.013761053338062166 -0.013588698019879487 0.020573588431817332 0
leaf_weight=23 20 20 32 25
leaf_count=23 20 20 32 25
internal_value=0 0.00313587 0.00958182 -0.00570331
internal_weight=0 75 55 45
internal_count=120 75 55 45
is_linear=0
shrinkage=0.1


Tree=84
num_leaves=5
num_cat=0
split_feature=0 1 4 3
split_gain=0.231332 0.759868 0.562752 0.31741
threshold=-0.78344063250354712 -0.086582322970508621 -0.38003068742297058 -0.25379085074601521
decision_type=2 2 2 2
left_child=3 -2 -3 -1
right_child=1 2 -4 -5
leaf_value=-0.0011184132798931184 -0.019975871746879453 0.015607196549956901 -0.0066526267957631368 0.013998907624869368
leaf_weight=32 21 20 25 22
leaf_count=32 21 20 25 22
internal_value=0 -0.00414696 0.00279687 0.00467089
internal_weight=0 66 45 54
internal_count=120 66 45 54
is_linear=0
shrinkage=0.1


Tree=85
num_leaves=4
num_cat=0
split_feature=4 0 0
split_gain=0.240499 0.707295 0.382482
threshold=-0.70648552790239916 0.6129394166695048 -0.87810887489592215
decision_type=2 2 2
left_child=-1 2 -2
right_child=1 -3 -4
leaf_value=-0.0098888909672997707 0.0032907783956205583 0.012508844545354844 -0.012300287408428609
leaf_weight=21 28 39 32
leaf_count=21 28 39 32
internal_value=0 0.00188268 -0.00469148
internal_weight=0 99 60
internal_count=120 99 60
is_linear=0
shrinkage=0.1


Tree=86
num_leaves=5
num_cat=0
split_feature=0 4 2 2
split_gain=0.254947 0.297488 0.54406 0.0287318
threshold=0.94132055932019709 0.058183467815176672 0.023783826509029254 0.016928639327879951
decision_type=2 2 2 2
left_child=1 2 -1 -2
right_child=3 -3 -4 -5
leaf_value=-0.00023952864198047209 -0.0024843789316793888 -0.0043523135537446456 0.02024953855102728 -0.0098622881324849591
leaf_weight=29 20 30 21 20
leaf_count=29 20 30 21 20
internal_value=0 0.00309734 0.00796708 -0.00667404
internal_weight=0 80 50 40
internal_count=120 80 50 40
is_linear=0
shrinkage=0.1


Tree=87
num_leaves=5
num_cat=0
split_feature=1 2 2 0
split_gain=0.211467 0.949631 1.12186 0.246249
threshold=-0.039684574813076544 0.02283310428167171 0.014683499200762026 0.94132055932019709
decision_type=2 2 2 2
left_child=1 2 -1 -2
right_child=3 -3 -4 -5
leaf_value=-0.0025406610223315906 0.00080780681744858506 -0.010785146902563571 0.028653471331329838 -0.01286871952806911
leaf_weight=22 25 28 22 23
leaf_count=22 25 28 22 23
internal_value=0 0.00322998 0.0126034 -0.00532956
internal_weight=0 72 44 48
internal_count=120 72 44 48
is_linear=0
shrinkage=0.1


Tree=88
num_leaves=5
num_cat=0
split_feature=0 0 1 0
split_gain=0.19473 0.695522 0.495184 0.341359
threshold=-0.78344063250354712 0.62181433875347614 -0.024785699063787636 -0.91065446885501999
decision_type=2 2 2 2
left_child=3 -2 -3 -1
right_child=1 2 -4 -5
leaf_value=-0.002559877669740866 -0.019520525387363773 0.01324928559847071 -0.0072654790235482936 0.012963699493121442
leaf_weight=29 20 23 23 25
leaf_count=29 20 23 23 25
internal_value=0 -0.00383078 0.00255749 0.00425716
internal_weight=0 66 46 54
internal_count=120 66 46 54
is_linear=0
shrinkage=0.1


Tree=89
num_leaves=4
num_cat=0
split_feature=1 2 1
split_gain=0.208029 0.52162 1.85907
threshold=-0.14849707365363776 0.023783826509029254 -0.039684574813076544
decision_type=2 2 2
left_child=-1 2 -2
right_child=1 -3 -4
leaf_value=-0.0085065327747691002 0.025027973661786454 -0.0084915619101414395 -0.0085623290311994827
leaf_weight=24 31 31 34
leaf_count=24 31 31 34
internal_value=0 0.00189104 0.00715069
internal_weight=0 96 65
internal_count=120 96 65
is_linear=0
shrinkage=0.1


Tree=90
num_leaves=5
num_cat=0
split_feature=0 4 1 2
split_gain=0.20429 0.31691 0.371816 0.0138645
threshold=0.94132055932019709 -0.40355896421428156 -0.099426050780972428 0.016928639327879951
decision_type=2 2 2 2
left_child=1 -1 -3 -2
right_child=3 2 -4 -5
leaf_value=0.011618749707057133 -0.0024892168463587438 0.0057240081946205801 -0.01095204385859945 -0.0085715440005786538
leaf_weight=27 20 29 24 20
leaf_count=27 20 29 24 20
internal_value=0 0.0027109 -0.00145041 -0.00603101
internal_weight=0 80 53 40
internal_count=120 80 53 40
is_linear=0
shrinkage=0.1


Tree=91
num_leaves=5
num_cat=0
split_feature=0 3 3 4
split_gain=0.215381 0.531882 0.362639 0.293645
threshold=0.6129394166695048 -0.23960450092682301 -0.25379085074601521 0.058183467815176672
decision_type=2 2 2 2
left_child=1 3 -2 -1
right_child=2 -3 -4 -5
leaf_value=-0.019051466337782881 0.01253925574056497 0.0065716780636341874 -0.0043473045787933871 -0.0013619640656303321
leaf_weight=22 28 28 21 21
leaf_count=22 28 28 21 21
internal_value=0 -0.00371517 0.00489433 -0.0108786
internal_weight=0 71 49 43
internal_count=120 71 49 43
is_linear=0
shrinkage=0.1


Tree=92
num_leaves=5
num_cat=0
split_feature=0 4 1 2
split_gain=0.203571 0.286289 0.312182 0.0078342
threshold=0.94132055932019709 -0.40355896421428156 -0.099426050780972428 0.016928639327879951
decision_type=2 2 2 2
left_child=1 -1 -3 -2
right_child=3 2 -4 -5
leaf_value=0.011175329023597969 -0.0027342641284334099 0.0053192907043663196 -0.0099576688320192671 -0.008292922174236354
leaf_weight=27 20 29 24 20
leaf_count=27 20 29 24 20
internal_value=0 0.00271285 -0.00122154 -0.00601422
internal_weight=0 80 53 40
internal_count=120 80 53 40
is_linear=0
shrinkage=0.1


Tree=93
num_leaves=4
num_cat=0
split_feature=4 0 3
split_gain=0.217817 0.646268 0.349312
threshold=-0.70648552790239916 0.6129394166695048 -0.22541815314257671
decision_type=2 2 2
left_child=-1 2 -2
right_child=1 -3 -4
leaf_value=-0.009433207677407256 -0.010287051460149183 0.011931571746052817 0.0052747700413943088
leaf_weight=21 39 39 21
leaf_count=21 39 39 21
internal_value=0 0.00176699 -0.00450712
internal_weight=0 99 60
internal_count=120 99 60
is_linear=0
shrinkage=0.1


Tree=94
num_leaves=5
num_cat=0
split_feature=0 3 0 2
split_gain=0.216486 0.297895 0.553613 0.00462747
threshold=0.94132055932019709 -0.1828591097898436 -0.79231374870819959 0.016928639327879951
decision_type=2 2 2 2
left_child=1 2 -1 -2
right_child=3 -3 -4 -5
leaf_value=0 -0.003012981577698394 -0.0072797304678077976 0.020114930882450345 -0.0083363054469656108
leaf_weight=40 20 20 20 20
leaf_count=40 20 20 20 20
internal_value=0 0.0028268 0.00652927 -0.00617529
internal_weight=0 80 60 40
internal_count=120 80 60 40
is_linear=0
shrinkage=0.1


Tree=95
num_leaves=5
num_cat=0
split_feature=0 1 4 4
split_gain=0.218217 0.808499 0.455845 0.313914
threshold=-0.78344063250354712 -0.086582322970508621 -0.20650964608705866 -0.20650964608705866
decision_type=2 2 2 2
left_child=3 -2 -3 -1
right_child=1 2 -4 -5
leaf_value=-0.0040348322714588592 -0.020384861348328551 0.012439463319623026 -0.0075134167061749486 0.011009886187635544
leaf_weight=22 21 25 20 32
leaf_count=22 21 25 20 32
internal_value=0 -0.00405183 0.00312727 0.00451041
internal_weight=0 66 45 54
internal_count=120 66 45 54
is_linear=0
shrinkage=0.1


Tree=96
num_leaves=4
num_cat=0
split_feature=1 0 0
split_gain=0.194753 0.506084 1.11052
threshold=-0.14849707365363776 -0.87810887489592215 0.6129394166695048
decision_type=2 2 2
left_child=-1 -2 -3
right_child=1 2 -4
leaf_value=-0.0082425075852605272 0.013541951321011625 -0.020059339972156656 0.0064484086485720113
leaf_weight=24 27 24 45
leaf_count=24 27 24 45
internal_value=0 0.00181643 -0.00248263
internal_weight=0 96 69
internal_count=120 96 69
is_linear=0
shrinkage=0.1


Tree=97
num_leaves=4
num_cat=0
split_feature=4 0 3
split_gain=0.19286 0.511588 0.324973
threshold=-0.70648552790239916 0.6129394166695048 -0.22541815314257671
decision_type=2 2 2
left_child=-1 2 -2
right_child=1 -3 -4
leaf_value=-0.0088709246658074305 -0.0094815858876994754 0.010724338417885441 0.0055571878282364377
leaf_weight=21 39 39 21
leaf_count=21 39 39 21
internal_value=0 0.00166863 -0.00388469
internal_weight=0 99 60
internal_count=120 99 60
is_linear=0
shrinkage=0.1


Tree=98
num_leaves=5
num_cat=0
split_feature=0 3 0 2
split_gain=0.235003 0.266311 0.498683 0.00967208
threshold=0.94132055932019709 -0.1828591097898436 -0.79231374870819959 0.016928639327879951
decision_type=2 2 2 2
left_child=1 2 -1 -2
right_child=3 -3 -4 -5
leaf_value=0 -0.0029820815190557425 -0.0065386259706455346 0.019362148967304104 -0.0088413129692165842
leaf_weight=40 20 20 20 20
leaf_count=40 20 20 20 20
internal_value=0 0.00296866 0.00647134 -0.00641237
internal_weight=0 80 60 40
internal_count=120 80 60 40
is_linear=0
shrinkage=0.1


Tree=99
num_leaves=5
num_cat=0
split_feature=0 1 4 0
split_gain=0.224278 0.584146 0.371851 0.305752
threshold=-0.78344063250354712 -0.086582322970508621 -0.20650964608705866 -0.91065446885501999
decision_type=2 2 2 2
left_child=3 -2 -3 -1
right_child=1 2 -4 -5
leaf_value=-0.0017938543420295907 -0.017953708904452394 0.010426563126424437 -0.007650546690458896 0.012815906503084146
leaf_weight=29 21 25 20 25
leaf_count=29 21 25 20 25
internal_value=0 -0.00408228 0.00194794 0.00460015
internal_weight=0 66 45 54
internal_count=120 66 45 54
is_linear=0
shrinkage=0.1


Tree=100
num_leaves=5
num_cat=0
split_feature=0 0 1 0
split_gain=0.180027 0.542549 0.384292 0.249319
threshold=-0.78344063250354712 0.62181433875347614 -0.024785699063787636 -0.91065446885501999
decision_type=2 2 2 2
left_child=3 -2 -3 -1
right_child=1 2 -4 -5
leaf_value=-0.0016144998593153452 -0.017529968350149937 0.011388184825374209 -0.0066859959888862439 0.011534572316572395
leaf_weight=29 20 23 23 25
leaf_count=29 20 23 23 25
internal_value=0 -0.00367416 0.00191661 0.0041032
internal_weight=0 66 46 54
internal_count=120 66 46 54
is_linear=0
shrinkage=0.1


Tree=101
num_leaves=5
num_cat=0
split_feature=0 4 1 2
split_gain=0.178454 0.24569 0.321767 0.0104047
threshold=0.94132055932019709 -0.40355896421428156 -0.099426050780972428 0.016928639327879951
decision_type=2 2 2 2
left_child=1 -1 -3 -2
right_child=3 2 -4 -5
leaf_value=0.010392892979867611 -0.0022969321887572388 0.0055869637486482982 -0.0099420582371636049 -0.0079445108469651075
leaf_weight=27 20 29 24 20
leaf_count=27 20 29 24 20
internal_value=0 0.00255048 -0.001068 -0.0056213
internal_weight=0 80 53 40
internal_count=120 80 53 40
is_linear=0
shrinkage=0.1


Tree=102
num_leaves=4
num_cat=0
split_feature=1 2 1
split_gain=0.187805 0.466688 1.58091
threshold=-0.14849707365363776 0.023783826509029254 -0.039684574813076544
decision_type=2 2 2
left_child=-1 2 -2
right_child=1 -3 -4
leaf_value=-0.0080765114584656419 0.023281475674758093 -0.0080007581966404229 -0.0076650607280094657
leaf_weight=24 31 31 34
leaf_count=24 31 31 34
internal_value=0 0.00180333 0.00678704
internal_weight=0 96 65
internal_count=120 96 65
is_linear=0
shrinkage=0.1


Tree=103
num_leaves=4
num_cat=0
split_feature=4 0 3
split_gain=0.175641 0.507 0.331223
threshold=-0.70648552790239916 0.6129394166695048 -0.22541815314257671
decision_type=2 2 2
left_child=-1 2 -2
right_child=1 -3 -4
leaf_value=-0.0084845376469441427 -0.0096056576063236875 0.01058987121842348 0.0055774656248338116
leaf_weight=21 39 39 21
leaf_count=21 39 39 21
internal_value=0 0.00157107 -0.00395824
internal_weight=0 99 60
internal_count=120 99 60
is_linear=0
shrinkage=0.1


Tree=104
num_leaves=5
num_cat=0
split_feature=0 4 1 2
split_gain=0.18621 0.219061 0.257266 0.00355673
threshold=0.94132055932019709 -0.40355896421428156 -0.099426050780972428 0.016928639327879951
decision_type=2 2 2 2
left_child=1 -1 -3 -2
right_child=3 2 -4 -5
leaf_value=0.010007787622418961 -0.0027096095129240461 0.0051348754900773022 -0.0087549223657096085 -0.0077599164650637466
leaf_weight=27 20 29 24 20
leaf_count=27 20 29 24 20
internal_value=0 0.00261278 -0.000777754 -0.00573535
internal_weight=0 80 53 40
internal_count=120 80 53 40
is_linear=0
shrinkage=0.1


Tree=105
num_leaves=4
num_cat=0
split_feature=4 2 0
split_gain=0.174371 0.355327 0.338133
threshold=-0.25944826886750966 0.023783826509029254 0.63660106024884822
decision_type=2 2 2
left_child=2 -2 -1
right_child=1 -3 -4
leaf_value=0.0011533105324755507 0.0093777137341661872 -0.0053452883854757669 -0.014783215221837891
leaf_weight=34 40 26 20
leaf_count=34 40 26 20
internal_value=0 0.00327477 -0.00437959
internal_weight=0 66 54
internal_count=120 66 54
is_linear=0
shrinkage=0.1


Tree=106
num_leaves=4
num_cat=0
split_feature=1 0 0
split_gain=0.16334 0.429744 0.923406
threshold=-0.14849707365363776 -0.87810887489592215 0.6129394166695048
decision_type=2 2 2
left_child=-1 -2 -3
right_child=1 2 -4
leaf_value=-0.0075243697566704021 0.012503547001981148 -0.01829757444270326 0.0058629238602850462
leaf_weight=24 27 24 45
leaf_count=24 27 24 45
internal_value=0 0.00169039 -0.00225161
internal_weight=0 96 69
internal_count=120 96 69
is_linear=0
shrinkage=0.1


Tree=107
num_leaves=4
num_cat=0
split_feature=0 0 1
split_gain=0.156071 0.220673 0.232263
threshold=0.94132055932019709 -0.79231374870819959 -0.13094378961789552
decision_type=2 2 2
left_child=1 2 -1
right_child=-2 -3 -4
leaf_value=-0.0098981980501607336 -0.0052336427293379825 0.009462822600492752 0.0037545389621197905
leaf_weight=20 40 29 31
leaf_count=20 40 29 31
internal_value=0 0.00241066 -0.0012078
internal_weight=0 80 51
internal_count=120 80 51
is_linear=0
shrinkage=0.1


Tree=108
num_leaves=4
num_cat=0
split_feature=4 2 2
split_gain=0.15268 0.306968 0.27136
threshold=-0.25944826886750966 0.023783826509029254 0.020555974315609109
decision_type=2 2 2
left_child=2 -2 -1
right_child=1 -3 -4
leaf_value=-0.010125057720296217 0.0087837568201276448 -0.0048736284424813524 0.0038418555173026629
leaf_weight=32 40 26 22
leaf_count=32 40 26 22
internal_value=0 0.00310061 -0.00406467
internal_weight=0 66 54
internal_count=120 66 54
is_linear=0
shrinkage=0.1


Tree=109
num_leaves=5
num_cat=0
split_feature=0 1 4 4
split_gain=0.143898 0.525388 0.381966 0.256577
threshold=-0.78344063250354712 -0.086582322970508621 -0.20650964608705866 -0.20650964608705866
decision_type=2 2 2 2
left_child=3 -2 -3 -1
right_child=1 2 -4 -5
leaf_value=-0.0039710530711152131 -0.016433839580468467 0.011037787990530977 -0.0072379295426260029 0.009623440956486479
leaf_weight=22 21 25 20 32
leaf_count=22 21 25 20 32
internal_value=0 -0.00324199 0.00247095 0.00371475
internal_weight=0 66 45 54
internal_count=120 66 45 54
is_linear=0
shrinkage=0.1


Tree=110
num_leaves=5
num_cat=0
split_feature=0 3 3 4
split_gain=0.143798 0.44914 0.29524 0.1893
threshold=0.6129394166695048 -0.23960450092682301 -0.25379085074601521 0.058183467815176672
decision_type=2 2 2 2
left_child=1 3 -2 -1
right_child=2 -3 -4 -5
leaf_value=-0.016229054323230189 0.010980508255811702 0.0064445389805494989 -0.004245153678170104 -0.0017013761137985271
leaf_weight=22 28 28 21 21
leaf_count=22 28 28 21 21
internal_value=0 -0.00299103 0.00404734 -0.00960023
internal_weight=0 71 49 43
internal_count=120 71 49 43
is_linear=0
shrinkage=0.1


Tree=111
num_leaves=4
num_cat=0
split_feature=3 1 1
split_gain=0.150255 0.408876 0.823405
threshold=-0.1828591097898436 -0.039684574813076544 -0.11883761089345647
decision_type=2 2 2
left_child=1 2 -1
right_child=-2 -3 -4
leaf_value=-0.001607665086323646 -0.0062466529339993927 -0.0062223924697722525 0.023102932494116865
leaf_weight=34 30 35 21
leaf_count=34 30 35 21
internal_value=0 0.00191982 0.00746493
internal_weight=0 90 55
internal_count=120 90 55
is_linear=0
shrinkage=0.1


Tree=112
num_leaves=5
num_cat=0
split_feature=0 0 1 0
split_gain=0.138572 0.475748 0.248549 0.203733
threshold=-0.78344063250354712 0.62181433875347614 -0.045791444653767215 -0.889946919377261
decision_type=2 2 2 2
left_child=3 -2 -3 -1
right_child=1 2 -4 -5
leaf_value=-0.00091913162380424329 -0.016207480066174479 0.010665179094100887 -0.0038941277076798759 0.011106037350032471
leaf_weight=32 20 20 26 22
leaf_count=32 20 20 26 22
internal_value=0 -0.00321401 0.00200174 0.00361025
internal_weight=0 66 46 54
internal_count=120 66 46 54
is_linear=0
shrinkage=0.1


Tree=113
num_leaves=5
num_cat=0
split_feature=0 4 1 2
split_gain=0.132335 0.22931 0.253852 0.00864533
threshold=0.94132055932019709 -0.40355896421428156 -0.099426050780972428 0.016928639327879951
decision_type=2 2 2 2
left_child=1 -1 -3 -2
right_child=3 2 -4 -5
leaf_value=0.0097969222090511301 -0.0017385722804415143 0.004551747772400183 -0.0091872429876737449 -0.0069343226756253444
leaf_weight=27 20 29 24 20
leaf_count=27 20 29 24 20
internal_value=0 0.00220048 -0.00129264 -0.00483693
internal_weight=0 80 53 40
internal_count=120 80 53 40
is_linear=0
shrinkage=0.1


Tree=114
num_leaves=5
num_cat=0
split_feature=0 3 3 4
split_gain=0.130007 0.407718 0.221761 0.153134
threshold=0.6129394166695048 -0.23960450092682301 -0.25379085074601521 0.058183467815176672
decision_type=2 2 2 2
left_child=1 3 -2 -1
right_child=2 -3 -4 -5
leaf_value=-0.015194256344530373 0.0098288955512461432 0.0060892457734754192 -0.0032627268423213482 -0.0019334750274367857
leaf_weight=22 28 28 21 21
leaf_count=22 28 28 21 21
internal_value=0 -0.00287913 0.00381032 -0.0091841
internal_weight=0 71 49 43
internal_count=120 71 49 43
is_linear=0
shrinkage=0.1


Tree=115
num_leaves=5
num_cat=0
split_feature=0 4 1 2
split_gain=0.131718 0.204992 0.213866 0.00416118
threshold=0.94132055932019709 -0.40355896421428156 -0.099426050780972428 0.016928639327879951
decision_type=2 2 2 2
left_child=1 -1 -3 -2
right_child=3 2 -4 -5
leaf_value=0.0093700359514235915 -0.0019584266700258379 0.0042419633170671048 -0.0083649385927946369 -0.0067001744561033293
leaf_weight=27 20 29 24 20
leaf_count=27 20 29 24 20
internal_value=0 0.00219081 -0.00108975 -0.00482978
internal_weight=0 80 53 40
internal_count=120 80 53 40
is_linear=0
shrinkage=0.1


Tree=116
num_leaves=4
num_cat=0
split_feature=1 2 1
split_gain=0.142209 0.376693 1.13968
threshold=-0.14849707365363776 0.023783826509029254 -0.039684574813076544
decision_type=2 2 2
left_child=-1 2 -2
right_child=1 -3 -4
leaf_value=-0.0070287196884749222 0.020085371484046714 -0.0072121551487738427 -0.0061331304355633064
leaf_weight=24 31 31 34
leaf_count=24 31 31 34
internal_value=0 0.00156843 0.00606399
internal_weight=0 96 65
internal_count=120 96 65
is_linear=0
shrinkage=0.1


Tree=117
num_leaves=5
num_cat=0
split_feature=4 1 0 0
split_gain=0.136559 0.423744 0.567661 0.395006
threshold=-0.70648552790239916 -0.05812330196366295 0.6129394166695048 -0.78344063250354712
decision_type=2 2 2 2
left_child=-1 3 -3 -2
right_child=1 2 -4 -5
leaf_value=-0.007483686151333691 0.0035442631492825882 -0.0021992424891814255 0.019800456694390654 -0.01302386614635595
leaf_weight=21 28 21 23 27
leaf_count=21 28 21 23 27
internal_value=0 0.00138237 0.00884705 -0.00422602
internal_weight=0 99 44 55
internal_count=120 99 44 55
is_linear=0
shrinkage=0.1


Tree=118
num_leaves=5
num_cat=0
split_feature=0 0 1 2
split_gain=0.12847 0.207736 0.235535 0.00102499
threshold=0.94132055932019709 -0.79231374870819959 -0.13094378961789552 0.016928639327879951
decision_type=2 2 2 2
left_child=1 2 -1 -2
right_child=3 -3 -4 -5
leaf_value=-0.010105051679391916 -0.0020991489128250385 0.0089991770445827859 0.0036268585352979541 -0.0064796833500686936
leaf_weight=20 20 29 31 20
leaf_count=20 20 29 31 20
internal_value=0 0.00214137 -0.00136655 -0.00478989
internal_weight=0 80 51 40
internal_count=120 80 51 40
is_linear=0
shrinkage=0.1


Tree=119
num_leaves=5
num_cat=0
split_feature=0 0 1 4
split_gain=0.120294 0.447491 0.22122 0.177235
threshold=-0.78344063250354712 0.62181433875347614 -0.045791444653767215 -0.20650964608705866
decision_type=2 2 2 2
left_child=3 -2 -3 -1
right_child=1 2 -4 -5
leaf_value=-0.002933048098683493 -0.015638649550244917 0.010199063593254957 -0.0035026440501837661 0.008254165712576967
leaf_weight=22 20 20 26 32
leaf_count=22 20 20 26 32
internal_value=0 -0.00302864 0.00202035 0.00332623
internal_weight=0 66 46 54
internal_count=120 66 46 54
is_linear=0
shrinkage=0.1


Tree=120
num_leaves=4
num_cat=0
split_feature=0 0 4
split_gain=0.115995 0.212824 0.222685
threshold=0.94132055932019709 -0.79231374870819959 -0.044752743146804705
decision_type=2 2 2
left_child=1 2 -1
right_child=-2 -3 -4
leaf_value=0.0044520420524230995 -0.0045587808930185525 0.008975882297344832 -0.0085580352942595788
leaf_weight=26 40 29 25
leaf_count=26 40 29 25
internal_value=0 0.00202646 -0.00153354
internal_weight=0 80 51
internal_count=120 80 51
is_linear=0
shrinkage=0.1


Tree=121
num_leaves=5
num_cat=0
split_feature=0 3 3 4
split_gain=0.122254 0.333879 0.184047 0.125274
threshold=0.6129394166695048 -0.23960450092682301 -0.25379085074601521 0.058183467815176672
decision_type=2 2 2 2
left_child=1 3 -2 -1
right_child=2 -3 -4 -5
leaf_value=-0.013980909330455912 0.0091714601736955399 0.0052643946543737647 -0.0026768849454545263 -0.0018386235952792325
leaf_weight=22 28 28 21 21
leaf_count=22 28 28 21 21
internal_value=0 -0.00280038 0.00368572 -0.00851692
internal_weight=0 71 49 43
internal_count=120 71 49 43
is_linear=0
shrinkage=0.1


Tree=122
num_leaves=5
num_cat=0
split_feature=0 1 4 1
split_gain=0.124593 0.472306 0.32568 0.158048
threshold=-0.78344063250354712 -0.086582322970508621 -0.20650964608705866 -0.099426050780972428
decision_type=2 2 2 2
left_child=3 -2 -3 -1
right_child=1 2 -4 -5
leaf_value=0.0087451812540329139 -0.015579174142583613 0.010264578461051107 -0.0065834071241380639 -0.0015779599318897879
leaf_weight=28 21 25 20 26
leaf_count=28 21 25 20 26
internal_value=0 -0.00306455 0.00233229 0.00340476
internal_weight=0 66 45 54
internal_count=120 66 45 54
is_linear=0
shrinkage=0.1


Tree=123
num_leaves=4
num_cat=0
split_feature=3 4 0
split_gain=0.11911 0.327436 0.439132
threshold=-0.1828591097898436 -0.48002586378604123 -0.80710949877455762
decision_type=2 2 2
left_child=1 -1 -3
right_child=-2 2 -4
leaf_value=-0.0069926441662908779 -0.0056044535760371552 -0.0052136241719286328 0.012070203906565873
leaf_weight=28 30 21 41
leaf_count=28 30 21 41
internal_value=0 0.0016621 0.0058935
internal_weight=0 90 62
internal_count=120 90 62
is_linear=0
shrinkage=0.1


Tree=124
num_leaves=5
num_cat=0
split_feature=0 1 4 4
split_gain=0.119365 0.381813 0.294499 0.140461
threshold=-0.78344063250354712 -0.086582322970508621 -0.20650964608705866 1.0000000180025095e-35
decision_type=2 2 2 2
left_child=3 -2 -3 -1
right_child=1 2 -4 -5
leaf_value=0.008007406666341017 -0.01426972140431922 0.0093649360650159257 -0.0066901938784336814 -0.0017317292278361332
leaf_weight=30 21 25 20 24
leaf_count=30 21 25 20 24
internal_value=0 -0.00302102 0.00178498 0.00330881
internal_weight=0 66 45 54
internal_count=120 66 45 54
is_linear=0
shrinkage=0.1


Tree=125
num_leaves=5
num_cat=0
split_feature=0 0 1 2
split_gain=0.104848 0.183371 0.218558 0.00988423
threshold=0.94132055932019709 -0.79231374870819959 -0.13094378961789552 0.016928639327879951
decision_type=2 2 2 2
left_child=1 2 -1 -2
right_child=3 -3 -4 -5
leaf_value=-0.0097882391750380507 -0.0012820109760379888 0.0083700154407582109 0.0034257830714104712 -0.0064069231279833098
leaf_weight=20 20 29 31 20
leaf_count=20 20 29 31 20
internal_value=0 0.00191457 -0.00136452 -0.00434489
internal_weight=0 80 51 40
internal_count=120 80 51 40
is_linear=0
shrinkage=0.1


Tree=126
num_leaves=4
num_cat=0
split_feature=4 0 0
split_gain=0.108305 0.431778 0.326004
threshold=-0.70648552790239916 1.2046249599864332 -0.78344063250354712
decision_type=2 2 2
left_child=-1 2 -2
right_child=1 -3 -4
leaf_value=-0.0066828854272079552 0.0026083290762188853 0.013342117998806505 -0.01067907934010779
leaf_weight=21 47 23 29
leaf_count=21 47 23 29
internal_value=0 0.00120997 -0.00219909
internal_weight=0 99 76
internal_count=120 99 76
is_linear=0
shrinkage=0.1


Tree=127
num_leaves=5
num_cat=0
split_feature=0 4 1 2
split_gain=0.106611 0.188585 0.184199 0.00319013
threshold=0.94132055932019709 -0.40355896421428156 -0.099426050780972428 0.016928639327879951
decision_type=2 2 2 2
left_child=1 -1 -3 -2
right_child=3 2 -4 -5
leaf_value=0.0088506465699469197 -0.0016469683254198625 0.0037167829298763479 -0.007947183237600219 -0.0060795130642488059
leaf_weight=27 20 29 24 20
leaf_count=27 20 29 24 20
internal_value=0 0.00195044 -0.00118794 -0.00436366
internal_weight=0 80 53 40
internal_count=120 80 53 40
is_linear=0
shrinkage=0.1


Tree=128
num_leaves=5
num_cat=0
split_feature=0 3 3 0
split_gain=0.110808 0.305107 0.138293 0.136747
threshold=0.6129394166695048 -0.23960450092682301 -0.25379085074601521 -0.889946919377261
decision_type=2 2 2 2
left_child=1 3 -2 -1
right_child=2 -3 -4 -5
leaf_value=-0.0015689571857007154 0.0082523433762288073 0.0050133585266754306 -0.0018911700419969885 -0.014088533263608292
leaf_weight=22 28 28 21 21
leaf_count=22 28 28 21 21
internal_value=0 -0.00267665 0.00349725 -0.00814916
internal_weight=0 71 49 43
internal_count=120 71 49 43
is_linear=0
shrinkage=0.1


Tree=129
num_leaves=4
num_cat=0
split_feature=4 4 2
split_gain=0.110879 0.223156 0.222325
threshold=-0.25944826886750966 -0.66237000891869291 0.023783826509029254
decision_type=2 2 2
left_child=1 -1 -2
right_child=2 -3 -4
leaf_value=0.0030617103053552121 0.0074541597401169418 -0.0094382610689452001 -0.0041266102612396776
leaf_weight=24 40 30 26
leaf_count=24 40 30 26
internal_value=0 -0.00351261 0.00258906
internal_weight=0 54 66
internal_count=120 54 66
is_linear=0
shrinkage=0.1


Tree=130
num_leaves=4
num_cat=0
split_feature=4 0 3
split_gain=0.11534 0.322895 0.277922
threshold=-0.70648552790239916 1.2046249599864332 -0.1828591097898436
decision_type=2 2 2
left_child=-1 2 -2
right_child=1 -3 -4
leaf_value=-0.0068645903943082148 0.0017987057446767045 0.011777924633649893 -0.011550892523089298
leaf_weight=21 55 23 21
leaf_count=21 55 23 21
internal_value=0 0.00128541 -0.00162738
internal_weight=0 99 76
internal_count=120 99 76
is_linear=0
shrinkage=0.1


Tree=131
num_leaves=4
num_cat=0
split_feature=0 0 1
split_gain=0.137584 0.178458 0.199647
threshold=0.94132055932019709 -0.79231374870819959 -0.13094378961789552
decision_type=2 2 2
left_child=1 2 -1
right_child=-2 -3 -4
leaf_value=-0.0090398490056488642 -0.0049118470922512886 0.0086081537529325274 0.0036259712136223368
leaf_weight=20 40 29 31
leaf_count=20 40 29 31
internal_value=0 0.00226562 -0.000949298
internal_weight=0 80 51
internal_count=120 80 51
is_linear=0
shrinkage=0.1


Tree=132
num_leaves=5
num_cat=0
split_feature=0 0 1 1
split_gain=0.118273 0.356833 0.21318 0.145791
threshold=-0.78344063250354712 0.62181433875347614 -0.045791444653767215 -0.099426050780972428
decision_type=2 2 2 2
left_child=3 -2 -3 -1
right_child=1 2 -4 -5
leaf_value=0.0084814054599150531 -0.014208853158422916 0.009577166724375594 -0.0039297078657426895 -0.0013992593732390856
leaf_weight=28 20 20 26 26
leaf_count=28 20 20 26 26
internal_value=0 -0.00295203 0.00150851 0.00335402
internal_weight=0 66 46 54
internal_count=120 66 46 54
is_linear=0
shrinkage=0.1


Tree=133
num_leaves=4
num_cat=0
split_feature=0 0 4
split_gain=0.118923 0.18268 0.196124
threshold=0.94132055932019709 -0.79231374870819959 -0.044752743146804705
decision_type=2 2 2
left_child=1 2 -1
right_child=-2 -3 -4
leaf_value=0.0044440831176090004 -0.0045680094337112506 0.0085345367571749049 -0.0077869855616091973
leaf_weight=26 40 29 25
leaf_count=26 40 29 25
internal_value=0 0.00210486 -0.0011596
internal_weight=0 80 51
internal_count=120 80 51
is_linear=0
shrinkage=0.1


Tree=134
num_leaves=4
num_cat=0
split_feature=1 0 0
split_gain=0.106716 0.344006 0.621206
threshold=-0.14849707365363776 -0.87810887489592215 0.6129394166695048
decision_type=2 2 2
left_child=-1 -2 -3
right_child=1 2 -4
leaf_value=-0.0060671956050063246 0.011076238024502185 -0.015306819100736009 0.0044675031572384985
leaf_weight=24 27 24 45
leaf_count=24 27 24 45
internal_value=0 0.00138257 -0.0021213
internal_weight=0 96 69
internal_count=120 96 69
is_linear=0
shrinkage=0.1


Tree=135
num_leaves=4
num_cat=0
split_feature=0 0 1
split_gain=0.113967 0.17679 0.161228
threshold=0.94132055932019709 -0.79231374870819959 -0.13094378961789552
decision_type=2 2 2
left_child=1 2 -1
right_child=-2 -3 -4
leaf_value=-0.0083996170768139526 -0.0044526263069312099 0.0084069362143014466 0.0029252393835327395
leaf_weight=20 40 29 31
leaf_count=20 40 29 31
internal_value=0 0.00208119 -0.00112415
internal_weight=0 80 51
internal_count=120 80 51
is_linear=0
shrinkage=0.1


Tree=136
num_leaves=4
num_cat=0
split_feature=4 0 0
split_gain=0.101013 0.307439 0.284261
threshold=-0.70648552790239916 1.2046249599864332 -0.78344063250354712
decision_type=2 2 2
left_child=-1 2 -2
right_child=1 -3 -4
leaf_value=-0.0063829607600946999 0.0028941738835065677 0.011489817213977169 -0.0095414523689670017
leaf_weight=21 47 23 29
leaf_count=21 47 23 29
internal_value=0 0.00124856 -0.00158817
internal_weight=0 99 76
internal_count=120 99 76
is_linear=0
shrinkage=0.1


Tree=137
num_leaves=4
num_cat=0
split_feature=0 0 4
split_gain=0.108727 0.174584 0.153225
threshold=0.94132055932019709 -0.79231374870819959 -0.044752743146804705
decision_type=2 2 2
left_child=1 2 -1
right_child=-2 -3 -4
leaf_value=0.003753536967268772 -0.0043335971148369635 0.0083372987610289741 -0.0070179294291239369
leaf_weight=26 40 29 25
leaf_count=26 40 29 25
internal_value=0 0.00204926 -0.00113465
internal_weight=0 80 51
internal_count=120 80 51
is_linear=0
shrinkage=0.1


Tree=138
num_leaves=4
num_cat=0
split_feature=4 4 0
split_gain=0.0978735 0.23116 0.18359
threshold=-0.25944826886750966 -0.66237000891869291 -0.78344063250354712
decision_type=2 2 2
left_child=1 -1 -2
right_child=2 -3 -4
leaf_value=0.00349829092209003 0.0080905961582209886 -0.0092730925801301524 -0.0021511484094639487
leaf_weight=24 32 30 34
leaf_count=24 32 30 34
internal_value=0 -0.00322679 0.00251178
internal_weight=0 54 66
internal_count=120 54 66
is_linear=0
shrinkage=0.1


Tree=139
num_leaves=5
num_cat=0
split_feature=0 3 4 2
split_gain=0.0996527 0.261478 0.109603 0.0996418
threshold=0.6129394166695048 -0.23960450092682301 0.058183467815176672 0.017567655721775956
decision_type=2 2 2 2
left_child=1 2 -1 -2
right_child=3 -3 -4 -5
leaf_value=-0.012622214056817247 -0.00044379441210737423 0.004630444003037951 -0.0012556648844446463 0.0078975886670387269
leaf_weight=22 24 28 21 25
leaf_count=22 24 28 21 25
internal_value=0 -0.00245689 -0.00753696 0.00340426
internal_weight=0 71 43 49
internal_count=120 71 43 49
is_linear=0
shrinkage=0.1


Tree=140
num_leaves=5
num_cat=0
split_feature=0 1 4 1
split_gain=0.0950091 0.324129 0.28661 0.156996
threshold=-0.78344063250354712 -0.086582322970508621 -0.38003068742297058 -0.099426050780972428
decision_type=2 2 2 2
left_child=3 -2 -3 -1
right_child=1 2 -4 -5
leaf_value=0.0083834577309906521 -0.013001173863245516 0.011023754937868958 -0.0048088852637941859 -0.0019548945320518383
leaf_weight=28 21 20 25 26
leaf_count=28 21 20 25 26
internal_value=0 -0.00261807 0.00178389 0.00303568
internal_weight=0 66 45 54
internal_count=120 66 45 54
is_linear=0
shrinkage=0.1


Tree=141
num_leaves=5
num_cat=0
split_feature=4 1 0 0
split_gain=0.0987589 0.30361 0.442086 0.265202
threshold=-0.70648552790239916 -0.05812330196366295 0.6129394166695048 -0.78344063250354712
decision_type=2 2 2 2
left_child=-1 3 -3 -2
right_child=1 2 -4 -5
leaf_value=-0.0063084956720538786 0.0027951085140206651 -0.0020827481667698498 0.017262493305596899 -0.010706176828552322
leaf_weight=21 28 21 23 27
leaf_count=21 28 21 23 27
internal_value=0 0.00123764 0.00757586 -0.00346956
internal_weight=0 99 44 55
internal_count=120 99 44 55
is_linear=0
shrinkage=0.1


Tree=142
num_leaves=5
num_cat=0
split_feature=0 3 0 2
split_gain=0.097604 0.174766 0.246165 0.00543567
threshold=0.94132055932019709 -0.19704545757408701 -0.80710949877455762 0.016928639327879951
decision_type=2 2 2 2
left_child=1 2 -1 -2
right_child=3 -3 -4 -5
leaf_value=-0.00053953449253456591 -0.0013347199464613007 -0.0050085339799662626 0.01204765972782563 -0.0059092917875986171
leaf_weight=30 20 23 27 20
leaf_count=30 20 23 27 20
internal_value=0 0.00192409 0.00507251 -0.0041224
internal_weight=0 80 57 40
internal_count=120 80 57 40
is_linear=0
shrinkage=0.1


Tree=143
num_leaves=4
num_cat=0
split_feature=1 2 1
split_gain=0.0885548 0.310013 1.05169
threshold=-0.14849707365363776 0.023783826509029254 -0.039684574813076544
decision_type=2 2 2
left_child=-1 2 -2
right_child=1 -3 -4
leaf_value=-0.0055583080967821904 0.018811289094288763 -0.0067244768701403626 -0.0063874818097212271
leaf_weight=24 31 31 34
leaf_count=24 31 31 34
internal_value=0 0.00122437 0.00532325
internal_weight=0 96 65
internal_count=120 96 65
is_linear=0
shrinkage=0.1


Tree=144
num_leaves=5
num_cat=0
split_feature=0 3 0 3
split_gain=0.0858641 0.259923 0.117293 0.0934574
threshold=0.6129394166695048 -0.23960450092682301 -0.889946919377261 -0.25379085074601521
decision_type=2 2 2 2
left_child=1 2 -1 -2
right_child=3 -3 -4 -5
leaf_value=-0.0012783893677974203 0.0069775742529716014 0.0046985556942342101 -0.012939908617778892 -0.0012068499677868414
leaf_weight=22 28 28 21 21
leaf_count=22 28 28 21 21
internal_value=0 -0.00237097 -0.00743945 0.00306208
internal_weight=0 71 43 49
internal_count=120 71 43 49
is_linear=0
shrinkage=0.1


Tree=145
num_leaves=4
num_cat=0
split_feature=0 3 0
split_gain=0.0938663 0.160683 0.209522
threshold=0.94132055932019709 -0.19704545757408701 -0.80710949877455762
decision_type=2 2 2
left_child=1 2 -1
right_child=-2 -3 -4
leaf_value=-0.00027066468494129346 -0.0041028905128893695 -0.0048108374672826294 0.011274378783304236
leaf_weight=30 40 23 27
leaf_count=30 40 23 27
internal_value=0 0.00182076 0.0048477
internal_weight=0 80 57
internal_count=120 80 57
is_linear=0
shrinkage=0.1


Tree=146
num_leaves=5
num_cat=0
split_feature=0 0 1 0
split_gain=0.0889514 0.310967 0.197707 0.12165
threshold=-0.78344063250354712 0.62181433875347614 -0.045791444653767215 -0.889946919377261
decision_type=2 2 2 2
left_child=3 -2 -3 -1
right_child=1 2 -4 -5
leaf_value=-0.00053297250038817452 -0.013152949230815733 0.009288577030030408 -0.0037013824623919455 0.0086344253145694948
leaf_weight=32 20 20 26 22
leaf_count=32 20 20 26 22
internal_value=0 -0.00262952 0.00151209 0.00283201
internal_weight=0 66 46 54
internal_count=120 66 46 54
is_linear=0
shrinkage=0.1


Tree=147
num_leaves=4
num_cat=0
split_feature=1 0 0
split_gain=0.0824059 0.295648 0.508916
threshold=-0.14849707365363776 -0.87810887489592215 0.6129394166695048
decision_type=2 2 2
left_child=-1 -2 -3
right_child=1 2 -4
leaf_value=-0.0054005132691298053 0.010140228286451752 -0.014041686942306217 0.003828836344935744
leaf_weight=24 27 24 45
leaf_count=24 27 24 45
internal_value=0 0.00113622 -0.00209773
internal_weight=0 96 69
internal_count=120 96 69
is_linear=0
shrinkage=0.1


Tree=148
num_leaves=4
num_cat=0
split_feature=0 0 4
split_gain=0.0952682 0.181466 0.175803
threshold=0.94132055932019709 -0.79231374870819959 -0.044752743146804705
decision_type=2 2 2
left_child=1 2 -1
right_child=-2 -3 -4
leaf_value=0.0038295145315049915 -0.0041326478271908511 0.0082624417464294605 -0.0076950825661438712
leaf_weight=26 40 29 25
leaf_count=26 40 29 25
internal_value=0 0.00183517 -0.00142788
internal_weight=0 80 51
internal_count=120 80 51
is_linear=0
shrinkage=0.1


Tree=149
num_leaves=4
num_cat=0
split_feature=4 1 2
split_gain=0.0890271 0.288562 0.258785
threshold=-0.70648552790239916 -0.0072324150280487524 0.02283310428167171
decision_type=2 2 2
left_child=-1 2 -2
right_child=1 -3 -4
leaf_value=-0.0060442423244454532 0.0034141532605652131 0.011953839814810418 -0.0079722911853238425
leaf_weight=21 44 20 35
leaf_count=21 44 20 35
internal_value=0 0.00111415 -0.00137751
internal_weight=0 99 79
internal_count=120 99 79
is_linear=0
shrinkage=0.1


Tree=150
num_leaves=4
num_cat=0
split_feature=0 0 1
split_gain=0.0875545 0.154245 0.15383
threshold=0.94132055932019709 -0.79231374870819959 -0.13094378961789552
decision_type=2 2 2
left_child=1 2 -1
right_child=-2 -3 -4
leaf_value=-0.0082989686760670603 -0.0039405195101738953 0.0077094865747411347 0.002743450724401891
leaf_weight=20 40 29 31
leaf_count=20 40 29 31
internal_value=0 0.00178306 -0.00119518
internal_weight=0 80 51
internal_count=120 80 51
is_linear=0
shrinkage=0.1


Tree=151
num_leaves=5
num_cat=0
split_feature=0 0 1 1
split_gain=0.0799865 0.265087 0.169472 0.132216
threshold=-0.78344063250354712 0.62181433875347614 -0.045791444653767215 -0.099426050780972428
decision_type=2 2 2 2
left_child=3 -2 -3 -1
right_child=1 2 -4 -5
leaf_value=0.0076611435030522331 -0.012168088387367399 0.0085731381752943286 -0.0034413468031797519 -0.0017931282895795716
leaf_weight=28 20 20 26 26
leaf_count=28 20 20 26 26
internal_value=0 -0.00244541 0.00134797 0.00273901
internal_weight=0 66 46 54
internal_count=120 66 46 54
is_linear=0
shrinkage=0.1


Tree=152
num_leaves=4
num_cat=0
split_feature=2 3 4
split_gain=0.0777908 0.278198 0.269588
threshold=1.0000000180025095e-35 -0.23960450092682301 -0.48002586378604123
decision_type=2 2 2
left_child=-1 2 -2
right_child=1 -3 -4
leaf_value=-0.0056393302066379781 -0.012135139151510243 0.0080599012748041165 0.0014865306517094059
leaf_weight=21 21 37 41
leaf_count=21 21 37 41
internal_value=0 0.00105362 -0.00280531
internal_weight=0 99 62
internal_count=120 99 62
is_linear=0
shrinkage=0.1


Tree=153
num_leaves=4
num_cat=0
split_feature=3 1 1
split_gain=0.0768611 0.208004 0.38852
threshold=-0.1828591097898436 -0.039684574813076544 -0.11883761089345647
decision_type=2 2 2
left_child=1 2 -1
right_child=-2 -3 -4
leaf_value=-0.00069456621445797588 -0.0044853278570376161 -0.0043645511428497636 0.016103366036495689
leaf_weight=34 30 35 21
leaf_count=34 30 35 21
internal_value=0 0.00135383 0.00535647
internal_weight=0 90 55
internal_count=120 90 55
is_linear=0
shrinkage=0.1


Tree=154
num_leaves=5
num_cat=0
split_feature=0 3 0 3
split_gain=0.0676502 0.210952 0.102541 0.082831
threshold=0.6129394166695048 -0.23960450092682301 -0.889946919377261 -0.25379085074601521
decision_type=2 2 2 2
left_child=1 2 -1 -2
right_child=3 -3 -4 -5
leaf_value=-0.0008804916165167263 0.0064318503248672401 0.0042294952250222949 -0.011809657922183523 -0.0012658144538245353
leaf_weight=22 28 28 21 21
leaf_count=22 28 28 21 21
internal_value=0 -0.0020983 -0.00668381 0.00272494
internal_weight=0 71 43 49
internal_count=120 71 43 49
is_linear=0
shrinkage=0.1


Tree=155
num_leaves=5
num_cat=0
split_feature=0 4 1 2
split_gain=0.0802725 0.171521 0.163431 0.0035407
threshold=0.94132055932019709 -0.40355896421428156 -0.099426050780972428 0.016928639327879951
decision_type=2 2 2 2
left_child=1 -1 -3 -2
right_child=3 2 -4 -5
leaf_value=0.0082913774212760583 -0.0011823185717454703 0.0032915865953955814 -0.0076594391883884564 -0.0053873877350629215
leaf_weight=27 20 29 24 20
leaf_count=27 20 29 24 20
internal_value=0 0.00169385 -0.0012903 -0.0037852
internal_weight=0 80 53 40
internal_count=120 80 53 40
is_linear=0
shrinkage=0.1


Tree=156
num_leaves=4
num_cat=0
split_feature=1 2 1
split_gain=0.0691151 0.249055 0.719522
threshold=-0.14849707365363776 0.023783826509029254 -0.052812564332677094
decision_type=2 2 2
left_child=-1 2 -2
right_child=1 -3 -4
leaf_value=-0.0049275372916833737 0.017371102806109675 -0.0060350354331344435 -0.0036844039780494922
leaf_weight=24 27 31 38
leaf_count=24 27 31 38
internal_value=0 0.00106208 0.00475472
internal_weight=0 96 65
internal_count=120 96 65
is_linear=0
shrinkage=0.1


Tree=157
num_leaves=5
num_cat=0
split_feature=0 1 4 0
split_gain=0.073515 0.279861 0.256431 0.121972
threshold=-0.78344063250354712 -0.086582322970508621 -0.33591516843926678 -0.889946919377261
decision_type=2 2 2 2
left_child=3 -2 -3 -1
right_child=1 2 -4 -5
leaf_value=-0.00081279531793156427 -0.012049133979161845 0.010066959556476811 -0.004837292966884274 0.0084108524648754124
leaf_weight=32 21 21 24 22
leaf_count=32 21 21 24 22
internal_value=0 -0.00239004 0.00167398 0.00257508
internal_weight=0 66 45 54
internal_count=120 66 45 54
is_linear=0
shrinkage=0.1


Tree=158
num_leaves=4
num_cat=0
split_feature=4 4 2
split_gain=0.0736802 0.206652 0.109451
threshold=-0.25944826886750966 -0.66237000891869291 0.023783826509029254
decision_type=2 2 2
left_child=1 -1 -2
right_child=2 -3 -4
leaf_value=0.0034460130333279701 0.0055291705208783621 -0.008626188277051975 -0.0024574352308342814
leaf_weight=24 40 30 26
leaf_count=24 40 30 26
internal_value=0 -0.00289061 0.00207998
internal_weight=0 54 66
internal_count=120 54 66
is_linear=0
shrinkage=0.1


Tree=159
num_leaves=5
num_cat=0
split_feature=4 1 0 1
split_gain=0.0833007 0.33876 0.354704 0.225472
threshold=-0.70648552790239916 -0.05812330196366295 0.6129394166695048 -0.13964648462135607
decision_type=2 2 2 2
left_child=-1 3 -3 -2
right_child=1 2 -4 -5
leaf_value=-0.005852748392253115 0.0017675215739559283 -0.0007417570463506076 0.016403502209196657 -0.010564043841686344
leaf_weight=21 28 21 23 27
leaf_count=21 28 21 23 27
internal_value=0 0.00107065 0.00776689 -0.00392296
internal_weight=0 99 44 55
internal_count=120 99 44 55
is_linear=0
shrinkage=0.1


Tree=160
num_leaves=4
num_cat=0
split_feature=0 4 1
split_gain=0.0859511 0.144646 0.10931
threshold=0.94132055932019709 -0.40355896421428156 -0.099426050780972428
decision_type=2 2 2
left_child=1 -1 -3
right_child=-2 2 -4
leaf_value=0.0077966168575255082 -0.0039228116548688258 0.0027066845966349229 -0.0062222994652155229
leaf_weight=27 40 29 24
leaf_count=27 40 29 24
internal_value=0 0.001746 -0.000959512
internal_weight=0 80 53
internal_count=120 80 53
is_linear=0
shrinkage=0.1


Tree=161
num_leaves=5
num_cat=0
split_feature=4 1 0 0
split_gain=0.0748768 0.288813 0.28986 0.187139
threshold=-0.70648552790239916 -0.05812330196366295 0.6129394166695048 -0.78344063250354712
decision_type=2 2 2 2
left_child=-1 3 -3 -2
right_child=1 2 -4 -5
leaf_value=-0.0055449473498918088 0.0015582990072903048 -0.00037922171737942855 0.01501287161440412 -0.0096312874251825911
leaf_weight=21 28 21 23 27
leaf_count=21 28 21 23 27
internal_value=0 0.00101967 0.00721294 -0.00357154
internal_weight=0 99 44 55
internal_count=120 99 44 55
is_linear=0
shrinkage=0.1


Tree=162
num_leaves=5
num_cat=0
split_feature=0 0 1 2
split_gain=0.0822273 0.152513 0.182989 0.0023392
threshold=0.94132055932019709 -0.79231374870819959 -0.13094378961789552 0.016928639327879951
decision_type=2 2 2 2
left_child=1 2 -1 -2
right_child=3 -3 -4 -5
leaf_value=-0.0089764918268874002 -0.0012887349807077933 0.0076135874752689282 0.0030960645902120311 -0.0053704648747224569
leaf_weight=20 20 29 31 20
leaf_count=20 20 29 31 20
internal_value=0 0.00171553 -0.00124657 -0.00382995
internal_weight=0 80 51 40
internal_count=120 80 51 40
is_linear=0
shrinkage=0.1


Tree=163
num_leaves=4
num_cat=0
split_feature=2 3 0
split_gain=0.0725441 0.223052 0.229847
threshold=1.0000000180025095e-35 -0.23960450092682301 0.6129394166695048
decision_type=2 2 2
left_child=-1 2 -2
right_child=1 -3 -4
leaf_value=-0.0054659648463431503 -0.0076469701167169351 0.0072795499955266079 0.0044805729529680529
leaf_weight=21 37 37 25
leaf_count=21 37 37 25
internal_value=0 0.000994297 -0.00243431
internal_weight=0 99 62
internal_count=120 99 62
is_linear=0
shrinkage=0.1


Tree=164
num_leaves=5
num_cat=0
split_feature=0 0 1 4
split_gain=0.0873036 0.221644 0.164924 0.106515
threshold=-0.78344063250354712 0.62181433875347614 -0.045791444653767215 -0.20650964608705866
decision_type=2 2 2 2
left_child=3 -2 -3 -1
right_child=1 2 -4 -5
leaf_value=-0.0018147946426581862 -0.011432452923884782 0.0080343989035735232 -0.0038835507957416995 0.0066917246264920453
leaf_weight=22 20 20 26 32
leaf_count=22 20 20 26 32
internal_value=0 -0.00255995 0.000863741 0.00285592
internal_weight=0 66 46 54
internal_count=120 66 46 54
is_linear=0
shrinkage=0.1


Tree=165
num_leaves=5
num_cat=0
split_feature=0 3 0 2
split_gain=0.0835735 0.141123 0.162284 0.00222342
threshold=0.94132055932019709 -0.19704545757408701 -0.80710949877455762 0.016928639327879951
decision_type=2 2 2 2
left_child=1 2 -1 -2
right_child=3 -3 -4 -5
leaf_value=0 -0.0013145180537801361 -0.004447767039377569 0.010219356306193826 -0.0053942115100785457
leaf_weight=30 20 23 27 20
leaf_count=30 20 23 27 20
internal_value=0 0.0017367 0.00458321 -0.00385472
internal_weight=0 80 57 40
internal_count=120 80 57 40
is_linear=0
shrinkage=0.1


Tree=166
num_leaves=5
num_cat=0
split_feature=0 4 1 2
split_gain=0.0680255 0.131961 0.0915415 0.000403687
threshold=0.94132055932019709 -0.43591034480233487 -0.099426050780972428 0.016928639327879951
decision_type=2 2 2 2
left_child=1 -1 -3 -2
right_child=3 2 -4 -5
leaf_value=0.0076408902333274277 -0.0011830990019067471 0.0025072557239352871 -0.0054682178798489247 -0.0048549250275701089
leaf_weight=25 20 29 26 20
leaf_count=25 20 29 26 20
internal_value=0 0.00151969 -0.000899519 -0.00351933
internal_weight=0 80 55 40
internal_count=120 80 55 40
is_linear=0
shrinkage=0.1


Tree=167
num_leaves=4
num_cat=0
split_feature=1 0 0
split_gain=0.0650335 0.255388 0.396438
threshold=-0.14849707365363776 -0.87810887489592215 0.6129394166695048
decision_type=2 2 2
left_child=-1 -2 -3
right_child=1 2 -4
leaf_value=-0.0048050005404036943 0.0093815872724012997 -0.012544900597917167 0.0031962329669218271
leaf_weight=24 27 24 45
leaf_count=24 27 24 45
internal_value=0 0.00100053 -0.00198962
internal_weight=0 96 69
internal_count=120 96 69
is_linear=0
shrinkage=0.1


Tree=168
num_leaves=4
num_cat=0
split_feature=0 0 1
split_gain=0.0660918 0.140154 0.147879
threshold=0.94132055932019709 -0.79231374870819959 -0.13094378961789552
decision_type=2 2 2
left_child=1 2 -1
right_child=-2 -3 -4
leaf_value=-0.0082762358718084066 -0.003457044421324669 0.0071804578618496944 0.0025232797177678792
leaf_weight=20 40 29 31
leaf_count=20 40 29 31
internal_value=0 0.00151162 -0.0013201
internal_weight=0 80 51
internal_count=120 80 51
is_linear=0
shrinkage=0.1


Tree=169
num_leaves=4
num_cat=0
split_feature=4 0 0
split_gain=0.0673414 0.268372 0.221248
threshold=-0.70648552790239916 1.2046249599864332 -0.78344063250354712
decision_type=2 2 2
left_child=-1 2 -2
right_child=1 -3 -4
leaf_value=-0.00526523400320663 0.0022246935323107409 0.010549361838387734 -0.0086981580380611715
leaf_weight=21 47 23 29
leaf_count=21 47 23 29
internal_value=0 0.000959242 -0.00168039
internal_weight=0 99 76
internal_count=120 99 76
is_linear=0
shrinkage=0.1


Tree=170
num_leaves=4
num_cat=0
split_feature=0 0 4
split_gain=0.0658438 0.138005 0.148578
threshold=0.94132055932019709 -0.79231374870819959 -0.044752743146804705
decision_type=2 2 2
left_child=1 2 -1
right_child=-2 -3 -4
leaf_value=0.0035262620880543746 -0.0034255010873561666 0.007160048280023661 -0.0070547866582880911
leaf_weight=26 40 29 25
leaf_count=26 40 29 25
internal_value=0 0.00153706 -0.00126859
internal_weight=0 80 51
internal_count=120 80 51
is_linear=0
shrinkage=0.1


Tree=171
num_leaves=4
num_cat=0
split_feature=4 4 0
split_gain=0.0622736 0.202177 0.108544
threshold=-0.25944826886750966 -0.66237000891869291 -0.78344063250354712
decision_type=2 2 2
left_child=1 -1 -2
right_child=2 -3 -4
leaf_value=0.0036565916280253833 0.006270218851244686 -0.0083096077845091522 -0.0015228052985499913
leaf_weight=24 32 30 34
leaf_count=24 32 30 34
internal_value=0 -0.00262111 0.00195281
internal_weight=0 54 66
internal_count=120 54 66
is_linear=0
shrinkage=0.1


Tree=172
num_leaves=4
num_cat=0
split_feature=4 0 3
split_gain=0.0676556 0.244129 0.19042
threshold=-0.70648552790239916 1.2046249599864332 -0.1828591097898436
decision_type=2 2 2
left_child=-1 2 -2
right_child=1 -3 -4
leaf_value=-0.0052455862670590624 0.0012689114665263282 0.010143871877607225 -0.0097293410945920485
leaf_weight=21 55 23 21
leaf_count=21 55 23 21
internal_value=0 0.000997843 -0.00150738
internal_weight=0 99 76
internal_count=120 99 76
is_linear=0
shrinkage=0.1


Tree=173
num_leaves=4
num_cat=0
split_feature=0 0 4
split_gain=0.0627002 0.12221 0.150741
threshold=0.94132055932019709 -0.79231374870819959 -0.044752743146804705
decision_type=2 2 2
left_child=1 2 -1
right_child=-2 -3 -4
leaf_value=0.0037603847542088259 -0.0033156043059407825 0.0068199896536044391 -0.0069272745977226827
leaf_weight=26 40 29 25
leaf_count=26 40 29 25
internal_value=0 0.00152973 -0.00108671
internal_weight=0 80 51
internal_count=120 80 51
is_linear=0
shrinkage=0.1


Tree=174
num_leaves=5
num_cat=0
split_feature=0 0 1 0
split_gain=0.0622899 0.217636 0.132996 0.101228
threshold=-0.78344063250354712 0.62181433875347614 -0.045791444653767215 -0.889946919377261
decision_type=2 2 2 2
left_child=3 -2 -3 -1
right_child=1 2 -4 -5
leaf_value=-0.0005881137377120539 -0.010961830440952433 0.0076927517807742901 -0.0029079543913334434 0.007753368066714803
leaf_weight=32 20 20 26 22
leaf_count=32 20 20 26 22
internal_value=0 -0.00213649 0.00126665 0.00244033
internal_weight=0 66 46 54
internal_count=120 66 46 54
is_linear=0
shrinkage=0.1


Tree=175
num_leaves=4
num_cat=0
split_feature=1 0 0
split_gain=0.0553892 0.200992 0.339657
threshold=-0.14849707365363776 -0.87810887489592215 0.6129394166695048
decision_type=2 2 2
left_child=-1 -2 -3
right_child=1 2 -4
leaf_value=-0.0043787920133281913 0.0084298104658195924 -0.011429759319363422 0.00314479756306945
leaf_weight=24 27 24 45
leaf_count=24 27 24 45
internal_value=0 0.000987524 -0.00163524
internal_weight=0 96 69
internal_count=120 96 69
is_linear=0
shrinkage=0.1


Tree=176
num_leaves=4
num_cat=0
split_feature=0 0 4
split_gain=0.0646005 0.142396 0.121232
threshold=0.94132055932019709 -0.79231374870819959 -0.044752743146804705
decision_type=2 2 2
left_child=1 2 -1
right_child=-2 -3 -4
leaf_value=0.0029768637195086282 -0.0033565152917462817 0.0072724217742583894 -0.006532681959710452
leaf_weight=26 40 29 25
leaf_count=26 40 29 25
internal_value=0 0.00156241 -0.00129274
internal_weight=0 80 51
internal_count=120 80 51
is_linear=0
shrinkage=0.1


Tree=177
num_leaves=4
num_cat=0
split_feature=4 4 0
split_gain=0.061732 0.193453 0.105743
threshold=-0.25944826886750966 -0.66237000891869291 -0.78344063250354712
decision_type=2 2 2
left_child=1 -1 -2
right_child=2 -3 -4
leaf_value=0.0035515526723573672 0.0062395379691035681 -0.0081439375718461143 -0.0014392554452140232
leaf_weight=24 32 30 34
leaf_count=24 32 30 34
internal_value=0 -0.00257576 0.00198098
internal_weight=0 54 66
internal_count=120 54 66
is_linear=0
shrinkage=0.1


Tree=178
num_leaves=5
num_cat=0
split_feature=4 1 0 1
split_gain=0.0685909 0.243849 0.270455 0.177681
threshold=-0.70648552790239916 -0.05812330196366295 0.6129394166695048 -0.13964648462135607
decision_type=2 2 2 2
left_child=-1 3 -3 -2
right_child=1 2 -4 -5
leaf_value=-0.0052511227170616874 0.0018468060449412247 -0.00058020579466112464 0.014285018716563715 -0.0090862366804876186
leaf_weight=21 28 21 23 27
leaf_count=21 28 21 23 27
internal_value=0 0.00103819 0.0067365 -0.00315706
internal_weight=0 99 44 55
internal_count=120 99 44 55
is_linear=0
shrinkage=0.1


Tree=179
num_leaves=4
num_cat=0
split_feature=2 3 2
split_gain=0.0676392 0.198172 0.205751
threshold=1.0000000180025095e-35 -0.23960450092682301 0.020555974315609109
decision_type=2 2 2
left_child=-1 2 -2
right_child=1 -3 -4
leaf_value=-0.0052247328619554499 -0.0079654573199991457 0.0069472056283385111 0.0032939976928614417
leaf_weight=21 32 37 30
leaf_count=21 32 37 30
internal_value=0 0.00101998 -0.00219495
internal_weight=0 99 62
internal_count=120 99 62
is_linear=0
shrinkage=0.1


Tree=180
num_leaves=5
num_cat=0
split_feature=0 0 4 2
split_gain=0.0549022 0.116457 0.118993 0.00164911
threshold=0.94132055932019709 -0.79231374870819959 -0.044752743146804705 0.016928639327879951
decision_type=2 2 2 2
left_child=1 2 -1 -2
right_child=3 -3 -4 -5
leaf_value=0.0031371906209379653 -0.00078561635568302236 0.0066167289335611395 -0.00631120281137185 -0.0043919249485467743
leaf_weight=26 20 29 25 20
leaf_count=26 20 29 25 20
internal_value=0 0.00144603 -0.00110242 -0.00308903
internal_weight=0 80 51 40
internal_count=120 80 51 40
is_linear=0
shrinkage=0.1


Tree=181
num_leaves=4
num_cat=0
split_feature=4 0 0
split_gain=0.0553868 0.212001 0.197784
threshold=-0.70648552790239916 1.2046249599864332 -0.78344063250354712
decision_type=2 2 2
left_child=-1 2 -2
right_child=1 -3 -4
leaf_value=-0.004736953024579299 0.0022749711182128941 0.0094450310356809734 -0.0080612945330079261
leaf_weight=21 47 23 29
leaf_count=21 47 23 29
internal_value=0 0.000913086 -0.00140626
internal_weight=0 99 76
internal_count=120 99 76
is_linear=0
shrinkage=0.1


Tree=182
num_leaves=4
num_cat=0
split_feature=2 3 1
split_gain=0.0567528 0.15652 0.203419
threshold=1.0000000180025095e-35 -0.23960450092682301 -0.045791444653767215
decision_type=2 2 2
left_child=-1 2 -2
right_child=1 -3 -4
leaf_value=-0.0047871155703785714 0.0019428244852569756 0.0062131248756794166 -0.0097830581595798258
leaf_weight=21 40 37 22
leaf_count=21 40 37 22
internal_value=0 0.000932914 -0.00189587
internal_weight=0 99 62
internal_count=120 99 62
is_linear=0
shrinkage=0.1


Tree=183
num_leaves=4
num_cat=0
split_feature=3 1 0
split_gain=0.0628865 0.166251 0.264869
threshold=-0.1828591097898436 -0.039684574813076544 -0.79231374870819959
decision_type=2 2 2
left_child=1 2 -1
right_child=-2 -3 -4
leaf_value=-0.0015759895345476508 -0.0040246841640963872 -0.0038158452432826661 0.01176645445267104
leaf_weight=27 30 35 28
leaf_count=27 30 35 28
internal_value=0 0.00125978 0.00485338
internal_weight=0 90 55
internal_count=120 90 55
is_linear=0
shrinkage=0.1


Tree=184
num_leaves=4
num_cat=0
split_feature=1 2 1
split_gain=0.0628983 0.209745 0.57216
threshold=-0.14849707365363776 0.023783826509029254 -0.052812564332677094
decision_type=2 2 2
left_child=-1 2 -2
right_child=1 -3 -4
leaf_value=-0.0046635177005854437 0.015711530932004399 -0.0054289979322209242 -0.0030167558606738025
leaf_weight=24 27 31 38
leaf_count=24 27 31 38
internal_value=0 0.00105528 0.00445563
internal_weight=0 96 65
internal_count=120 96 65
is_linear=0
shrinkage=0.1


Tree=185
num_leaves=5
num_cat=0
split_feature=0 1 4 4
split_gain=0.0640887 0.196854 0.284208 0.0900333
threshold=-0.78344063250354712 -0.086582322970508621 -0.33591516843926678 -0.20650964608705866
decision_type=2 2 2 2
left_child=3 -2 -3 -1
right_child=1 2 -4 -5
leaf_value=-0.0018194578071665532 -0.010303866555366706 0.0099942436146043759 -0.0057807061351778316 0.0059908066213205449
leaf_weight=22 21 21 24 32
leaf_count=22 21 21 24 32
internal_value=0 -0.00220089 0.00113683 0.00243864
internal_weight=0 66 45 54
internal_count=120 66 45 54
is_linear=0
shrinkage=0.1


Tree=186
num_leaves=5
num_cat=0
split_feature=0 0 1 0
